svm_type c_svc
kernel_type rbf
gamma 0.000488281
nr_class 2
total_sv 105
rho -490.593
label 0 1
probA -3.40531
probB 1.93249
nr_sv 53 52
SV
32768 -842150451:1 1:0.203001 2:0 
32768 -842150451:1 1:0.202677 2:0 
32768 -842150451:1 1:0.192631 2:0 
32768 -842150451:2 1:0.199426 2:0 
32768 -842150451:1 1:0.199848 2:0 
32768 -842150451:1 1:0.197317 2:0 
32768 -842150451:2 1:0.208748 2:0 
32768 -842150451:2 1:0.203811 2:0 
8128.070751128687 -842150451:2 1:0.213971 2:0 
32768 -842150451:2 1:0.1955 2:0 
32768 -842150451:2 1:0.211903 2:0 
9429.490619237384 -842150451:0 1:-11.5976 2:0 
32768 -842150451:0 1:-11.5976 2:0 
32768 -842150451:0 1:-11.5976 2:0 
32768 -842150451:0 1:-11.5976 2:0 
32768 -842150451:1 1:0.203003 2:0 
32768 -842150451:0 1:-11.5976 2:0 
32768 -842150451:0 1:-11.5976 2:0 
32768 -842150451:0 1:-11.5976 2:0 
32768 -842150451:0 1:-11.5976 2:0 
32768 -842150451:0 1:-11.5976 2:0 
32768 -842150451:0 1:-11.5976 2:0 
32768 -842150451:0 1:-11.5976 2:0 
32768 -842150451:0 1:-11.5976 2:0 
32768 -842150451:0 1:-11.5976 2:0 
32768 -842150451:0 1:-11.5976 2:0 
32768 -842150451:0 1:-11.5976 2:0 
32768 -842150451:0 1:-11.5976 2:0 
32768 -842150451:0 1:-11.5976 2:0 
32768 -842150451:0 1:-11.5976 2:0 
32768 -842150451:0 1:-11.5976 2:0 
32768 -842150451:0 1:-11.5976 2:0 
32768 -842150451:0 1:-11.5976 2:0 
32768 -842150451:0 1:-11.5976 2:0 
32768 -842150451:0 1:-11.5976 2:0 
32768 -842150451:0 1:-11.5976 2:0 
32768 -842150451:0 1:-11.5976 2:0 
32768 -842150451:0 1:-11.5976 2:0 
32768 -842150451:1 1:0.204832 2:0 
32768 -842150451:1 1:0.200287 2:0 
32768 -842150451:0 1:-11.5976 2:0 
32768 -842150451:0 1:-11.5976 2:0 
32768 -842150451:1 1:0.185431 2:0 
32768 -842150451:0 1:-11.5976 2:0 
32768 -842150451:1 1:0.200153 2:0 
32768 -842150451:1 1:0.192545 2:0 
32768 -842150451:0 1:-11.5976 2:0 
32768 -842150451:0 1:-11.5976 2:0 
32768 -842150451:1 1:0.198048 2:0 
32768 -842150451:1 1:0.195923 2:0 
32768 -842150451:0 1:-11.5976 2:0 
32768 -842150451:0 1:-11.5976 2:0 
32768 -842150451:0 1:-11.5976 2:0 
-32768 -842150451:0 1:-11.5976 2:0 
-32768 -842150451:0 1:-11.5976 2:0 
-32768 -842150451:0 1:-11.5976 2:0 
-32768 -842150451:0 1:-11.5976 2:0 
-32768 -842150451:0 1:-11.5976 2:0 
-32768 -842150451:0 1:-11.5976 2:0 
-32768 -842150451:0 1:-11.5976 2:0 
-32768 -842150451:0 1:-11.5976 2:0 
-32768 -842150451:0 1:-11.5976 2:0 
-32768 -842150451:0 1:-11.5976 2:0 
-32768 -842150451:0 1:-11.5976 2:0 
-32768 -842150451:0 1:-11.5976 2:0 
-32768 -842150451:0 1:-11.5976 2:0 
-32768 -842150451:0 1:-11.5976 2:0 
-32768 -842150451:0 1:-11.5976 2:0 
-32768 -842150451:0 1:-11.5976 2:0 
-32768 -842150451:0 1:-11.5976 2:0 
-32768 -842150451:0 1:-11.5976 2:0 
-17557.56137036604 -842150451:1 1:0.00727272 2:0 
-32768 -842150451:1 1:0.00742531 2:0 
-32768 -842150451:1 1:0.0125885 2:0 
-32768 -842150451:1 1:0.0107975 2:0 
-32768 -842150451:1 1:0.0141201 2:0 
-32768 -842150451:3 1:0.00806491 2:0 
-32768 -842150451:1 1:0.0172501 2:0 
-32768 -842150451:1 1:0.00945663 2:0 
-32768 -842150451:1 1:0.0188332 2:0 
-32768 -842150451:1 1:0.0180626 2:0 
-32768 -842150451:4 1:0.00274038 2:0 
-32768 -842150451:1 1:0.0156136 2:0 
-32768 -842150451:1 1:0.0112782 2:0 
-32768 -842150451:0 1:-11.5976 2:0 
-32768 -842150451:0 1:-11.5976 2:0 
-32768 -842150451:0 1:-11.5976 2:0 
-32768 -842150451:1 1:0.00883293 2:0 
-32768 -842150451:1 1:0.0110798 2:0 
-32768 -842150451:0 1:-11.5976 2:0 
-32768 -842150451:0 1:-11.5976 2:0 
-32768 -842150451:0 1:-11.5976 2:0 
-32768 -842150451:0 1:-11.5976 2:0 
-32768 -842150451:0 1:-11.5976 2:0 
-32768 -842150451:0 1:-11.5976 2:0 
-32768 -842150451:0 1:-11.5976 2:0 
-32768 -842150451:0 1:-11.5976 2:0 
-32768 -842150451:0 1:-11.5976 2:0 
-32768 -842150451:1 1:0.0182533 2:0 
-32768 -842150451:0 1:-11.5976 2:0 
-32768 -842150451:1 1:0.00762177 2:0 
-32768 -842150451:0 1:-11.5976 2:0 
-32768 -842150451:1 1:0.00941086 2:0 
-32768 -842150451:0 1:-11.5976 2:0 
-32768 -842150451:1 1:0.0107803 2:0 
