svm_type c_svc
kernel_type rbf
gamma 0.00195313
nr_class 4
total_sv 413
rho -0.794681 13.6707 6.2479 -0.661407 35.817 16.6603
label 0 1 2 3
probA -2.42957 -1.195 -1.42306 -2.64798 -2.41336 -1.34871
probB 0.0610745 -0.506256 0.0849516 0.237139 0.752055 -0.490616
nr_sv 81 71 125 136
SV
32768 32768 32768 -842150451:2 1:-0.00311661 2:0 
32768 0 0 -842150451:3 1:-0.00157038 2:0 
32768 32768 32768 -842150451:1 1:0.00323486 2:0 
32768 32768 32768 -842150451:1 1:-0.0102539 2:0 
32768 32768 32768 -842150451:1 1:-0.00843048 2:0 
32768 32768 32768 -842150451:1 1:-0.00998688 2:0 
32768 32768 32768 -842150451:1 1:0.00279236 2:0 
32768 0 402.0025149028377 -842150451:2 1:0.02491 2:0 
32768 0 32768 -842150451:2 1:0.0219193 2:0 
32768 0 0 -842150451:2 1:0.0312042 2:0 
32768 0 0 -842150451:2 1:0.0342922 2:0 
32768 0 0 -842150451:3 1:0.0520948 2:0 
0 32768 32768 -842150451:0 1:-55.7189 2:0 
0 32768 32768 -842150451:0 1:-55.7189 2:0 
0 32768 32768 -842150451:0 1:-55.7189 2:0 
0 32768 32768 -842150451:0 1:-55.7189 2:0 
0 32768 32768 -842150451:0 1:-55.7189 2:0 
0 32768 32768 -842150451:0 1:-55.7189 2:0 
0 32768 32768 -842150451:0 1:-55.7189 2:0 
0 32768 32768 -842150451:0 1:-55.7189 2:0 
32768 0 32768 -842150451:1 1:0.0774269 2:0 
5328.053003710408 0 32768 -842150451:1 1:0.0811195 2:0 
0 0 32768 -842150451:1 1:0.0860672 2:0 
0 0 32768 -842150451:1 1:0.0859566 2:0 
0 0 32768 -842150451:1 1:0.11684 2:0 
0 32768 32768 -842150451:0 1:-55.7189 2:0 
0 0 32768 -842150451:1 1:0.0972176 2:0 
0 0 32768 -842150451:1 1:0.0929451 2:0 
0 0 32768 -842150451:1 1:0.0930176 2:0 
0 0 32768 -842150451:1 1:0.110264 2:0 
0 0 32768 -842150451:1 1:0.137177 2:0 
0 0 32768 -842150451:1 1:0.0837097 2:0 
0 0 32768 -842150451:1 1:0.102901 2:0 
0 32768 32768 -842150451:0 1:-55.7189 2:0 
0 32768 32768 -842150451:0 1:-55.7189 2:0 
0 32768 32768 -842150451:0 1:-55.7189 2:0 
0 32768 32768 -842150451:0 1:-55.7189 2:0 
0 32768 32768 -842150451:0 1:-55.7189 2:0 
0 32768 32768 -842150451:0 1:-55.7189 2:0 
0 32768 32768 -842150451:0 1:-55.7189 2:0 
0 32768 32768 -842150451:0 1:-55.7189 2:0 
0 32768 32768 -842150451:0 1:-55.7189 2:0 
0 32768 32768 -842150451:0 1:-55.7189 2:0 
0 32768 32768 -842150451:0 1:-55.7189 2:0 
0 32768 32768 -842150451:0 1:-55.7189 2:0 
0 32768 32768 -842150451:0 1:-55.7189 2:0 
0 32768 32768 -842150451:0 1:-55.7189 2:0 
0 32768 32768 -842150451:0 1:-55.7189 2:0 
0 32768 32768 -842150451:0 1:-55.7189 2:0 
0 32768 32768 -842150451:0 1:-55.7189 2:0 
0 32768 32768 -842150451:0 1:-55.7189 2:0 
0 32768 32768 -842150451:0 1:-55.7189 2:0 
0 32768 32768 -842150451:0 1:-55.7189 2:0 
0 32768 32768 -842150451:0 1:-55.7189 2:0 
0 32768 32768 -842150451:0 1:-55.7189 2:0 
0 32768 32768 -842150451:0 1:-55.7189 2:0 
32768 32768 32768 -842150451:1 1:-0.0223923 2:0 
32768 32768 32768 -842150451:1 1:-0.018074 2:0 
0 32768 32768 -842150451:0 1:-55.7189 2:0 
0 32768 32768 -842150451:0 1:-55.7189 2:0 
0 32768 32768 -842150451:0 1:-55.7189 2:0 
0 32768 32768 -842150451:0 1:-55.7189 2:0 
0 32768 32768 -842150451:0 1:-55.7189 2:0 
0 32768 32768 -842150451:0 1:-55.7189 2:0 
0 32768 32768 -842150451:0 1:-55.7189 2:0 
0 32768 32768 -842150451:0 1:-55.7189 2:0 
0 32768 32768 -842150451:0 1:-55.7189 2:0 
0 32768 32768 -842150451:0 1:-55.7189 2:0 
0 0 32768 -842150451:1 1:0.140865 2:0 
0 0 32768 -842150451:1 1:0.12257 2:0 
3.64482172651649 32768 32768 -842150451:0 1:-55.7189 2:0 
32768 32768 32768 -842150451:0 1:-55.7189 2:0 
0 0 32768 -842150451:1 1:0.117817 2:0 
0 0 32768 -842150451:1 1:0.112289 2:0 
32768 32768 32768 -842150451:1 1:0.0740891 2:0 
32768 32768 32768 -842150451:1 1:0.0699997 2:0 
32768 32768 32768 -842150451:0 1:-55.7189 2:0 
0 0 32768 -842150451:1 1:0.123459 2:0 
32768 32768 32768 -842150451:0 1:-55.7189 2:0 
32767.95734315158 32768 32768 -842150451:0 1:-55.7189 2:0 
0 0 29272.77400187139 -842150451:1 1:0.155548 2:0 
-0 0 32768 -842150451:1 1:-0.00175858 2:0 
-0 0 32768 -842150451:1 1:-0.00626755 2:0 
-0 0 32768 -842150451:2 1:-0.00637627 2:0 
-0 0 32768 -842150451:1 1:-0.00146103 2:0 
-0 32768 0 -842150451:1 1:-0.00854111 2:0 
-0 3734.289499179892 32768 -842150451:1 1:-0.00678253 2:0 
-0 32768 0 -842150451:1 1:-0.00805664 2:0 
-0 6.997357158214644 32768 -842150451:2 1:-0.00872421 2:0 
-0 0 32768 -842150451:1 1:-0.0019455 2:0 
-0 32768 0 -842150451:2 1:-0.00911331 2:0 
-0 0 28633.64990434533 -842150451:2 1:-0.00647163 2:0 
-0 0 32768 -842150451:1 1:-0.0014801 2:0 
-0 32768 0 -842150451:1 1:-0.00790024 2:0 
-0 0 32768 -842150451:1 1:-0.00638199 2:0 
-0 0 32768 -842150451:1 1:-0.00172424 2:0 
-0 0 32768 -842150451:1 1:-0.00177383 2:0 
-0 0 32768 -842150451:1 1:-0.00176239 2:0 
-16709.28057854354 0 0 -842150451:1 1:0.00606918 2:0 
-0 32768 32768 -842150451:1 1:-0.00865555 2:0 
-0 32768 9517.72412960819 -842150451:1 1:-0.00704575 2:0 
-0 32768 32768 -842150451:1 1:-0.00880051 2:0 
-0 32768 0 -842150451:1 1:-0.00743866 2:0 
-0 32768 0 -842150451:1 1:-0.00733185 2:0 
-0 32768 32768 -842150451:1 1:-0.011158 2:0 
-0 0 32768 -842150451:1 1:-0.00620651 2:0 
-0 0 32768 -842150451:1 1:0.0026474 2:0 
-0 0 32768 -842150451:1 1:-0.00658035 2:0 
-32768 0 0 -842150451:1 1:0.00714874 2:0 
-32768 32768 32768 -842150451:0 1:-55.7189 2:0 
-0 0 32768 -842150451:1 1:-0.00168228 2:0 
-32768 0 0 -842150451:1 1:0.00882339 2:0 
-0 0 32768 -842150451:1 1:-0.00153351 2:0 
-0 0 32768 -842150451:1 1:-0.00650406 2:0 
-0 0 32768 -842150451:1 1:-0.00179291 2:0 
-0 32768 0 -842150451:1 1:-0.00760651 2:0 
-0 32768 0 -842150451:1 1:-0.0072403 2:0 
-0 0 32768 -842150451:1 1:-0.00157928 2:0 
-32768 32768 32768 -842150451:0 1:-55.7189 2:0 
-0 32768 32768 -842150451:1 1:-0.0107689 2:0 
-0 32768 32768 -842150451:1 1:-0.00907898 2:0 
-0 0 32768 -842150451:1 1:-0.00622177 2:0 
-0 32768 32768 -842150451:1 1:-0.010582 2:0 
-0 0 25948.87415485731 -842150451:1 1:0.0030098 2:0 
-32768 32768 32768 -842150451:0 1:-55.7189 2:0 
-0 32768 0 -842150451:1 1:-0.00756073 2:0 
-32768 32768 32768 -842150451:0 1:-55.7189 2:0 
-0 0 32768 -842150451:1 1:-0.00173187 2:0 
-32768 0 0 -842150451:1 1:0.00625992 2:0 
-32768 0 0 -842150451:2 1:0.00951385 2:0 
-0 0 32768 -842150451:1 1:-0.00177765 2:0 
-31955.84722877668 0 0 -842150451:2 1:0.00514984 2:0 
-22202.52736126842 0 1398.238592714154 -842150451:4 1:0.00537682 2:0 
-32768 0 0 -842150451:1 1:0.00662994 2:0 
-32768 0 0 -842150451:2 1:0.00572968 2:0 
-32768 0 0 -842150451:1 1:0.00950241 2:0 
-32768 0 0 -842150451:2 1:0.00604057 2:0 
-32768 0 0 -842150451:2 1:0.00543976 2:0 
-0 32768 32768 -842150451:1 1:-0.0108871 2:0 
-0 0 32768 -842150451:1 1:0.0055809 2:0 
-0 0 32768 -842150451:1 1:-0.00627899 2:0 
-0 0 32768 -842150451:1 1:0.00255966 2:0 
-0 0 32768 -842150451:1 1:-0.0018425 2:0 
-32768 0 0 -842150451:1 1:0.00727463 2:0 
-32768 0 0 -842150451:2 1:0.00718307 2:0 
-32768 0 0 -842150451:2 1:0.00663185 2:0 
-32768 0 0 -842150451:1 1:0.00862885 2:0 
-0 0 32768 -842150451:1 1:-0.00577545 2:0 
-0 0 32768 -842150451:1 1:-0.00156021 2:0 
-0 0 32768 -842150451:1 1:-0.00192261 2:0 
-32768 0 0 -842150451:1 1:0.00844574 2:0 
-32768 0 0 -842150451:1 1:0.00782013 2:0 
-0 -0 32768 -842150451:0 1:-55.7189 2:0 
-0 -0 32768 -842150451:0 1:-55.7189 2:0 
-0 -0 32768 -842150451:0 1:-55.7189 2:0 
-32768 -32768 32768 -842150451:1 1:0.00129318 2:0 
-0 -0 32768 -842150451:0 1:-55.7189 2:0 
-0 -0 32768 -842150451:1 1:-0.259212 2:0 
-0 -0 32768 -842150451:0 1:-55.7189 2:0 
-0 -0 32768 -842150451:0 1:-55.7189 2:0 
-0 -0 32768 -842150451:0 1:-55.7189 2:0 
-0 -0 32768 -842150451:0 1:-55.7189 2:0 
-0 -0 32768 -842150451:0 1:-55.7189 2:0 
-0 -0 32768 -842150451:0 1:-55.7189 2:0 
-0 -0 32768 -842150451:0 1:-55.7189 2:0 
-0 -0 32768 -842150451:0 1:-55.7189 2:0 
-0 -0 32768 -842150451:0 1:-55.7189 2:0 
-0 -0 32768 -842150451:0 1:-55.7189 2:0 
-0 -0 32768 -842150451:0 1:-55.7189 2:0 
-0 -0 32768 -842150451:0 1:-55.7189 2:0 
-0 -0 32768 -842150451:0 1:-55.7189 2:0 
-0 -0 32768 -842150451:0 1:-55.7189 2:0 
-0 -0 32768 -842150451:0 1:-55.7189 2:0 
-0 -0 32768 -842150451:0 1:-55.7189 2:0 
-0 -0 32768 -842150451:0 1:-55.7189 2:0 
-32768 -32768 32768 -842150451:1 1:0.00518417 2:0 
-0 -0 32768 -842150451:0 1:-55.7189 2:0 
-0 -0 32768 -842150451:0 1:-55.7189 2:0 
-0 -0 32768 -842150451:0 1:-55.7189 2:0 
-0 -0 32768 -842150451:0 1:-55.7189 2:0 
-0 -0 32768 -842150451:0 1:-55.7189 2:0 
-0 -0 32768 -842150451:0 1:-55.7189 2:0 
-0 -0 32768 -842150451:0 1:-55.7189 2:0 
-0 -0 32768 -842150451:0 1:-55.7189 2:0 
-0 -0 32768 -842150451:0 1:-55.7189 2:0 
-0 -0 32768 -842150451:0 1:-55.7189 2:0 
-0 -0 32768 -842150451:0 1:-55.7189 2:0 
-0 -0 32768 -842150451:0 1:-55.7189 2:0 
-0 -0 32768 -842150451:0 1:-55.7189 2:0 
-0 -0 32768 -842150451:0 1:-55.7189 2:0 
-0 -0 32768 -842150451:0 1:-55.7189 2:0 
-0 -0 32768 -842150451:0 1:-55.7189 2:0 
-0 -0 32768 -842150451:0 1:-55.7189 2:0 
-0 -0 32768 -842150451:0 1:-55.7189 2:0 
-0 -0 32768 -842150451:0 1:-55.7189 2:0 
-0 -0 32768 -842150451:0 1:-55.7189 2:0 
-0 -0 32768 -842150451:0 1:-55.7189 2:0 
-0 -0 32768 -842150451:0 1:-55.7189 2:0 
-3399.844080590331 -32768 32768 -842150451:1 1:-0.00991821 2:0 
-0 -0 32768 -842150451:0 1:-55.7189 2:0 
-0 -32768 32768 -842150451:1 1:-0.0155449 2:0 
-0 -0 32768 -842150451:0 1:-55.7189 2:0 
-0 -0 32768 -842150451:2 1:-0.249815 2:0 
-0 -0 32768 -842150451:0 1:-55.7189 2:0 
-0 -0 32768 -842150451:0 1:-55.7189 2:0 
-0 -0 32768 -842150451:0 1:-55.7189 2:0 
-32768 -32768 32768 -842150451:1 1:-0.00319672 2:0 
-0 -0 32768 -842150451:1 1:-0.130745 2:0 
-0 -32768 32768 -842150451:1 1:-0.100983 2:0 
-0 -0 32768 -842150451:1 1:-0.193253 2:0 
-28611.01212222688 -32768 32768 -842150451:2 1:-0.0837765 2:0 
-0 -0 32768 -842150451:0 1:-55.7189 2:0 
-0 -0 32768 -842150451:0 1:-55.7189 2:0 
-32768 -0 32768 -842150451:0 1:-55.7189 2:0 
-32768 -0 32768 -842150451:0 1:-55.7189 2:0 
-32768 -0 32768 -842150451:0 1:-55.7189 2:0 
-32768 -0 32768 -842150451:0 1:-55.7189 2:0 
-32768 -32768 32768 -842150451:1 1:-0.00392914 2:0 
-0 -0 189.4814218116799 -842150451:2 1:-0.261097 2:0 
-32768 -0 32768 -842150451:0 1:-55.7189 2:0 
-32768 -0 32768 -842150451:0 1:-55.7189 2:0 
-32768 -32768 32768 -842150451:1 1:-0.00896835 2:0 
-32768 -0 32768 -842150451:0 1:-55.7189 2:0 
-32768 -0 32768 -842150451:0 1:-55.7189 2:0 
-32768 -32768 32768 -842150451:1 1:-0.00106049 2:0 
-32768 -0 32768 -842150451:0 1:-55.7189 2:0 
-32768 -32768 32768 -842150451:1 1:-0.00309753 2:0 
-32768 -0 32768 -842150451:0 1:-55.7189 2:0 
-32768 -0 32768 -842150451:0 1:-55.7189 2:0 
-32768 -0 32768 -842150451:0 1:-55.7189 2:0 
-32768 -0 32768 -842150451:0 1:-55.7189 2:0 
-32768 -0 32768 -842150451:0 1:-55.7189 2:0 
-32768 -0 32768 -842150451:0 1:-55.7189 2:0 
-32768 -0 32768 -842150451:0 1:-55.7189 2:0 
-32768 -0 32768 -842150451:0 1:-55.7189 2:0 
-0 -3741.992908687681 32768 -842150451:1 1:-0.117634 2:0 
-32768 -0 32768 -842150451:0 1:-55.7189 2:0 
-0 -0 32768 -842150451:1 1:-0.200371 2:0 
-0 -0 32768 -842150451:1 1:-0.149826 2:0 
-0 -32768 32768 -842150451:1 1:-0.0106049 2:0 
-32768 -32768 32768 -842150451:1 1:-0.000751495 2:0 
-32768 -0 32768 -842150451:0 1:-55.7189 2:0 
-32768 -0 32768 -842150451:0 1:-55.7189 2:0 
-32768 -0 32768 -842150451:0 1:-55.7189 2:0 
-32768 -0 32768 -842150451:0 1:-55.7189 2:0 
-32768 -0 32768 -842150451:0 1:-55.7189 2:0 
-32768 -0 32768 -842150451:0 1:-55.7189 2:0 
-32768 -0 32768 -842150451:0 1:-55.7189 2:0 
-32768 -0 32768 -842150451:0 1:-55.7189 2:0 
-32768 -0 32768 -842150451:0 1:-55.7189 2:0 
-32768 -0 32768 -842150451:0 1:-55.7189 2:0 
-32768 -0 32768 -842150451:0 1:-55.7189 2:0 
-32768 -0 32768 -842150451:0 1:-55.7189 2:0 
-32768 -0 32768 -842150451:0 1:-55.7189 2:0 
-32768 -0 32768 -842150451:0 1:-55.7189 2:0 
-32768 -0 32768 -842150451:0 1:-55.7189 2:0 
-32768 -0 32768 -842150451:0 1:-55.7189 2:0 
-32768 -0 32768 -842150451:0 1:-55.7189 2:0 
-32768 -0 32768 -842150451:0 1:-55.7189 2:0 
-32768 -0 32768 -842150451:0 1:-55.7189 2:0 
-32768 -0 32768 -842150451:0 1:-55.7189 2:0 
-32768 -0 32768 -842150451:0 1:-55.7189 2:0 
-32768 -0 32768 -842150451:0 1:-55.7189 2:0 
-32768 -0 32768 -842150451:0 1:-55.7189 2:0 
-32768 -0 32768 -842150451:0 1:-55.7189 2:0 
-32768 -0 32768 -842150451:0 1:-55.7189 2:0 
-32768 -32768 32768 -842150451:0 1:-55.7189 2:0 
-0 -0 31400.35967921327 -842150451:1 1:-0.423294 2:0 
-0 -32768 32768 -842150451:1 1:-0.0126686 2:0 
-32768 -32768 32768 -842150451:0 1:-55.7189 2:0 
-0 -32768 32768 -842150451:1 1:-0.0104599 2:0 
-32768 -32768 32768 -842150451:0 1:-55.7189 2:0 
-0 -32768 32768 -842150451:1 1:-0.0102882 2:0 
-0 -0 32768 -842150451:2 1:-0.187883 2:0 
-32752.38753386491 -32767.29394765043 32768 -842150451:0 1:-55.7189 2:0 
-32768 -32768 32768 -842150451:1 1:-0.0078125 2:0 
-772.7562633178389 -0 0 -842150451:6 1:-0.255274 2:0 
-32768 -32768 -31605.82613251277 -842150451:1 1:0.00908279 2:0 
-32768 -32768 -32768 -842150451:1 1:-0.01017 2:0 
-32768 -32768 -32768 -842150451:1 1:-0.008255 2:0 
-0 -32768 -32768 -842150451:1 1:-0.0181541 2:0 
-0 -32768 -32768 -842150451:1 1:-0.0917587 2:0 
-32768 -32768 -32768 -842150451:1 1:-0.00224304 2:0 
-32768 -32768 -32768 -842150451:2 1:-0.0094471 2:0 
-32768 -32768 -32768 -842150451:1 1:-0.0070343 2:0 
-32768 -32768 -32768 -842150451:1 1:-0.00787735 2:0 
-32768 -32768 -32768 -842150451:1 1:-0.00708771 2:0 
-32768 -32768 -32768 -842150451:1 1:-0.0093689 2:0 
-32768 -32768 -32768 -842150451:1 1:-0.00691986 2:0 
-32768 -32768 -0 -842150451:1 1:0.037262 2:0 
-32768 -32768 -32768 -842150451:1 1:-0.00543594 2:0 
-32768 -32768 -0 -842150451:1 1:0.275715 2:0 
-32768 -32768 -0 -842150451:1 1:0.313271 2:0 
-32768 -32768 -0 -842150451:1 1:0.0841599 2:0 
-32768 -32768 -32768 -842150451:1 1:-0.00648499 2:0 
-0 -32768 -32768 -842150451:1 1:-0.586723 2:0 
-0 -32768 -32768 -842150451:1 1:-0.0154953 2:0 
-32768 -32768 -0 -842150451:1 1:0.347275 2:0 
-0 -32768 -32768 -842150451:1 1:-0.0146103 2:0 
-32768 -32768 -0 -842150451:1 1:0.249607 2:0 
-32768 -32768 -0 -842150451:1 1:0.115841 2:0 
-0 -32768 -32768 -842150451:1 1:-0.0135269 2:0 
-0 -0 -32768 -842150451:0 1:-55.7189 2:0 
-0 -0 -32768 -842150451:0 1:-55.7189 2:0 
-0 -0 -32768 -842150451:0 1:-55.7189 2:0 
-0 -0 -32768 -842150451:0 1:-55.7189 2:0 
-0 -0 -32768 -842150451:0 1:-55.7189 2:0 
-0 -0 -32768 -842150451:0 1:-55.7189 2:0 
-0 -0 -32768 -842150451:0 1:-55.7189 2:0 
-0 -0 -32768 -842150451:0 1:-55.7189 2:0 
-0 -0 -32768 -842150451:0 1:-55.7189 2:0 
-0 -0 -32768 -842150451:0 1:-55.7189 2:0 
-0 -0 -32768 -842150451:0 1:-55.7189 2:0 
-0 -0 -32768 -842150451:0 1:-55.7189 2:0 
-0 -0 -32768 -842150451:0 1:-55.7189 2:0 
-0 -0 -32768 -842150451:0 1:-55.7189 2:0 
-0 -0 -32768 -842150451:0 1:-55.7189 2:0 
-0 -0 -32768 -842150451:0 1:-55.7189 2:0 
-0 -0 -32768 -842150451:0 1:-55.7189 2:0 
-32768 -32768 -0 -842150451:1 1:0.118488 2:0 
-0 -0 -32768 -842150451:0 1:-55.7189 2:0 
-0 -0 -32768 -842150451:0 1:-55.7189 2:0 
-0 -0 -32768 -842150451:0 1:-55.7189 2:0 
-0 -32768 -32768 -842150451:1 1:-0.375435 2:0 
-0 -0 -32768 -842150451:0 1:-55.7189 2:0 
-0 -0 -32768 -842150451:0 1:-55.7189 2:0 
-0 -0 -32768 -842150451:0 1:-55.7189 2:0 
-32768 -32768 -0 -842150451:1 1:0.0956764 2:0 
-0 -0 -32768 -842150451:0 1:-55.7189 2:0 
-0 -0 -32768 -842150451:0 1:-55.7189 2:0 
-0 -0 -32768 -842150451:0 1:-55.7189 2:0 
-0 -0 -32768 -842150451:0 1:-55.7189 2:0 
-0 -0 -32768 -842150451:0 1:-55.7189 2:0 
-0 -0 -32768 -842150451:0 1:-55.7189 2:0 
-29681.92576526135 -32768 -32768 -842150451:1 1:-0.0127411 2:0 
-0 -0 -32768 -842150451:0 1:-55.7189 2:0 
-0 -0 -32768 -842150451:0 1:-55.7189 2:0 
-0 -0 -32768 -842150451:0 1:-55.7189 2:0 
-0 -0 -32768 -842150451:0 1:-55.7189 2:0 
-0 -0 -32768 -842150451:0 1:-55.7189 2:0 
-0 -0 -32768 -842150451:0 1:-55.7189 2:0 
-0 -0 -32768 -842150451:0 1:-55.7189 2:0 
-0 -0 -32768 -842150451:0 1:-55.7189 2:0 
-0 -0 -32768 -842150451:0 1:-55.7189 2:0 
-0 -0 -32768 -842150451:0 1:-55.7189 2:0 
-0 -0 -32768 -842150451:0 1:-55.7189 2:0 
-32768 -32768 -0 -842150451:1 1:0.0543518 2:0 
-32768 -32768 -0 -842150451:1 1:0.0619049 2:0 
-0 -0 -32768 -842150451:0 1:-55.7189 2:0 
-0 -0 -32768 -842150451:0 1:-55.7189 2:0 
-0 -0 -32768 -842150451:0 1:-55.7189 2:0 
-0 -0 -32768 -842150451:0 1:-55.7189 2:0 
-0 -0 -32768 -842150451:0 1:-55.7189 2:0 
-0 -0 -32768 -842150451:0 1:-55.7189 2:0 
-0 -32768 -32768 -842150451:1 1:-0.0216064 2:0 
-0 -0 -32768 -842150451:0 1:-55.7189 2:0 
-0 -0 -32768 -842150451:0 1:-55.7189 2:0 
-0 -0 -32768 -842150451:0 1:-55.7189 2:0 
-18.89585596506155 -0 -32768 -842150451:0 1:-55.7189 2:0 
-32768 -0 -32768 -842150451:0 1:-55.7189 2:0 
-32768 -32768 -0 -842150451:1 1:0.102322 2:0 
-32768 -0 -32768 -842150451:0 1:-55.7189 2:0 
-32768 -0 -32768 -842150451:0 1:-55.7189 2:0 
-0 -32768 -32768 -842150451:1 1:-0.583969 2:0 
-32768 -0 -32768 -842150451:0 1:-55.7189 2:0 
-32768 -0 -32768 -842150451:0 1:-55.7189 2:0 
-32768 -32768 -32768 -842150451:2 1:0.0602036 2:0 
-32768 -32768 -0 -842150451:1 1:0.103001 2:0 
-32768 -0 -32768 -842150451:0 1:-55.7189 2:0 
-32768 -0 -32768 -842150451:0 1:-55.7189 2:0 
-32768 -0 -32768 -842150451:0 1:-55.7189 2:0 
-32768 -0 -32768 -842150451:0 1:-55.7189 2:0 
-32768 -0 -32768 -842150451:0 1:-55.7189 2:0 
-32768 -0 -32768 -842150451:0 1:-55.7189 2:0 
-32768 -0 -32768 -842150451:0 1:-55.7189 2:0 
-32768 -0 -32768 -842150451:0 1:-55.7189 2:0 
-32768 -0 -32768 -842150451:0 1:-55.7189 2:0 
-32768 -0 -32768 -842150451:0 1:-55.7189 2:0 
-32768 -0 -32768 -842150451:0 1:-55.7189 2:0 
-32768 -0 -32768 -842150451:0 1:-55.7189 2:0 
-32768 -0 -32768 -842150451:0 1:-55.7189 2:0 
-32768 -0 -32768 -842150451:0 1:-55.7189 2:0 
-32768 -0 -32768 -842150451:0 1:-55.7189 2:0 
-32768 -0 -32768 -842150451:0 1:-55.7189 2:0 
-32768 -0 -32768 -842150451:0 1:-55.7189 2:0 
-32768 -0 -32768 -842150451:0 1:-55.7189 2:0 
-32768 -0 -32768 -842150451:0 1:-55.7189 2:0 
-32768 -0 -32768 -842150451:0 1:-55.7189 2:0 
-32768 -0 -32768 -842150451:0 1:-55.7189 2:0 
-32768 -0 -32768 -842150451:0 1:-55.7189 2:0 
-32768 -0 -32768 -842150451:0 1:-55.7189 2:0 
-32768 -0 -32768 -842150451:0 1:-55.7189 2:0 
-32768 -0 -32768 -842150451:0 1:-55.7189 2:0 
-0 -32768 -32768 -842150451:2 1:-0.382248 2:0 
-32768 -0 -32768 -842150451:0 1:-55.7189 2:0 
-32768 -0 -32768 -842150451:0 1:-55.7189 2:0 
-32768 -0 -32768 -842150451:0 1:-55.7189 2:0 
-32768 -0 -32768 -842150451:0 1:-55.7189 2:0 
-32768 -0 -32768 -842150451:0 1:-55.7189 2:0 
-32768 -0 -32768 -842150451:0 1:-55.7189 2:0 
-32768 -0 -32768 -842150451:0 1:-55.7189 2:0 
-32768 -0 -32768 -842150451:0 1:-55.7189 2:0 
-32768 -0 -32768 -842150451:0 1:-55.7189 2:0 
-32768 -0 -32768 -842150451:0 1:-55.7189 2:0 
-32768 -0 -32768 -842150451:0 1:-55.7189 2:0 
-32768 -32768 -32768 -842150451:1 1:0.00149155 2:0 
-32768 -0 -32768 -842150451:0 1:-55.7189 2:0 
-32768 -0 -32768 -842150451:0 1:-55.7189 2:0 
-32768 -32768 -32768 -842150451:1 1:-0.0101929 2:0 
-32768 -32768 -32768 -842150451:0 1:-55.7189 2:0 
-32768 -32768 -32768 -842150451:0 1:-55.7189 2:0 
-32768 -32768 -32768 -842150451:0 1:-55.7189 2:0 
-32741.95489554781 -32730.48678152495 -32752.01496851217 -842150451:0 1:-55.7189 2:0 
