svm_type c_svc
kernel_type rbf
gamma 8
nr_class 4
total_sv 3403
rho -0.187026 0.370125 -1 0.58658 -1 -1
label 0 1 2 3
probA -0.967631 -1.05038 -0.00114881 -1.41159 -0.00119706 -0.00097784
probB -0.603261 0.330096 -1.50885 0.453536 -1.66773 -1.08865
nr_sv 1179 1250 638 336
SV
0 512 0 -842150451:1 1:-0.560593 2:0 
512 0 0 -842150451:0 1:-5.39135 2:0 
512 0 0 -842150451:0 1:-5.39135 2:0 
0 512 0 -842150451:1 1:-0.419544 2:0 
512 0 0 -842150451:0 1:-5.39135 2:0 
0 512 0 -842150451:1 1:-0.382809 2:0 
407.2596039896621 512 0 -842150451:1 1:-0.381832 2:0 
0 512 0 -842150451:1 1:-0.40802 2:0 
512 512 0 -842150451:3 1:-0.452576 2:0 
512 366.6144773720652 0 -842150451:1 1:-0.563622 2:0 
512 0 0 -842150451:0 1:-5.39135 2:0 
512 0 0 -842150451:0 1:-5.39135 2:0 
512 0 0 -842150451:1 1:-0.0185394 2:0 
0 512 0 -842150451:1 1:-0.43026 2:0 
512 0 0 -842150451:0 1:-5.39135 2:0 
512 486.8102519927958 0 -842150451:2 1:-0.481737 2:0 
512 0 0 -842150451:0 1:-5.39135 2:0 
512 0 0 -842150451:0 1:-5.39135 2:0 
323.8312268768249 512 0 -842150451:1 1:-0.561001 2:0 
512 0 0 -842150451:0 1:-5.39135 2:0 
512 0 0 -842150451:0 1:-5.39135 2:0 
512 0 0 -842150451:1 1:-0.0240173 2:0 
512 0 0 -842150451:0 1:-5.39135 2:0 
512 0 0 -842150451:0 1:-5.39135 2:0 
512 0 0 -842150451:0 1:-5.39135 2:0 
512 0 0 -842150451:0 1:-5.39135 2:0 
512 512 0 -842150451:1 1:-0.337635 2:0 
512 0 0 -842150451:0 1:-5.39135 2:0 
512 0 0 -842150451:0 1:-5.39135 2:0 
512 0 0 -842150451:0 1:-5.39135 2:0 
512 512 0 -842150451:2 1:-0.213942 2:0 
512 0 0 -842150451:0 1:-5.39135 2:0 
512 0 0 -842150451:2 1:-0.551737 2:0 
512 512 0 -842150451:1 1:-0.346554 2:0 
512 512 0 -842150451:1 1:-0.348778 2:0 
512 0 0 -842150451:0 1:-5.39135 2:0 
512 0 0 -842150451:0 1:-5.39135 2:0 
512 0 0 -842150451:0 1:-5.39135 2:0 
512 0 0 -842150451:2 1:-0.603165 2:0 
512 512 0 -842150451:2 1:-0.304323 2:0 
512 0 0 -842150451:0 1:-5.39135 2:0 
512 0 0 -842150451:0 1:-5.39135 2:0 
512 0 0 -842150451:0 1:-5.39135 2:0 
512 0 0 -842150451:0 1:-5.39135 2:0 
512 0 0 -842150451:0 1:-5.39135 2:0 
512 0 0 -842150451:1 1:-0.569855 2:0 
512 0 0 -842150451:0 1:-5.39135 2:0 
512 0 0 -842150451:0 1:-5.39135 2:0 
512 0 0 -842150451:1 1:-0.020874 2:0 
512 0 0 -842150451:0 1:-5.39135 2:0 
512 0 0 -842150451:0 1:-5.39135 2:0 
512 0 0 -842150451:0 1:-5.39135 2:0 
512 0 0 -842150451:0 1:-5.39135 2:0 
512 0 0 -842150451:0 1:-5.39135 2:0 
512 0 0 -842150451:0 1:-5.39135 2:0 
512 0 0 -842150451:0 1:-5.39135 2:0 
512 0 0 -842150451:0 1:-5.39135 2:0 
512 0 0 -842150451:1 1:-0.0176544 2:0 
512 0 0 -842150451:0 1:-5.39135 2:0 
512 0 0 -842150451:0 1:-5.39135 2:0 
512 0 0 -842150451:0 1:-5.39135 2:0 
512 0 0 -842150451:0 1:-5.39135 2:0 
512 0 0 -842150451:0 1:-5.39135 2:0 
512 0 0 -842150451:0 1:-5.39135 2:0 
512 0 0 -842150451:0 1:-5.39135 2:0 
512 0 0 -842150451:0 1:-5.39135 2:0 
512 0 0 -842150451:1 1:-0.0259018 2:0 
512 0 0 -842150451:0 1:-5.39135 2:0 
512 0 0 -842150451:0 1:-5.39135 2:0 
512 0 0 -842150451:0 1:-5.39135 2:0 
512 0 0 -842150451:0 1:-5.39135 2:0 
512 0 0 -842150451:0 1:-5.39135 2:0 
512 0 0 -842150451:0 1:-5.39135 2:0 
512 0 0 -842150451:0 1:-5.39135 2:0 
512 0 0 -842150451:0 1:-5.39135 2:0 
512 0 0 -842150451:1 1:-0.026619 2:0 
512 0 0 -842150451:0 1:-5.39135 2:0 
512 0 0 -842150451:0 1:-5.39135 2:0 
512 0 0 -842150451:0 1:-5.39135 2:0 
512 0 0 -842150451:0 1:-5.39135 2:0 
512 0 0 -842150451:0 1:-5.39135 2:0 
512 0 0 -842150451:0 1:-5.39135 2:0 
512 0 0 -842150451:0 1:-5.39135 2:0 
512 0 0 -842150451:0 1:-5.39135 2:0 
512 0 0 -842150451:1 1:-0.00819397 2:0 
512 0 0 -842150451:0 1:-5.39135 2:0 
512 0 0 -842150451:0 1:-5.39135 2:0 
512 0 0 -842150451:0 1:-5.39135 2:0 
512 0 0 -842150451:0 1:-5.39135 2:0 
512 0 0 -842150451:0 1:-5.39135 2:0 
512 0 0 -842150451:0 1:-5.39135 2:0 
512 0 0 -842150451:0 1:-5.39135 2:0 
512 0 0 -842150451:0 1:-5.39135 2:0 
512 0 0 -842150451:1 1:0.00278473 2:0 
512 0 0 -842150451:0 1:-5.39135 2:0 
512 0 0 -842150451:0 1:-5.39135 2:0 
512 0 0 -842150451:0 1:-5.39135 2:0 
512 0 0 -842150451:0 1:-5.39135 2:0 
512 0 0 -842150451:0 1:-5.39135 2:0 
512 0 0 -842150451:0 1:-5.39135 2:0 
512 0 0 -842150451:0 1:-5.39135 2:0 
512 0 0 -842150451:0 1:-5.39135 2:0 
512 0 0 -842150451:1 1:-0.0228348 2:0 
512 0 0 -842150451:0 1:-5.39135 2:0 
512 0 0 -842150451:0 1:-5.39135 2:0 
512 0 0 -842150451:0 1:-5.39135 2:0 
512 0 0 -842150451:0 1:-5.39135 2:0 
512 0 0 -842150451:0 1:-5.39135 2:0 
512 0 0 -842150451:0 1:-5.39135 2:0 
512 0 0 -842150451:0 1:-5.39135 2:0 
512 0 0 -842150451:0 1:-5.39135 2:0 
512 0 0 -842150451:1 1:-0.0232315 2:0 
512 0 0 -842150451:0 1:-5.39135 2:0 
512 0 0 -842150451:0 1:-5.39135 2:0 
512 0 0 -842150451:0 1:-5.39135 2:0 
512 0 0 -842150451:0 1:-5.39135 2:0 
512 0 0 -842150451:0 1:-5.39135 2:0 
512 0 0 -842150451:0 1:-5.39135 2:0 
512 0 0 -842150451:0 1:-5.39135 2:0 
512 0 0 -842150451:0 1:-5.39135 2:0 
512 0 0 -842150451:1 1:-0.00449371 2:0 
512 0 0 -842150451:0 1:-5.39135 2:0 
512 0 0 -842150451:0 1:-5.39135 2:0 
512 0 0 -842150451:0 1:-5.39135 2:0 
512 0 0 -842150451:0 1:-5.39135 2:0 
512 0 0 -842150451:0 1:-5.39135 2:0 
512 0 0 -842150451:0 1:-5.39135 2:0 
512 0 0 -842150451:0 1:-5.39135 2:0 
512 0 0 -842150451:0 1:-5.39135 2:0 
512 0 0 -842150451:1 1:-0.00808716 2:0 
512 0 0 -842150451:0 1:-5.39135 2:0 
512 0 0 -842150451:0 1:-5.39135 2:0 
512 0 0 -842150451:0 1:-5.39135 2:0 
512 0 0 -842150451:0 1:-5.39135 2:0 
512 0 0 -842150451:0 1:-5.39135 2:0 
512 0 0 -842150451:0 1:-5.39135 2:0 
512 0 0 -842150451:0 1:-5.39135 2:0 
512 0 0 -842150451:0 1:-5.39135 2:0 
512 0 0 -842150451:1 1:-0.0259399 2:0 
512 0 0 -842150451:0 1:-5.39135 2:0 
512 0 0 -842150451:0 1:-5.39135 2:0 
512 0 0 -842150451:0 1:-5.39135 2:0 
512 0 0 -842150451:0 1:-5.39135 2:0 
512 0 0 -842150451:0 1:-5.39135 2:0 
512 0 0 -842150451:0 1:-5.39135 2:0 
512 0 0 -842150451:0 1:-5.39135 2:0 
512 0 0 -842150451:0 1:-5.39135 2:0 
512 0 0 -842150451:2 1:-0.0245762 2:0 
512 0 0 -842150451:0 1:-5.39135 2:0 
512 0 0 -842150451:0 1:-5.39135 2:0 
512 0 0 -842150451:0 1:-5.39135 2:0 
512 0 0 -842150451:0 1:-5.39135 2:0 
512 0 0 -842150451:0 1:-5.39135 2:0 
512 0 0 -842150451:0 1:-5.39135 2:0 
512 0 0 -842150451:0 1:-5.39135 2:0 
512 0 0 -842150451:0 1:-5.39135 2:0 
512 0 0 -842150451:1 1:-0.00561523 2:0 
512 0 0 -842150451:0 1:-5.39135 2:0 
512 0 0 -842150451:0 1:-5.39135 2:0 
512 0 0 -842150451:0 1:-5.39135 2:0 
512 0 0 -842150451:0 1:-5.39135 2:0 
512 0 0 -842150451:0 1:-5.39135 2:0 
512 0 0 -842150451:0 1:-5.39135 2:0 
512 0 0 -842150451:0 1:-5.39135 2:0 
512 0 0 -842150451:0 1:-5.39135 2:0 
512 0 0 -842150451:0 1:-5.39135 2:0 
512 0 0 -842150451:0 1:-5.39135 2:0 
512 0 0 -842150451:0 1:-5.39135 2:0 
512 0 0 -842150451:0 1:-5.39135 2:0 
512 0 0 -842150451:0 1:-5.39135 2:0 
512 0 0 -842150451:0 1:-5.39135 2:0 
512 0 0 -842150451:0 1:-5.39135 2:0 
512 0 0 -842150451:0 1:-5.39135 2:0 
512 0 0 -842150451:0 1:-5.39135 2:0 
512 0 0 -842150451:1 1:-0.016777 2:0 
512 0 0 -842150451:0 1:-5.39135 2:0 
512 0 0 -842150451:0 1:-5.39135 2:0 
512 0 0 -842150451:0 1:-5.39135 2:0 
512 0 0 -842150451:0 1:-5.39135 2:0 
512 0 0 -842150451:0 1:-5.39135 2:0 
512 0 0 -842150451:0 1:-5.39135 2:0 
512 0 0 -842150451:0 1:-5.39135 2:0 
512 0 0 -842150451:0 1:-5.39135 2:0 
512 0 0 -842150451:1 1:0.00285339 2:0 
512 0 0 -842150451:0 1:-5.39135 2:0 
512 0 0 -842150451:0 1:-5.39135 2:0 
512 0 0 -842150451:0 1:-5.39135 2:0 
512 0 0 -842150451:0 1:-5.39135 2:0 
512 0 0 -842150451:0 1:-5.39135 2:0 
512 0 0 -842150451:0 1:-5.39135 2:0 
512 0 0 -842150451:0 1:-5.39135 2:0 
512 0 0 -842150451:0 1:-5.39135 2:0 
512 0 0 -842150451:2 1:-0.0133018 2:0 
512 0 0 -842150451:0 1:-5.39135 2:0 
512 0 0 -842150451:0 1:-5.39135 2:0 
512 0 0 -842150451:0 1:-5.39135 2:0 
512 0 0 -842150451:0 1:-5.39135 2:0 
512 0 0 -842150451:0 1:-5.39135 2:0 
512 0 0 -842150451:0 1:-5.39135 2:0 
512 0 0 -842150451:0 1:-5.39135 2:0 
512 0 0 -842150451:0 1:-5.39135 2:0 
512 0 0 -842150451:0 1:-5.39135 2:0 
269.80427968137 61.17778570929464 0 -842150451:3 1:-0.995092 2:0 
512 0 0 -842150451:0 1:-5.39135 2:0 
512 0 0 -842150451:0 1:-5.39135 2:0 
512 0 0 -842150451:0 1:-5.39135 2:0 
512 0 0 -842150451:0 1:-5.39135 2:0 
512 0 0 -842150451:0 1:-5.39135 2:0 
512 0 0 -842150451:0 1:-5.39135 2:0 
512 0 0 -842150451:0 1:-5.39135 2:0 
512 85.70341552497897 0 -842150451:3 1:-1.6971 2:0 
512 0 0 -842150451:0 1:-5.39135 2:0 
512 0 0 -842150451:0 1:-5.39135 2:0 
512 0 0 -842150451:0 1:-5.39135 2:0 
512 0 0 -842150451:0 1:-5.39135 2:0 
512 0 0 -842150451:0 1:-5.39135 2:0 
512 0 0 -842150451:0 1:-5.39135 2:0 
512 0 0 -842150451:0 1:-5.39135 2:0 
53.65161311797179 5.26043971585066 0 -842150451:2 1:-2.12365 2:0 
512 0 0 -842150451:0 1:-5.39135 2:0 
512 0 0 -842150451:0 1:-5.39135 2:0 
512 0 0 -842150451:0 1:-5.39135 2:0 
512 0 0 -842150451:0 1:-5.39135 2:0 
512 0 0 -842150451:0 1:-5.39135 2:0 
512 0 0 -842150451:0 1:-5.39135 2:0 
0 512 0 -842150451:2 1:-1.91462 2:0 
512 0 0 -842150451:0 1:-5.39135 2:0 
512 0 0 -842150451:0 1:-5.39135 2:0 
512 0 0 -842150451:0 1:-5.39135 2:0 
512 0 0 -842150451:0 1:-5.39135 2:0 
512 0 0 -842150451:0 1:-5.39135 2:0 
512 0 0 -842150451:0 1:-5.39135 2:0 
512 0 0 -842150451:0 1:-5.39135 2:0 
512 0 0 -842150451:0 1:-5.39135 2:0 
512 0 0 -842150451:0 1:-5.39135 2:0 
512 0 0 -842150451:0 1:-5.39135 2:0 
512 0 0 -842150451:0 1:-5.39135 2:0 
512 0 0 -842150451:0 1:-5.39135 2:0 
512 0 0 -842150451:0 1:-5.39135 2:0 
512 0 0 -842150451:0 1:-5.39135 2:0 
512 0 0 -842150451:0 1:-5.39135 2:0 
512 0 0 -842150451:0 1:-5.39135 2:0 
512 0 0 -842150451:0 1:-5.39135 2:0 
133.4990024591086 0 0 -842150451:1 1:-2.65419 2:0 
512 0 0 -842150451:0 1:-5.39135 2:0 
512 0 0 -842150451:0 1:-5.39135 2:0 
512 0 0 -842150451:0 1:-5.39135 2:0 
512 0 0 -842150451:0 1:-5.39135 2:0 
512 0 0 -842150451:0 1:-5.39135 2:0 
512 0 0 -842150451:0 1:-5.39135 2:0 
512 0 0 -842150451:0 1:-5.39135 2:0 
512 0 0 -842150451:0 1:-5.39135 2:0 
512 0 0 -842150451:0 1:-5.39135 2:0 
512 0 0 -842150451:0 1:-5.39135 2:0 
512 0 0 -842150451:0 1:-5.39135 2:0 
512 0 0 -842150451:0 1:-5.39135 2:0 
512 0 0 -842150451:0 1:-5.39135 2:0 
512 0 0 -842150451:0 1:-5.39135 2:0 
101.4332814918387 0 0 -842150451:1 1:-2.64762 2:0 
512 0 0 -842150451:0 1:-5.39135 2:0 
512 0 0 -842150451:0 1:-5.39135 2:0 
512 0 0 -842150451:0 1:-5.39135 2:0 
512 0 0 -842150451:0 1:-5.39135 2:0 
512 0 0 -842150451:0 1:-5.39135 2:0 
512 0 0 -842150451:0 1:-5.39135 2:0 
512 0 0 -842150451:0 1:-5.39135 2:0 
512 0 0 -842150451:0 1:-5.39135 2:0 
512 0 0 -842150451:0 1:-5.39135 2:0 
512 0 0 -842150451:0 1:-5.39135 2:0 
512 0 0 -842150451:0 1:-5.39135 2:0 
512 0 0 -842150451:0 1:-5.39135 2:0 
512 0 0 -842150451:0 1:-5.39135 2:0 
512 0 0 -842150451:0 1:-5.39135 2:0 
512 0 0 -842150451:0 1:-5.39135 2:0 
512 0 0 -842150451:0 1:-5.39135 2:0 
512 0 0 -842150451:0 1:-5.39135 2:0 
512 0 0 -842150451:0 1:-5.39135 2:0 
512 0 0 -842150451:0 1:-5.39135 2:0 
512 0 0 -842150451:0 1:-5.39135 2:0 
512 0 0 -842150451:0 1:-5.39135 2:0 
512 0 0 -842150451:0 1:-5.39135 2:0 
512 0 0 -842150451:0 1:-5.39135 2:0 
512 0 0 -842150451:0 1:-5.39135 2:0 
228.5475775931489 0 0 -842150451:1 1:-2.64852 2:0 
512 0 0 -842150451:0 1:-5.39135 2:0 
512 0 0 -842150451:0 1:-5.39135 2:0 
512 0 0 -842150451:0 1:-5.39135 2:0 
512 0 0 -842150451:0 1:-5.39135 2:0 
512 0 0 -842150451:0 1:-5.39135 2:0 
512 0 0 -842150451:0 1:-5.39135 2:0 
512 0 0 -842150451:0 1:-5.39135 2:0 
512 0 0 -842150451:0 1:-5.39135 2:0 
512 0 0 -842150451:0 1:-5.39135 2:0 
512 0 0 -842150451:0 1:-5.39135 2:0 
512 0 0 -842150451:0 1:-5.39135 2:0 
512 0 0 -842150451:0 1:-5.39135 2:0 
512 0 0 -842150451:0 1:-5.39135 2:0 
512 0 0 -842150451:0 1:-5.39135 2:0 
512 0 0 -842150451:0 1:-5.39135 2:0 
512 0 0 -842150451:0 1:-5.39135 2:0 
512 0 0 -842150451:0 1:-5.39135 2:0 
512 0 0 -842150451:0 1:-5.39135 2:0 
512 0 0 -842150451:0 1:-5.39135 2:0 
512 0 0 -842150451:0 1:-5.39135 2:0 
512 0 0 -842150451:0 1:-5.39135 2:0 
512 0 0 -842150451:0 1:-5.39135 2:0 
512 0 0 -842150451:0 1:-5.39135 2:0 
512 0 0 -842150451:0 1:-5.39135 2:0 
512 0 0 -842150451:0 1:-5.39135 2:0 
512 0 0 -842150451:0 1:-5.39135 2:0 
512 0 0 -842150451:0 1:-5.39135 2:0 
512 0 0 -842150451:0 1:-5.39135 2:0 
512 0 0 -842150451:0 1:-5.39135 2:0 
512 0 0 -842150451:0 1:-5.39135 2:0 
512 0 0 -842150451:0 1:-5.39135 2:0 
512 0 0 -842150451:0 1:-5.39135 2:0 
512 0 0 -842150451:0 1:-5.39135 2:0 
512 0 0 -842150451:0 1:-5.39135 2:0 
512 0 0 -842150451:0 1:-5.39135 2:0 
512 0 0 -842150451:0 1:-5.39135 2:0 
512 0 0 -842150451:0 1:-5.39135 2:0 
512 0 0 -842150451:0 1:-5.39135 2:0 
512 0 0 -842150451:0 1:-5.39135 2:0 
512 0 0 -842150451:0 1:-5.39135 2:0 
512 0 0 -842150451:0 1:-5.39135 2:0 
512 0 0 -842150451:0 1:-5.39135 2:0 
512 0 0 -842150451:0 1:-5.39135 2:0 
512 0 0 -842150451:0 1:-5.39135 2:0 
512 0 0 -842150451:0 1:-5.39135 2:0 
512 0 0 -842150451:0 1:-5.39135 2:0 
512 0 0 -842150451:0 1:-5.39135 2:0 
512 0 0 -842150451:0 1:-5.39135 2:0 
512 0 0 -842150451:0 1:-5.39135 2:0 
512 0 0 -842150451:0 1:-5.39135 2:0 
512 0 0 -842150451:0 1:-5.39135 2:0 
512 0 0 -842150451:0 1:-5.39135 2:0 
512 0 0 -842150451:0 1:-5.39135 2:0 
512 0 0 -842150451:0 1:-5.39135 2:0 
512 0 0 -842150451:0 1:-5.39135 2:0 
512 0 0 -842150451:0 1:-5.39135 2:0 
512 0 0 -842150451:0 1:-5.39135 2:0 
320.1444004640519 0 0 -842150451:1 1:-2.54956 2:0 
512 0 0 -842150451:0 1:-5.39135 2:0 
512 0 0 -842150451:0 1:-5.39135 2:0 
512 0 0 -842150451:0 1:-5.39135 2:0 
512 0 0 -842150451:0 1:-5.39135 2:0 
512 0 0 -842150451:0 1:-5.39135 2:0 
512 0 0 -842150451:0 1:-5.39135 2:0 
512 0 0 -842150451:0 1:-5.39135 2:0 
512 0 0 -842150451:0 1:-5.39135 2:0 
512 0 0 -842150451:0 1:-5.39135 2:0 
512 0 0 -842150451:0 1:-5.39135 2:0 
512 0 0 -842150451:0 1:-5.39135 2:0 
512 0 0 -842150451:0 1:-5.39135 2:0 
512 0 0 -842150451:0 1:-5.39135 2:0 
512 0 0 -842150451:0 1:-5.39135 2:0 
512 0 0 -842150451:0 1:-5.39135 2:0 
512 0 0 -842150451:0 1:-5.39135 2:0 
512 0 0 -842150451:0 1:-5.39135 2:0 
512 0 0 -842150451:0 1:-5.39135 2:0 
512 0 0 -842150451:0 1:-5.39135 2:0 
512 0 0 -842150451:0 1:-5.39135 2:0 
512 0 0 -842150451:0 1:-5.39135 2:0 
512 0 0 -842150451:0 1:-5.39135 2:0 
512 0 0 -842150451:0 1:-5.39135 2:0 
512 0 0 -842150451:0 1:-5.39135 2:0 
512 0 0 -842150451:0 1:-5.39135 2:0 
512 0 0 -842150451:0 1:-5.39135 2:0 
512 512 0 -842150451:1 1:0.0105591 2:0 
512 512 0 -842150451:1 1:0.00975418 2:0 
512 0 0 -842150451:0 1:-5.39135 2:0 
512 512 0 -842150451:1 1:0.0128479 2:0 
512 0 0 -842150451:1 1:0.00541687 2:0 
512 512 0 -842150451:1 1:0.0127716 2:0 
512 512 0 -842150451:1 1:0.0114441 2:0 
512 512 0 -842150451:2 1:0.0122547 2:0 
512 512 0 -842150451:1 1:0.0139389 2:0 
512 512 0 -842150451:1 1:0.0103683 2:0 
512 512 0 -842150451:1 1:0.0130196 2:0 
512 0 0 -842150451:0 1:-5.39135 2:0 
512 512 0 -842150451:2 1:0.00888634 2:0 
512 512 0 -842150451:1 1:0.0211716 2:0 
512 512 0 -842150451:1 1:0.00981522 2:0 
512 0 0 -842150451:1 1:0.00804138 2:0 
512 0 0 -842150451:0 1:-5.39135 2:0 
512 512 0 -842150451:1 1:0.0125275 2:0 
512 0 0 -842150451:4 1:-0.579036 2:0 
512 174.0959827726358 0 -842150451:2 1:-0.873678 2:0 
93.95765557025759 88.26948860856808 0 -842150451:4 1:-0.788162 2:0 
512 9.164682318955231 0 -842150451:5 1:-0.341106 2:0 
0.8296607659140052 1.384418803993064 0 -842150451:6 1:-1.11747 2:0 
512 0 0 -842150451:3 1:-0.972163 2:0 
2.390685722029615 0.7186210228360903 0 -842150451:7 1:-0.919734 2:0 
0 0.7134135902266654 0 -842150451:7 1:-1.02635 2:0 
7.087736865363416 33.40239902266342 0 -842150451:5 1:-0.812341 2:0 
512 0 0 -842150451:0 1:-5.39135 2:0 
512 0 0 -842150451:0 1:-5.39135 2:0 
512 0 0 -842150451:2 1:-2.40906 2:0 
512 0 0 -842150451:0 1:-5.39135 2:0 
39.05105472080164 0 0 -842150451:3 1:-2.45309 2:0 
512 0 0 -842150451:0 1:-5.39135 2:0 
512 0 0 -842150451:0 1:-5.39135 2:0 
512 0 0 -842150451:0 1:-5.39135 2:0 
512 0 0 -842150451:0 1:-5.39135 2:0 
512 0 0 -842150451:0 1:-5.39135 2:0 
512 0 0 -842150451:0 1:-5.39135 2:0 
512 0 0 -842150451:0 1:-5.39135 2:0 
512 0 0 -842150451:0 1:-5.39135 2:0 
512 0 0 -842150451:0 1:-5.39135 2:0 
512 0 0 -842150451:0 1:-5.39135 2:0 
512 0 0 -842150451:0 1:-5.39135 2:0 
512 0 0 -842150451:0 1:-5.39135 2:0 
512 0 0 -842150451:0 1:-5.39135 2:0 
512 0 0 -842150451:0 1:-5.39135 2:0 
512 0 0 -842150451:0 1:-5.39135 2:0 
512 0 0 -842150451:0 1:-5.39135 2:0 
512 0 0 -842150451:0 1:-5.39135 2:0 
512 0 0 -842150451:0 1:-5.39135 2:0 
512 0 0 -842150451:0 1:-5.39135 2:0 
512 0 0 -842150451:0 1:-5.39135 2:0 
512 0 0 -842150451:0 1:-5.39135 2:0 
512 0 0 -842150451:0 1:-5.39135 2:0 
512 0 0 -842150451:0 1:-5.39135 2:0 
512 0 0 -842150451:0 1:-5.39135 2:0 
512 0 0 -842150451:0 1:-5.39135 2:0 
512 0 0 -842150451:0 1:-5.39135 2:0 
512 0 0 -842150451:0 1:-5.39135 2:0 
512 0 0 -842150451:0 1:-5.39135 2:0 
512 0 0 -842150451:0 1:-5.39135 2:0 
512 0 0 -842150451:0 1:-5.39135 2:0 
512 0 0 -842150451:0 1:-5.39135 2:0 
512 0 0 -842150451:0 1:-5.39135 2:0 
512 0 0 -842150451:0 1:-5.39135 2:0 
512 0 0 -842150451:0 1:-5.39135 2:0 
512 0 0 -842150451:0 1:-5.39135 2:0 
512 0 0 -842150451:0 1:-5.39135 2:0 
512 0 0 -842150451:0 1:-5.39135 2:0 
512 0 0 -842150451:0 1:-5.39135 2:0 
512 0 0 -842150451:0 1:-5.39135 2:0 
512 0 0 -842150451:0 1:-5.39135 2:0 
0 1.056395382487764 0 -842150451:2 1:-2.73745 2:0 
512 0 0 -842150451:0 1:-5.39135 2:0 
512 0 0 -842150451:0 1:-5.39135 2:0 
512 0 0 -842150451:0 1:-5.39135 2:0 
512 0 0 -842150451:0 1:-5.39135 2:0 
512 0 0 -842150451:0 1:-5.39135 2:0 
512 0 0 -842150451:0 1:-5.39135 2:0 
512 0 0 -842150451:0 1:-5.39135 2:0 
512 0 0 -842150451:0 1:-5.39135 2:0 
512 0 0 -842150451:0 1:-5.39135 2:0 
512 0 0 -842150451:0 1:-5.39135 2:0 
512 0 0 -842150451:0 1:-5.39135 2:0 
512 0 0 -842150451:0 1:-5.39135 2:0 
512 0 0 -842150451:0 1:-5.39135 2:0 
512 0 0 -842150451:0 1:-5.39135 2:0 
512 0 0 -842150451:0 1:-5.39135 2:0 
512 0 0 -842150451:0 1:-5.39135 2:0 
512 0 0 -842150451:0 1:-5.39135 2:0 
512 0 0 -842150451:0 1:-5.39135 2:0 
512 0 0 -842150451:0 1:-5.39135 2:0 
512 0 0 -842150451:0 1:-5.39135 2:0 
512 0 0 -842150451:0 1:-5.39135 2:0 
512 0 0 -842150451:0 1:-5.39135 2:0 
512 0 0 -842150451:0 1:-5.39135 2:0 
512 0 0 -842150451:0 1:-5.39135 2:0 
512 0 0 -842150451:0 1:-5.39135 2:0 
512 0 0 -842150451:0 1:-5.39135 2:0 
512 0 0 -842150451:0 1:-5.39135 2:0 
512 0 0 -842150451:0 1:-5.39135 2:0 
512 0 0 -842150451:0 1:-5.39135 2:0 
512 0 0 -842150451:0 1:-5.39135 2:0 
512 0 0 -842150451:0 1:-5.39135 2:0 
512 0 0 -842150451:0 1:-5.39135 2:0 
512 0 0 -842150451:0 1:-5.39135 2:0 
512 0 0 -842150451:0 1:-5.39135 2:0 
512 0 0 -842150451:0 1:-5.39135 2:0 
512 0 0 -842150451:0 1:-5.39135 2:0 
512 0 0 -842150451:0 1:-5.39135 2:0 
512 0 0 -842150451:0 1:-5.39135 2:0 
512 0 0 -842150451:0 1:-5.39135 2:0 
512 0 0 -842150451:0 1:-5.39135 2:0 
512 0 0 -842150451:0 1:-5.39135 2:0 
512 0 0 -842150451:0 1:-5.39135 2:0 
512 0 0 -842150451:0 1:-5.39135 2:0 
512 0 0 -842150451:0 1:-5.39135 2:0 
512 0 0 -842150451:0 1:-5.39135 2:0 
512 0 0 -842150451:0 1:-5.39135 2:0 
512 0 0 -842150451:0 1:-5.39135 2:0 
512 0 0 -842150451:0 1:-5.39135 2:0 
512 0 0 -842150451:0 1:-5.39135 2:0 
512 0 0 -842150451:0 1:-5.39135 2:0 
512 0 0 -842150451:0 1:-5.39135 2:0 
512 0 0 -842150451:0 1:-5.39135 2:0 
512 0 0 -842150451:0 1:-5.39135 2:0 
512 0 0 -842150451:0 1:-5.39135 2:0 
512 0 0 -842150451:0 1:-5.39135 2:0 
512 0 0 -842150451:0 1:-5.39135 2:0 
512 0 0 -842150451:0 1:-5.39135 2:0 
512 0 0 -842150451:0 1:-5.39135 2:0 
512 0 0 -842150451:0 1:-5.39135 2:0 
512 0 0 -842150451:0 1:-5.39135 2:0 
512 0 0 -842150451:0 1:-5.39135 2:0 
512 0 0 -842150451:0 1:-5.39135 2:0 
512 0 0 -842150451:0 1:-5.39135 2:0 
512 0 0 -842150451:0 1:-5.39135 2:0 
512 0 0 -842150451:0 1:-5.39135 2:0 
512 0 0 -842150451:0 1:-5.39135 2:0 
512 0 0 -842150451:0 1:-5.39135 2:0 
512 0 0 -842150451:0 1:-5.39135 2:0 
512 0 0 -842150451:0 1:-5.39135 2:0 
512 0 0 -842150451:0 1:-5.39135 2:0 
512 0 0 -842150451:0 1:-5.39135 2:0 
512 0 0 -842150451:0 1:-5.39135 2:0 
512 0 0 -842150451:0 1:-5.39135 2:0 
512 0 0 -842150451:0 1:-5.39135 2:0 
512 0 0 -842150451:0 1:-5.39135 2:0 
512 0 0 -842150451:0 1:-5.39135 2:0 
512 0 0 -842150451:0 1:-5.39135 2:0 
512 0 0 -842150451:0 1:-5.39135 2:0 
512 0 0 -842150451:0 1:-5.39135 2:0 
512 0 0 -842150451:0 1:-5.39135 2:0 
512 0 0 -842150451:0 1:-5.39135 2:0 
512 0 0 -842150451:0 1:-5.39135 2:0 
512 0 0 -842150451:0 1:-5.39135 2:0 
512 0 0 -842150451:0 1:-5.39135 2:0 
512 0 0 -842150451:0 1:-5.39135 2:0 
512 0 0 -842150451:0 1:-5.39135 2:0 
512 0 0 -842150451:0 1:-5.39135 2:0 
512 0 0 -842150451:0 1:-5.39135 2:0 
512 0 0 -842150451:0 1:-5.39135 2:0 
512 0 0 -842150451:0 1:-5.39135 2:0 
89.79695453385233 0 0 -842150451:2 1:-2.63666 2:0 
512 0 0 -842150451:0 1:-5.39135 2:0 
512 0 0 -842150451:0 1:-5.39135 2:0 
512 0 0 -842150451:0 1:-5.39135 2:0 
512 0 0 -842150451:0 1:-5.39135 2:0 
512 0 0 -842150451:0 1:-5.39135 2:0 
512 0 0 -842150451:0 1:-5.39135 2:0 
512 0 0 -842150451:0 1:-5.39135 2:0 
512 1.3733800062294 0 -842150451:0 1:-5.39135 2:0 
512 512 0 -842150451:0 1:-5.39135 2:0 
512 512 0 -842150451:0 1:-5.39135 2:0 
512 512 0 -842150451:0 1:-5.39135 2:0 
512 512 0 -842150451:0 1:-5.39135 2:0 
512 512 0 -842150451:0 1:-5.39135 2:0 
512 512 0 -842150451:0 1:-5.39135 2:0 
512 512 0 -842150451:0 1:-5.39135 2:0 
512 512 0 -842150451:0 1:-5.39135 2:0 
512 512 0 -842150451:0 1:-5.39135 2:0 
512 512 0 -842150451:0 1:-5.39135 2:0 
512 512 0 -842150451:0 1:-5.39135 2:0 
512 512 0 -842150451:0 1:-5.39135 2:0 
512 512 0 -842150451:0 1:-5.39135 2:0 
512 512 0 -842150451:0 1:-5.39135 2:0 
512 512 0 -842150451:0 1:-5.39135 2:0 
512 512 0 -842150451:0 1:-5.39135 2:0 
512 512 0 -842150451:0 1:-5.39135 2:0 
512 512 0 -842150451:0 1:-5.39135 2:0 
512 512 0 -842150451:0 1:-5.39135 2:0 
269.4441959539219 0 0 -842150451:1 1:-2.64124 2:0 
512 512 0 -842150451:0 1:-5.39135 2:0 
512 512 0 -842150451:0 1:-5.39135 2:0 
0 1.30145643915164 0 -842150451:3 1:-2.62687 2:0 
512 512 0 -842150451:0 1:-5.39135 2:0 
512 512 0 -842150451:0 1:-5.39135 2:0 
512 512 0 -842150451:0 1:-5.39135 2:0 
476.2362604876872 0 0 -842150451:3 1:-2.54212 2:0 
115.3183858752483 0 0 -842150451:2 1:-2.48794 2:0 
29.29960948952967 0 0 -842150451:1 1:-2.63987 2:0 
512 512 0 -842150451:0 1:-5.39135 2:0 
0.8117345144943725 1.369464429693347 0 -842150451:4 1:-2.55795 2:0 
423.8495640258895 0 0 -842150451:1 1:-2.49214 2:0 
512 512 0 -842150451:0 1:-5.39135 2:0 
512 512 0 -842150451:0 1:-5.39135 2:0 
512 512 0 -842150451:0 1:-5.39135 2:0 
0.5604252697158938 512 0 -842150451:11 1:-1.23887 2:0 
0.4728328411554368 0 0 -842150451:15 1:-1.31089 2:0 
0 180.5901301481175 0 -842150451:15 1:-1.43016 2:0 
77.92368741910833 0.7278710330153073 0 -842150451:16 1:-1.35467 2:0 
0.8385765784832504 0.2680877241335014 0 -842150451:12 1:-1.79203 2:0 
512 0.7233479346266867 0 -842150451:16 1:-1.23191 2:0 
19.57569513274068 0.7299036889241891 0 -842150451:17 1:-1.2794 2:0 
28.67893034167446 0 0 -842150451:12 1:-1.42227 2:0 
512 0 0 -842150451:16 1:-1.24515 2:0 
0.467137076911406 338.6240074436078 0 -842150451:15 1:-1.51006 2:0 
0.8121646267858335 1.368489436842162 0 -842150451:14 1:-1.36293 2:0 
0.2537240044987853 1.029336283279838 0 -842150451:13 1:-1.50915 2:0 
0 0.7308464340761436 0 -842150451:17 1:-1.40844 2:0 
504.0402997603375 8.279133954677384 0 -842150451:12 1:-1.31554 2:0 
2.197262007087147 1.161436159707043 0 -842150451:13 1:-1.11741 2:0 
512 17.86201665492129 0 -842150451:12 1:-0.941599 2:0 
512 0 0 -842150451:1 1:-0.00173569 2:0 
512 0 0 -842150451:1 1:-0.00139999 2:0 
512 0 0 -842150451:1 1:-0.00468063 2:0 
512 0 0 -842150451:1 1:-0.00764084 2:0 
512 0 0 -842150451:1 1:-0.00691605 2:0 
512 512 0 -842150451:0 1:-5.39135 2:0 
512 512 0 -842150451:2 1:-0.00267601 2:0 
512 0 0 -842150451:1 1:-0.00757217 2:0 
512 0 0 -842150451:1 1:-0.00349426 2:0 
512 0 0 -842150451:1 1:-0.00593948 2:0 
512 0 0 -842150451:1 1:0.00183868 2:0 
512 0 0 -842150451:1 1:-0.00630951 2:0 
512 0 0 -842150451:1 1:-0.00136185 2:0 
512 0 0 -842150451:1 1:-0.004879 2:0 
512 0 0 -842150451:1 1:-0.00814056 2:0 
512 0 0 -842150451:1 1:-0.00515747 2:0 
512 0 0 -842150451:1 1:-0.0083847 2:0 
512 0 0 -842150451:1 1:-0.00474167 2:0 
512 0 0 -842150451:1 1:-0.00895691 2:0 
512 512 0 -842150451:0 1:-5.39135 2:0 
512 0 0 -842150451:2 1:-0.00741386 2:0 
512 0 0 -842150451:1 1:-0.00417328 2:0 
512 512 0 -842150451:2 1:-0.001297 2:0 
512 0 0 -842150451:1 1:8.7738e-005 2:0 
512 0 0 -842150451:1 1:-0.00568771 2:0 
512 0 0 -842150451:1 1:-0.00386047 2:0 
512 512 0 -842150451:0 1:-5.39135 2:0 
512 512 0 -842150451:2 1:-0.00344658 2:0 
512 0 0 -842150451:1 1:-0.00502777 2:0 
512 0 0 -842150451:1 1:-0.00440598 2:0 
512 512 0 -842150451:0 1:-5.39135 2:0 
512 0 0 -842150451:1 1:-0.00705719 2:0 
512 239.8341857252391 0 -842150451:2 1:-0.00501442 2:0 
512 0 0 -842150451:1 1:-0.00178146 2:0 
512 0 0 -842150451:1 1:-0.00760651 2:0 
512 0 0 -842150451:1 1:-0.0049324 2:0 
512 512 0 -842150451:0 1:-5.39135 2:0 
512 0 0 -842150451:2 1:-0.00601006 2:0 
512 0 0 -842150451:1 1:-0.00809097 2:0 
512 0 0 -842150451:1 1:-0.00755692 2:0 
512 0 0 -842150451:1 1:-0.00889587 2:0 
512 0 0 -842150451:1 1:-0.00683975 2:0 
512 0 0 -842150451:1 1:-0.00550461 2:0 
512 0 0 -842150451:1 1:-0.000988007 2:0 
512 0 0 -842150451:1 1:0.00278473 2:0 
512 512 0 -842150451:0 1:-5.39135 2:0 
512 512 0 -842150451:2 1:-0.000997543 2:0 
512 0 0 -842150451:1 1:-0.00644684 2:0 
512 0 0 -842150451:1 1:-0.0037384 2:0 
512 512 0 -842150451:0 1:-5.39135 2:0 
512 512 0 -842150451:2 1:-0.00441742 2:0 
512 512 0 -842150451:0 1:-5.39135 2:0 
512 0 0 -842150451:2 1:-0.00507736 2:0 
512 0 0 -842150451:1 1:-0.00150681 2:0 
512 0 0 -842150451:1 1:-0.00854111 2:0 
512 0 0 -842150451:1 1:-0.0095787 2:0 
512 0 0 -842150451:1 1:-0.00404358 2:0 
512 512 0 -842150451:0 1:-5.39135 2:0 
512 512 0 -842150451:2 1:-5.91278e-005 2:0 
512 0 0 -842150451:1 1:0.000663757 2:0 
512 0 0 -842150451:1 1:-0.00438309 2:0 
512 0 0 -842150451:1 1:-0.00387573 2:0 
512 0 0 -842150451:1 1:-0.00430298 2:0 
512 512 0 -842150451:0 1:-5.39135 2:0 
512 512 0 -842150451:0 1:-5.39135 2:0 
512 512 0 -842150451:0 1:-5.39135 2:0 
512 512 0 -842150451:0 1:-5.39135 2:0 
512 512 0 -842150451:0 1:-5.39135 2:0 
512 512 0 -842150451:0 1:-5.39135 2:0 
512 512 0 -842150451:0 1:-5.39135 2:0 
512 512 0 -842150451:0 1:-5.39135 2:0 
512 512 0 -842150451:0 1:-5.39135 2:0 
512 512 0 -842150451:0 1:-5.39135 2:0 
512 512 0 -842150451:0 1:-5.39135 2:0 
512 512 0 -842150451:0 1:-5.39135 2:0 
512 512 0 -842150451:0 1:-5.39135 2:0 
512 512 0 -842150451:0 1:-5.39135 2:0 
512 512 0 -842150451:0 1:-5.39135 2:0 
512 512 0 -842150451:0 1:-5.39135 2:0 
512 512 0 -842150451:0 1:-5.39135 2:0 
512 512 0 -842150451:0 1:-5.39135 2:0 
512 512 0 -842150451:0 1:-5.39135 2:0 
512 512 0 -842150451:0 1:-5.39135 2:0 
512 512 0 -842150451:0 1:-5.39135 2:0 
512 512 0 -842150451:0 1:-5.39135 2:0 
512 512 0 -842150451:0 1:-5.39135 2:0 
512 512 0 -842150451:0 1:-5.39135 2:0 
512 512 0 -842150451:0 1:-5.39135 2:0 
512 512 0 -842150451:0 1:-5.39135 2:0 
512 512 0 -842150451:0 1:-5.39135 2:0 
512 512 0 -842150451:0 1:-5.39135 2:0 
512 512 0 -842150451:0 1:-5.39135 2:0 
512 512 0 -842150451:0 1:-5.39135 2:0 
512 512 0 -842150451:0 1:-5.39135 2:0 
512 512 0 -842150451:0 1:-5.39135 2:0 
512 512 0 -842150451:0 1:-5.39135 2:0 
512 512 0 -842150451:0 1:-5.39135 2:0 
512 512 0 -842150451:0 1:-5.39135 2:0 
512 0 0 -842150451:3 1:-0.63076 2:0 
512 0 0 -842150451:2 1:-0.648615 2:0 
512 0 0 -842150451:1 1:-0.700676 2:0 
259.9124070539526 0 0 -842150451:3 1:-0.629164 2:0 
512 0 0 -842150451:1 1:-0.597202 2:0 
512 424.9008478903832 0 -842150451:3 1:-0.742107 2:0 
512 512 0 -842150451:0 1:-5.39135 2:0 
512 512 0 -842150451:0 1:-5.39135 2:0 
512 512 0 -842150451:0 1:-5.39135 2:0 
512 512 0 -842150451:0 1:-5.39135 2:0 
512 512 0 -842150451:0 1:-5.39135 2:0 
512 512 0 -842150451:0 1:-5.39135 2:0 
512 512 0 -842150451:0 1:-5.39135 2:0 
512 512 0 -842150451:0 1:-5.39135 2:0 
512 512 0 -842150451:0 1:-5.39135 2:0 
512 512 0 -842150451:0 1:-5.39135 2:0 
512 512 0 -842150451:0 1:-5.39135 2:0 
512 512 0 -842150451:0 1:-5.39135 2:0 
512 512 0 -842150451:0 1:-5.39135 2:0 
512 512 0 -842150451:0 1:-5.39135 2:0 
512 512 0 -842150451:0 1:-5.39135 2:0 
512 0 0 -842150451:2 1:-0.611553 2:0 
512 0 0 -842150451:1 1:-0.606682 2:0 
512 0 0 -842150451:1 1:-0.615089 2:0 
512 0 0 -842150451:1 1:-0.606438 2:0 
512 0 0 -842150451:2 1:-0.615377 2:0 
512 512 0 -842150451:0 1:-5.39135 2:0 
512 512 0 -842150451:0 1:-5.39135 2:0 
512 512 0 -842150451:0 1:-5.39135 2:0 
512 512 0 -842150451:0 1:-5.39135 2:0 
512 512 0 -842150451:0 1:-5.39135 2:0 
512 512 0 -842150451:0 1:-5.39135 2:0 
512 512 0 -842150451:0 1:-5.39135 2:0 
512 512 0 -842150451:0 1:-5.39135 2:0 
512 512 0 -842150451:0 1:-5.39135 2:0 
512 512 0 -842150451:0 1:-5.39135 2:0 
512 512 0 -842150451:0 1:-5.39135 2:0 
512 512 0 -842150451:0 1:-5.39135 2:0 
512 512 0 -842150451:0 1:-5.39135 2:0 
512 512 0 -842150451:0 1:-5.39135 2:0 
512 512 0 -842150451:0 1:-5.39135 2:0 
512 0 0 -842150451:1 1:-0.603546 2:0 
512 0 0 -842150451:1 1:-0.606995 2:0 
512 0 0 -842150451:1 1:-0.601448 2:0 
512 0 0 -842150451:1 1:-0.621758 2:0 
512 0 0 -842150451:1 1:-0.604088 2:0 
0.5613978146584869 32.76243235911466 0 -842150451:11 1:-0.922716 2:0 
512 512 0 -842150451:0 1:-5.39135 2:0 
512 512 0 -842150451:0 1:-5.39135 2:0 
512 512 0 -842150451:0 1:-5.39135 2:0 
512 512 0 -842150451:0 1:-5.39135 2:0 
512 512 0 -842150451:0 1:-5.39135 2:0 
512 512 0 -842150451:0 1:-5.39135 2:0 
512 512 0 -842150451:0 1:-5.39135 2:0 
512 512 0 -842150451:0 1:-5.39135 2:0 
512 512 0 -842150451:0 1:-5.39135 2:0 
512 512 0 -842150451:0 1:-5.39135 2:0 
512 512 0 -842150451:0 1:-5.39135 2:0 
512 512 0 -842150451:0 1:-5.39135 2:0 
512 512 0 -842150451:0 1:-5.39135 2:0 
512 512 0 -842150451:0 1:-5.39135 2:0 
512 512 0 -842150451:0 1:-5.39135 2:0 
512 512 0 -842150451:0 1:-5.39135 2:0 
512 512 0 -842150451:0 1:-5.39135 2:0 
512 512 0 -842150451:0 1:-5.39135 2:0 
512 512 0 -842150451:0 1:-5.39135 2:0 
512 512 0 -842150451:0 1:-5.39135 2:0 
512 512 0 -842150451:0 1:-5.39135 2:0 
512 512 0 -842150451:0 1:-5.39135 2:0 
512 512 0 -842150451:0 1:-5.39135 2:0 
512 512 0 -842150451:0 1:-5.39135 2:0 
512 512 0 -842150451:0 1:-5.39135 2:0 
512 512 0 -842150451:0 1:-5.39135 2:0 
512 512 0 -842150451:0 1:-5.39135 2:0 
512 512 0 -842150451:0 1:-5.39135 2:0 
512 512 0 -842150451:0 1:-5.39135 2:0 
512 512 0 -842150451:0 1:-5.39135 2:0 
512 512 0 -842150451:0 1:-5.39135 2:0 
512 512 0 -842150451:0 1:-5.39135 2:0 
512 512 0 -842150451:0 1:-5.39135 2:0 
512 512 0 -842150451:0 1:-5.39135 2:0 
512 512 0 -842150451:0 1:-5.39135 2:0 
512 512 0 -842150451:0 1:-5.39135 2:0 
512 512 0 -842150451:0 1:-5.39135 2:0 
512 512 0 -842150451:0 1:-5.39135 2:0 
512 512 0 -842150451:0 1:-5.39135 2:0 
512 512 0 -842150451:0 1:-5.39135 2:0 
512 512 0 -842150451:0 1:-5.39135 2:0 
512 512 0 -842150451:0 1:-5.39135 2:0 
512 512 0 -842150451:0 1:-5.39135 2:0 
512 512 0 -842150451:0 1:-5.39135 2:0 
512 512 0 -842150451:0 1:-5.39135 2:0 
512 512 0 -842150451:0 1:-5.39135 2:0 
512 512 0 -842150451:0 1:-5.39135 2:0 
512 512 0 -842150451:0 1:-5.39135 2:0 
512 512 0 -842150451:0 1:-5.39135 2:0 
512 512 0 -842150451:0 1:-5.39135 2:0 
512 512 0 -842150451:0 1:-5.39135 2:0 
512 512 0 -842150451:0 1:-5.39135 2:0 
512 512 0 -842150451:0 1:-5.39135 2:0 
512 512 0 -842150451:0 1:-5.39135 2:0 
512 512 0 -842150451:0 1:-5.39135 2:0 
512 512 0 -842150451:0 1:-5.39135 2:0 
512 512 0 -842150451:0 1:-5.39135 2:0 
512 512 0 -842150451:0 1:-5.39135 2:0 
512 512 0 -842150451:0 1:-5.39135 2:0 
512 512 0 -842150451:0 1:-5.39135 2:0 
512 512 0 -842150451:0 1:-5.39135 2:0 
512 512 0 -842150451:0 1:-5.39135 2:0 
512 512 0 -842150451:0 1:-5.39135 2:0 
512 512 0 -842150451:0 1:-5.39135 2:0 
512 512 0 -842150451:0 1:-5.39135 2:0 
512 512 0 -842150451:0 1:-5.39135 2:0 
512 512 0 -842150451:0 1:-5.39135 2:0 
512 512 0 -842150451:0 1:-5.39135 2:0 
512 512 0 -842150451:0 1:-5.39135 2:0 
512 512 0 -842150451:0 1:-5.39135 2:0 
512 512 0 -842150451:0 1:-5.39135 2:0 
512 512 0 -842150451:0 1:-5.39135 2:0 
512 512 0 -842150451:0 1:-5.39135 2:0 
512 512 0 -842150451:0 1:-5.39135 2:0 
512 512 0 -842150451:0 1:-5.39135 2:0 
512 512 0 -842150451:0 1:-5.39135 2:0 
512 512 0 -842150451:0 1:-5.39135 2:0 
512 512 0 -842150451:0 1:-5.39135 2:0 
512 512 0 -842150451:0 1:-5.39135 2:0 
512 512 512 -842150451:0 1:-5.39135 2:0 
512 512 512 -842150451:0 1:-5.39135 2:0 
512 512 512 -842150451:0 1:-5.39135 2:0 
512 512 512 -842150451:0 1:-5.39135 2:0 
512 512 512 -842150451:0 1:-5.39135 2:0 
512 512 512 -842150451:0 1:-5.39135 2:0 
512 512 512 -842150451:0 1:-5.39135 2:0 
512 512 512 -842150451:0 1:-5.39135 2:0 
512 512 512 -842150451:0 1:-5.39135 2:0 
512 512 512 -842150451:0 1:-5.39135 2:0 
512 512 512 -842150451:0 1:-5.39135 2:0 
512 512 512 -842150451:0 1:-5.39135 2:0 
512 512 512 -842150451:0 1:-5.39135 2:0 
512 512 512 -842150451:0 1:-5.39135 2:0 
512 512 512 -842150451:0 1:-5.39135 2:0 
512 512 512 -842150451:0 1:-5.39135 2:0 
512 512 512 -842150451:0 1:-5.39135 2:0 
512 512 512 -842150451:0 1:-5.39135 2:0 
512 512 512 -842150451:0 1:-5.39135 2:0 
512 512 512 -842150451:0 1:-5.39135 2:0 
512 512 512 -842150451:0 1:-5.39135 2:0 
512 512 512 -842150451:0 1:-5.39135 2:0 
512 512 512 -842150451:0 1:-5.39135 2:0 
512 512 512 -842150451:0 1:-5.39135 2:0 
512 512 512 -842150451:0 1:-5.39135 2:0 
512 512 512 -842150451:0 1:-5.39135 2:0 
512 512 512 -842150451:0 1:-5.39135 2:0 
512 512 512 -842150451:0 1:-5.39135 2:0 
512 512 512 -842150451:0 1:-5.39135 2:0 
512 512 512 -842150451:0 1:-5.39135 2:0 
512 512 512 -842150451:0 1:-5.39135 2:0 
512 512 512 -842150451:0 1:-5.39135 2:0 
512 512 512 -842150451:0 1:-5.39135 2:0 
512 512 512 -842150451:0 1:-5.39135 2:0 
512 512 512 -842150451:0 1:-5.39135 2:0 
512 512 512 -842150451:0 1:-5.39135 2:0 
512 512 512 -842150451:0 1:-5.39135 2:0 
512 512 512 -842150451:0 1:-5.39135 2:0 
512 512 512 -842150451:0 1:-5.39135 2:0 
512 512 512 -842150451:0 1:-5.39135 2:0 
512 512 512 -842150451:0 1:-5.39135 2:0 
512 512 512 -842150451:0 1:-5.39135 2:0 
512 512 512 -842150451:0 1:-5.39135 2:0 
512 512 512 -842150451:0 1:-5.39135 2:0 
512 512 512 -842150451:0 1:-5.39135 2:0 
512 512 512 -842150451:0 1:-5.39135 2:0 
512 512 512 -842150451:0 1:-5.39135 2:0 
512 512 512 -842150451:0 1:-5.39135 2:0 
512 512 512 -842150451:0 1:-5.39135 2:0 
512 512 512 -842150451:0 1:-5.39135 2:0 
512 512 512 -842150451:0 1:-5.39135 2:0 
512 512 512 -842150451:0 1:-5.39135 2:0 
512 512 512 -842150451:0 1:-5.39135 2:0 
512 512 512 -842150451:0 1:-5.39135 2:0 
512 512 512 -842150451:0 1:-5.39135 2:0 
512 512 512 -842150451:0 1:-5.39135 2:0 
512 512 512 -842150451:0 1:-5.39135 2:0 
512 512 512 -842150451:0 1:-5.39135 2:0 
512 512 512 -842150451:0 1:-5.39135 2:0 
512 512 512 -842150451:0 1:-5.39135 2:0 
512 512 512 -842150451:0 1:-5.39135 2:0 
512 512 512 -842150451:0 1:-5.39135 2:0 
512 512 512 -842150451:0 1:-5.39135 2:0 
512 512 512 -842150451:0 1:-5.39135 2:0 
512 512 512 -842150451:0 1:-5.39135 2:0 
0 180.1637167302124 0 -842150451:1 1:-2.30016 2:0 
512 512 512 -842150451:0 1:-5.39135 2:0 
512 512 512 -842150451:0 1:-5.39135 2:0 
512 512 512 -842150451:0 1:-5.39135 2:0 
512 512 512 -842150451:0 1:-5.39135 2:0 
512 512 512 -842150451:0 1:-5.39135 2:0 
512 512 512 -842150451:0 1:-5.39135 2:0 
512 512 512 -842150451:0 1:-5.39135 2:0 
512 512 512 -842150451:0 1:-5.39135 2:0 
512 512 512 -842150451:0 1:-5.39135 2:0 
512 512 512 -842150451:0 1:-5.39135 2:0 
512 512 512 -842150451:0 1:-5.39135 2:0 
512 512 512 -842150451:0 1:-5.39135 2:0 
512 512 512 -842150451:0 1:-5.39135 2:0 
512 512 512 -842150451:0 1:-5.39135 2:0 
512 512 512 -842150451:0 1:-5.39135 2:0 
512 512 512 -842150451:0 1:-5.39135 2:0 
512 512 512 -842150451:0 1:-5.39135 2:0 
512 512 512 -842150451:0 1:-5.39135 2:0 
512 512 512 -842150451:0 1:-5.39135 2:0 
512 512 512 -842150451:0 1:-5.39135 2:0 
512 512 512 -842150451:0 1:-5.39135 2:0 
512 512 512 -842150451:0 1:-5.39135 2:0 
23.36752878683997 0 0 -842150451:1 1:-2.64928 2:0 
512 512 512 -842150451:0 1:-5.39135 2:0 
512 512 512 -842150451:0 1:-5.39135 2:0 
512 512 512 -842150451:0 1:-5.39135 2:0 
512 512 512 -842150451:0 1:-5.39135 2:0 
512 512 512 -842150451:0 1:-5.39135 2:0 
512 512 512 -842150451:0 1:-5.39135 2:0 
512 512 512 -842150451:0 1:-5.39135 2:0 
512 512 512 -842150451:0 1:-5.39135 2:0 
512 512 512 -842150451:0 1:-5.39135 2:0 
512 512 512 -842150451:0 1:-5.39135 2:0 
512 512 512 -842150451:0 1:-5.39135 2:0 
512 512 512 -842150451:0 1:-5.39135 2:0 
512 512 512 -842150451:0 1:-5.39135 2:0 
512 512 512 -842150451:0 1:-5.39135 2:0 
374.0338982002803 0 0 -842150451:2 1:-2.64052 2:0 
512 512 512 -842150451:0 1:-5.39135 2:0 
512 512 512 -842150451:0 1:-5.39135 2:0 
512 512 512 -842150451:0 1:-5.39135 2:0 
512 512 512 -842150451:0 1:-5.39135 2:0 
512 512 512 -842150451:0 1:-5.39135 2:0 
512 512 512 -842150451:0 1:-5.39135 2:0 
512 512 512 -842150451:0 1:-5.39135 2:0 
512 512 512 -842150451:0 1:-5.39135 2:0 
512 512 512 -842150451:0 1:-5.39135 2:0 
512 512 512 -842150451:0 1:-5.39135 2:0 
512 512 512 -842150451:0 1:-5.39135 2:0 
512 512 512 -842150451:0 1:-5.39135 2:0 
512 512 512 -842150451:0 1:-5.39135 2:0 
512 512 512 -842150451:0 1:-5.39135 2:0 
512 512 512 -842150451:0 1:-5.39135 2:0 
512 512 512 -842150451:0 1:-5.39135 2:0 
512 512 512 -842150451:0 1:-5.39135 2:0 
512 512 512 -842150451:0 1:-5.39135 2:0 
512 512 512 -842150451:0 1:-5.39135 2:0 
512 512 512 -842150451:0 1:-5.39135 2:0 
512 512 512 -842150451:0 1:-5.39135 2:0 
512 512 512 -842150451:0 1:-5.39135 2:0 
512 512 512 -842150451:0 1:-5.39135 2:0 
512 512 512 -842150451:0 1:-5.39135 2:0 
512 512 512 -842150451:0 1:-5.39135 2:0 
512 512 512 -842150451:0 1:-5.39135 2:0 
512 512 512 -842150451:0 1:-5.39135 2:0 
512 512 512 -842150451:0 1:-5.39135 2:0 
512 512 512 -842150451:0 1:-5.39135 2:0 
512 512 512 -842150451:0 1:-5.39135 2:0 
512 512 512 -842150451:0 1:-5.39135 2:0 
512 512 512 -842150451:0 1:-5.39135 2:0 
512 512 512 -842150451:0 1:-5.39135 2:0 
512 512 512 -842150451:0 1:-5.39135 2:0 
512 512 512 -842150451:0 1:-5.39135 2:0 
512 512 512 -842150451:0 1:-5.39135 2:0 
512 0 0 -842150451:2 1:-0.0565643 2:0 
512 0 0 -842150451:2 1:-0.670191 2:0 
512 512 512 -842150451:0 1:-5.39135 2:0 
512 512 512 -842150451:0 1:-5.39135 2:0 
512 512 512 -842150451:0 1:-5.39135 2:0 
512 512 512 -842150451:0 1:-5.39135 2:0 
512 512 512 -842150451:0 1:-5.39135 2:0 
512 512 512 -842150451:0 1:-5.39135 2:0 
512 512 512 -842150451:0 1:-5.39135 2:0 
512 512 512 -842150451:0 1:-5.39135 2:0 
512 512 512 -842150451:0 1:-5.39135 2:0 
512 512 512 -842150451:0 1:-5.39135 2:0 
512 512 512 -842150451:0 1:-5.39135 2:0 
512 512 512 -842150451:0 1:-5.39135 2:0 
512 512 512 -842150451:0 1:-5.39135 2:0 
512 512 512 -842150451:0 1:-5.39135 2:0 
512 512 512 -842150451:0 1:-5.39135 2:0 
512 512 512 -842150451:0 1:-5.39135 2:0 
0 21.35740109717564 0 -842150451:2 1:-1.76852 2:0 
479.8761793653184 481.5463994373404 0 -842150451:3 1:-0.468367 2:0 
512 512 512 -842150451:0 1:-5.39135 2:0 
512 512 512 -842150451:0 1:-5.39135 2:0 
512 512 512 -842150451:0 1:-5.39135 2:0 
512 512 512 -842150451:0 1:-5.39135 2:0 
512 512 512 -842150451:0 1:-5.39135 2:0 
512 512 512 -842150451:0 1:-5.39135 2:0 
512 512 512 -842150451:0 1:-5.39135 2:0 
512 512 512 -842150451:0 1:-5.39135 2:0 
512 512 512 -842150451:0 1:-5.39135 2:0 
512 512 512 -842150451:0 1:-5.39135 2:0 
512 512 512 -842150451:0 1:-5.39135 2:0 
512 512 512 -842150451:0 1:-5.39135 2:0 
512 512 512 -842150451:0 1:-5.39135 2:0 
512 512 512 -842150451:0 1:-5.39135 2:0 
512 512 512 -842150451:0 1:-5.39135 2:0 
512 512 512 -842150451:0 1:-5.39135 2:0 
512 512 512 -842150451:0 1:-5.39135 2:0 
512 512 512 -842150451:0 1:-5.39135 2:0 
5.277143334529034 8.927409515386533 0 -842150451:1 1:-1.51714 2:0 
512 0 0 -842150451:2 1:-0.0612354 2:0 
512 512 512 -842150451:0 1:-5.39135 2:0 
512 512 512 -842150451:0 1:-5.39135 2:0 
512 512 512 -842150451:0 1:-5.39135 2:0 
512 512 512 -842150451:0 1:-5.39135 2:0 
512 512 512 -842150451:0 1:-5.39135 2:0 
512 512 512 -842150451:0 1:-5.39135 2:0 
512 512 512 -842150451:0 1:-5.39135 2:0 
512 512 512 -842150451:0 1:-5.39135 2:0 
512 512 512 -842150451:0 1:-5.39135 2:0 
512 512 512 -842150451:0 1:-5.39135 2:0 
512 512 512 -842150451:0 1:-5.39135 2:0 
512 512 512 -842150451:0 1:-5.39135 2:0 
512 512 512 -842150451:0 1:-5.39135 2:0 
512 512 512 -842150451:0 1:-5.39135 2:0 
512 512 512 -842150451:0 1:-5.39135 2:0 
512 512 512 -842150451:0 1:-5.39135 2:0 
512 512 512 -842150451:0 1:-5.39135 2:0 
512 512 512 -842150451:0 1:-5.39135 2:0 
512 512 512 -842150451:0 1:-5.39135 2:0 
2.038542189941496 0 0 -842150451:1 1:-1.01174 2:0 
512 512 512 -842150451:0 1:-5.39135 2:0 
512 512 0 -842150451:1 1:-0.0723724 2:0 
512 512 512 -842150451:0 1:-5.39135 2:0 
512 512 512 -842150451:0 1:-5.39135 2:0 
512 512 512 -842150451:0 1:-5.39135 2:0 
512 512 512 -842150451:0 1:-5.39135 2:0 
512 512 512 -842150451:0 1:-5.39135 2:0 
512 512 512 -842150451:0 1:-5.39135 2:0 
512 512 512 -842150451:0 1:-5.39135 2:0 
512 512 512 -842150451:0 1:-5.39135 2:0 
512 512 512 -842150451:0 1:-5.39135 2:0 
512 512 512 -842150451:0 1:-5.39135 2:0 
512 512 512 -842150451:0 1:-5.39135 2:0 
512 512 512 -842150451:0 1:-5.39135 2:0 
512 512 512 -842150451:0 1:-5.39135 2:0 
512 512 512 -842150451:0 1:-5.39135 2:0 
512 512 512 -842150451:0 1:-5.39135 2:0 
512 512 512 -842150451:0 1:-5.39135 2:0 
512 512 512 -842150451:0 1:-5.39135 2:0 
512 512 512 -842150451:0 1:-5.39135 2:0 
0 512 0 -842150451:1 1:-0.45089 2:0 
512 0 0 -842150451:1 1:-0.0650864 2:0 
512 512 512 -842150451:0 1:-5.39135 2:0 
512 512 512 -842150451:0 1:-5.39135 2:0 
512 512 512 -842150451:0 1:-5.39135 2:0 
512 512 512 -842150451:0 1:-5.39135 2:0 
512 512 512 -842150451:0 1:-5.39135 2:0 
512 512 512 -842150451:0 1:-5.39135 2:0 
512 512 512 -842150451:0 1:-5.39135 2:0 
512 512 512 -842150451:0 1:-5.39135 2:0 
512 512 512 -842150451:0 1:-5.39135 2:0 
512 512 512 -842150451:0 1:-5.39135 2:0 
512 512 512 -842150451:0 1:-5.39135 2:0 
512 512 512 -842150451:0 1:-5.39135 2:0 
512 512 512 -842150451:0 1:-5.39135 2:0 
512 512 512 -842150451:0 1:-5.39135 2:0 
512 512 512 -842150451:0 1:-5.39135 2:0 
512 512 512 -842150451:0 1:-5.39135 2:0 
512 512 512 -842150451:0 1:-5.39135 2:0 
512 512 512 -842150451:0 1:-5.39135 2:0 
512 512 512 -842150451:0 1:-5.39135 2:0 
512 0 0 -842150451:1 1:-0.058815 2:0 
0 24.77783950885808 0 -842150451:1 1:-1.26426 2:0 
512 512 512 -842150451:0 1:-5.39135 2:0 
512 512 512 -842150451:0 1:-5.39135 2:0 
512 512 512 -842150451:0 1:-5.39135 2:0 
512 512 512 -842150451:0 1:-5.39135 2:0 
512 512 512 -842150451:0 1:-5.39135 2:0 
512 512 512 -842150451:0 1:-5.39135 2:0 
512 512 512 -842150451:0 1:-5.39135 2:0 
512 512 512 -842150451:0 1:-5.39135 2:0 
512 512 512 -842150451:0 1:-5.39135 2:0 
512 512 512 -842150451:0 1:-5.39135 2:0 
512 512 512 -842150451:0 1:-5.39135 2:0 
512 512 512 -842150451:0 1:-5.39135 2:0 
512 512 512 -842150451:0 1:-5.39135 2:0 
512 512 512 -842150451:0 1:-5.39135 2:0 
512 512 512 -842150451:0 1:-5.39135 2:0 
512 512 512 -842150451:0 1:-5.39135 2:0 
512 512 512 -842150451:0 1:-5.39135 2:0 
11.73111894397354 135.863192929843 0 -842150451:2 1:-1.51039 2:0 
512 0 0 -842150451:2 1:-0.0615902 2:0 
512 512 512 -842150451:0 1:-5.39135 2:0 
512 512 512 -842150451:0 1:-5.39135 2:0 
512 512 512 -842150451:0 1:-5.39135 2:0 
512 512 512 -842150451:0 1:-5.39135 2:0 
512 512 512 -842150451:0 1:-5.39135 2:0 
512 512 512 -842150451:0 1:-5.39135 2:0 
512 512 512 -842150451:0 1:-5.39135 2:0 
512 512 512 -842150451:0 1:-5.39135 2:0 
512 512 512 -842150451:0 1:-5.39135 2:0 
512 512 512 -842150451:0 1:-5.39135 2:0 
512 512 512 -842150451:0 1:-5.39135 2:0 
512 512 512 -842150451:0 1:-5.39135 2:0 
512 512 512 -842150451:0 1:-5.39135 2:0 
512 512 512 -842150451:0 1:-5.39135 2:0 
512 512 512 -842150451:0 1:-5.39135 2:0 
512 512 512 -842150451:0 1:-5.39135 2:0 
488.5860969255461 5.838884609761681 0 -842150451:4 1:-1.33096 2:0 
474.8669255700114 512 0 -842150451:4 1:-0.975024 2:0 
187.3434205558967 512 0 -842150451:2 1:-1.04001 2:0 
512 512 512 -842150451:0 1:-5.39135 2:0 
512 512 512 -842150451:0 1:-5.39135 2:0 
512 512 512 -842150451:0 1:-5.39135 2:0 
512 512 512 -842150451:0 1:-5.39135 2:0 
512 512 512 -842150451:0 1:-5.39135 2:0 
512 512 512 -842150451:0 1:-5.39135 2:0 
512 512 512 -842150451:0 1:-5.39135 2:0 
512 512 512 -842150451:0 1:-5.39135 2:0 
512 512 512 -842150451:0 1:-5.39135 2:0 
512 512 512 -842150451:0 1:-5.39135 2:0 
512 512 512 -842150451:0 1:-5.39135 2:0 
512 512 512 -842150451:0 1:-5.39135 2:0 
512 512 512 -842150451:0 1:-5.39135 2:0 
512 512 512 -842150451:0 1:-5.39135 2:0 
512 512 512 -842150451:0 1:-5.39135 2:0 
512 512 512 -842150451:0 1:-5.39135 2:0 
512 512 512 -842150451:0 1:-5.39135 2:0 
512 512 512 -842150451:0 1:-5.39135 2:0 
7.678517597208498 304.2582734543307 0 -842150451:3 1:-1.38581 2:0 
5.482776656554858 1.454180001693838 0 -842150451:9 1:-0.464074 2:0 
512 0 0 -842150451:2 1:-0.67845 2:0 
512 512 512 -842150451:0 1:-5.39135 2:0 
512 512 512 -842150451:0 1:-5.39135 2:0 
512 512 512 -842150451:0 1:-5.39135 2:0 
512 512 512 -842150451:0 1:-5.39135 2:0 
512 512 512 -842150451:0 1:-5.39135 2:0 
512 512 512 -842150451:0 1:-5.39135 2:0 
512 512 512 -842150451:0 1:-5.39135 2:0 
512 512 512 -842150451:0 1:-5.39135 2:0 
512 512 512 -842150451:0 1:-5.39135 2:0 
512 512 512 -842150451:0 1:-5.39135 2:0 
512 512 512 -842150451:0 1:-5.39135 2:0 
512 512 512 -842150451:0 1:-5.39135 2:0 
512 512 512 -842150451:0 1:-5.39135 2:0 
512 512 512 -842150451:0 1:-5.39135 2:0 
512 512 512 -842150451:0 1:-5.39135 2:0 
512 512 512 -842150451:0 1:-5.39135 2:0 
512 512 512 -842150451:0 1:-5.39135 2:0 
512 512 512 -842150451:0 1:-5.39135 2:0 
512 337.8382946497094 0 -842150451:1 1:-0.0676117 2:0 
512 512 512 -842150451:0 1:-5.39135 2:0 
512 512 512 -842150451:0 1:-5.39135 2:0 
512 512 512 -842150451:0 1:-5.39135 2:0 
512 512 512 -842150451:0 1:-5.39135 2:0 
512 512 512 -842150451:0 1:-5.39135 2:0 
512 512 512 -842150451:0 1:-5.39135 2:0 
512 512 512 -842150451:0 1:-5.39135 2:0 
512 512 512 -842150451:0 1:-5.39135 2:0 
512 512 512 -842150451:0 1:-5.39135 2:0 
512 512 512 -842150451:0 1:-5.39135 2:0 
512 512 512 -842150451:0 1:-5.39135 2:0 
512 512 512 -842150451:0 1:-5.39135 2:0 
512 512 512 -842150451:0 1:-5.39135 2:0 
512 512 512 -842150451:0 1:-5.39135 2:0 
512 512 512 -842150451:0 1:-5.39135 2:0 
512 512 512 -842150451:0 1:-5.39135 2:0 
512 512 512 -842150451:0 1:-5.39135 2:0 
512 512 512 -842150451:0 1:-5.39135 2:0 
65.70170694151931 233.8663656595606 0 -842150451:1 1:-2.00928 2:0 
512 512 0 -842150451:3 1:-0.461848 2:0 
512 512 512 -842150451:0 1:-5.39135 2:0 
512 512 512 -842150451:0 1:-5.39135 2:0 
512 512 512 -842150451:0 1:-5.39135 2:0 
512 512 512 -842150451:0 1:-5.39135 2:0 
512 512 512 -842150451:0 1:-5.39135 2:0 
512 512 512 -842150451:0 1:-5.39135 2:0 
512 512 512 -842150451:0 1:-5.39135 2:0 
512 512 512 -842150451:0 1:-5.39135 2:0 
512 512 512 -842150451:0 1:-5.39135 2:0 
512 512 512 -842150451:0 1:-5.39135 2:0 
512 512 512 -842150451:0 1:-5.39135 2:0 
512 512 512 -842150451:0 1:-5.39135 2:0 
512 512 512 -842150451:0 1:-5.39135 2:0 
512 512 512 -842150451:0 1:-5.39135 2:0 
512 512 512 -842150451:0 1:-5.39135 2:0 
512 512 512 -842150451:0 1:-5.39135 2:0 
512 512 512 -842150451:0 1:-5.39135 2:0 
512 512 512 -842150451:0 1:-5.39135 2:0 
0 361.3258180895763 0 -842150451:2 1:-1.51453 2:0 
512 0 0 -842150451:1 1:-0.0618629 2:0 
512 512 512 -842150451:0 1:-5.39135 2:0 
512 512 512 -842150451:0 1:-5.39135 2:0 
512 511.9972561376933 512 -842150451:0 1:-5.39135 2:0 
-0 512 0 -842150451:3 1:0.0108337 2:0 
-0 512 0 -842150451:3 1:-0.347953 2:0 
-8.380874769239496 0 0 -842150451:5 1:-0.643871 2:0 
-243.4666916813009 512 0 -842150451:1 1:0.0114899 2:0 
-42.9310762222018 397.305667051856 0 -842150451:12 1:-1.07751 2:0 
-391.2345071187643 0 0 -842150451:2 1:-0.0542221 2:0 
-0 512 0 -842150451:2 1:0.00937462 2:0 
-0 512 0 -842150451:2 1:-0.2325 2:0 
-0 512 0 -842150451:2 1:0.0109081 2:0 
-0 512 0 -842150451:3 1:-0.352451 2:0 
-512 1.044604379511574 0 -842150451:16 1:-1.25709 2:0 
-0 512 0 -842150451:1 1:0.0124435 2:0 
-0 512 0 -842150451:1 1:0.0118484 2:0 
-0 512 0 -842150451:2 1:0.0127354 2:0 
-19.76676174515174 0.8618698421356114 0 -842150451:17 1:-1.19865 2:0 
-172.7947200006462 512 0 -842150451:2 1:0.0125599 2:0 
-0 512 0 -842150451:1 1:0.011795 2:0 
-512 512 0 -842150451:1 1:0.0152969 2:0 
-0 512 0 -842150451:3 1:0.00736745 2:0 
-512 0 0 -842150451:16 1:-1.23751 2:0 
-0 512 0 -842150451:1 1:0.0118256 2:0 
-377.6830306069813 0 0 -842150451:1 1:0.00126266 2:0 
-0 512 0 -842150451:1 1:0.0114288 2:0 
-0 512 0 -842150451:1 1:0.0127106 2:0 
-395.5324293992285 512 0 -842150451:1 1:0.0135803 2:0 
-0 218.2798349549384 0 -842150451:1 1:0.0110474 2:0 
-0 512 0 -842150451:2 1:-0.232529 2:0 
-2.077082037304308 0 0 -842150451:0 1:-5.39135 2:0 
-512 0 0 -842150451:0 1:-5.39135 2:0 
-512 0 0 -842150451:0 1:-5.39135 2:0 
-0 512 0 -842150451:2 1:0.00851822 2:0 
-0 512 0 -842150451:1 1:0.0114403 2:0 
-512 0 0 -842150451:0 1:-5.39135 2:0 
-512 0 0 -842150451:0 1:-5.39135 2:0 
-512 0 0 -842150451:0 1:-5.39135 2:0 
-512 0 0 -842150451:0 1:-5.39135 2:0 
-512 0 0 -842150451:0 1:-5.39135 2:0 
-512 0 0 -842150451:0 1:-5.39135 2:0 
-512 0 0 -842150451:0 1:-5.39135 2:0 
-512 0 0 -842150451:0 1:-5.39135 2:0 
-512 0 0 -842150451:0 1:-5.39135 2:0 
-512 0 0 -842150451:0 1:-5.39135 2:0 
-512 0 0 -842150451:0 1:-5.39135 2:0 
-512 0 0 -842150451:0 1:-5.39135 2:0 
-512 0 0 -842150451:0 1:-5.39135 2:0 
-512 0 0 -842150451:0 1:-5.39135 2:0 
-512 0 0 -842150451:0 1:-5.39135 2:0 
-512 0 0 -842150451:0 1:-5.39135 2:0 
-512 0 0 -842150451:0 1:-5.39135 2:0 
-512 0 0 -842150451:0 1:-5.39135 2:0 
-512 0 0 -842150451:0 1:-5.39135 2:0 
-512 0 0 -842150451:0 1:-5.39135 2:0 
-512 0 0 -842150451:0 1:-5.39135 2:0 
-0.7649792686986452 1.021587520585798 0 -842150451:18 1:-1.20425 2:0 
-512 0 0 -842150451:1 1:0.00666428 2:0 
-512 0 0 -842150451:0 1:-5.39135 2:0 
-512 0 0 -842150451:0 1:-5.39135 2:0 
-512 0 0 -842150451:0 1:-5.39135 2:0 
-512 0 0 -842150451:0 1:-5.39135 2:0 
-512 0 0 -842150451:0 1:-5.39135 2:0 
-512 0 0 -842150451:0 1:-5.39135 2:0 
-512 0 0 -842150451:0 1:-5.39135 2:0 
-512 0 0 -842150451:0 1:-5.39135 2:0 
-0 512 0 -842150451:3 1:0.00625738 2:0 
-512 0 0 -842150451:0 1:-5.39135 2:0 
-512 0 0 -842150451:0 1:-5.39135 2:0 
-512 0 0 -842150451:0 1:-5.39135 2:0 
-512 0 0 -842150451:0 1:-5.39135 2:0 
-512 0 0 -842150451:0 1:-5.39135 2:0 
-512 0 0 -842150451:0 1:-5.39135 2:0 
-512 0 0 -842150451:0 1:-5.39135 2:0 
-512 0 0 -842150451:0 1:-5.39135 2:0 
-512 0 0 -842150451:0 1:-5.39135 2:0 
-512 0 0 -842150451:0 1:-5.39135 2:0 
-512 0 0 -842150451:0 1:-5.39135 2:0 
-512 0 0 -842150451:0 1:-5.39135 2:0 
-512 0 0 -842150451:0 1:-5.39135 2:0 
-512 0 0 -842150451:0 1:-5.39135 2:0 
-512 0 0 -842150451:0 1:-5.39135 2:0 
-512 0 0 -842150451:0 1:-5.39135 2:0 
-512 0 0 -842150451:0 1:-5.39135 2:0 
-512 0 0 -842150451:0 1:-5.39135 2:0 
-512 0 0 -842150451:0 1:-5.39135 2:0 
-512 0 0 -842150451:0 1:-5.39135 2:0 
-512 0 0 -842150451:0 1:-5.39135 2:0 
-512 0 0 -842150451:0 1:-5.39135 2:0 
-512 0 0 -842150451:0 1:-5.39135 2:0 
-512 0 0 -842150451:0 1:-5.39135 2:0 
-512 0 0 -842150451:0 1:-5.39135 2:0 
-512 0 0 -842150451:0 1:-5.39135 2:0 
-512 0 0 -842150451:0 1:-5.39135 2:0 
-512 0 0 -842150451:0 1:-5.39135 2:0 
-512 0 0 -842150451:0 1:-5.39135 2:0 
-512 0 0 -842150451:0 1:-5.39135 2:0 
-0.6377514604361902 0.851799452284643 0 -842150451:19 1:-1.07987 2:0 
-512 0 0 -842150451:0 1:-5.39135 2:0 
-512 0 0 -842150451:0 1:-5.39135 2:0 
-512 0 0 -842150451:0 1:-5.39135 2:0 
-512 0 0 -842150451:0 1:-5.39135 2:0 
-512 0 0 -842150451:0 1:-5.39135 2:0 
-512 0 0 -842150451:0 1:-5.39135 2:0 
-512 0 0 -842150451:0 1:-5.39135 2:0 
-512 0 0 -842150451:0 1:-5.39135 2:0 
-512 0 0 -842150451:0 1:-5.39135 2:0 
-512 0 0 -842150451:0 1:-5.39135 2:0 
-512 0 0 -842150451:0 1:-5.39135 2:0 
-512 0 0 -842150451:2 1:0.00602913 2:0 
-512 0 0 -842150451:0 1:-5.39135 2:0 
-512 0 0 -842150451:0 1:-5.39135 2:0 
-512 0 0 -842150451:0 1:-5.39135 2:0 
-512 0 0 -842150451:0 1:-5.39135 2:0 
-512 0 0 -842150451:0 1:-5.39135 2:0 
-512 0 0 -842150451:0 1:-5.39135 2:0 
-512 0 0 -842150451:0 1:-5.39135 2:0 
-512 0 0 -842150451:0 1:-5.39135 2:0 
-512 0 0 -842150451:0 1:-5.39135 2:0 
-512 0 0 -842150451:0 1:-5.39135 2:0 
-512 0 0 -842150451:0 1:-5.39135 2:0 
-512 0 0 -842150451:0 1:-5.39135 2:0 
-512 0 0 -842150451:0 1:-5.39135 2:0 
-512 0 0 -842150451:0 1:-5.39135 2:0 
-512 0 0 -842150451:0 1:-5.39135 2:0 
-512 0 0 -842150451:0 1:-5.39135 2:0 
-512 0 0 -842150451:0 1:-5.39135 2:0 
-512 0 0 -842150451:0 1:-5.39135 2:0 
-512 0 0 -842150451:0 1:-5.39135 2:0 
-512 0 0 -842150451:0 1:-5.39135 2:0 
-512 0 0 -842150451:0 1:-5.39135 2:0 
-512 0 0 -842150451:0 1:-5.39135 2:0 
-512 0 0 -842150451:0 1:-5.39135 2:0 
-512 0 0 -842150451:0 1:-5.39135 2:0 
-512 0 0 -842150451:0 1:-5.39135 2:0 
-512 0 0 -842150451:0 1:-5.39135 2:0 
-512 0 0 -842150451:0 1:-5.39135 2:0 
-512 0 0 -842150451:0 1:-5.39135 2:0 
-512 0 0 -842150451:0 1:-5.39135 2:0 
-512 0 0 -842150451:0 1:-5.39135 2:0 
-512 0 0 -842150451:0 1:-5.39135 2:0 
-0 512 0 -842150451:3 1:0.000658671 2:0 
-512 0 0 -842150451:0 1:-5.39135 2:0 
-512 0 0 -842150451:0 1:-5.39135 2:0 
-512 0 0 -842150451:0 1:-5.39135 2:0 
-512 0 0 -842150451:0 1:-5.39135 2:0 
-512 0 0 -842150451:0 1:-5.39135 2:0 
-512 0 0 -842150451:0 1:-5.39135 2:0 
-512 0 0 -842150451:0 1:-5.39135 2:0 
-512 0 0 -842150451:0 1:-5.39135 2:0 
-512 0 0 -842150451:0 1:-5.39135 2:0 
-512 0 0 -842150451:0 1:-5.39135 2:0 
-512 0 0 -842150451:0 1:-5.39135 2:0 
-512 0 0 -842150451:1 1:0.0013504 2:0 
-512 0 0 -842150451:1 1:0.00258636 2:0 
-512 0 0 -842150451:0 1:-5.39135 2:0 
-512 0 0 -842150451:0 1:-5.39135 2:0 
-512 0 0 -842150451:0 1:-5.39135 2:0 
-512 0 0 -842150451:0 1:-5.39135 2:0 
-512 0 0 -842150451:0 1:-5.39135 2:0 
-512 0 0 -842150451:0 1:-5.39135 2:0 
-512 0 0 -842150451:0 1:-5.39135 2:0 
-512 0 0 -842150451:0 1:-5.39135 2:0 
-512 0 0 -842150451:0 1:-5.39135 2:0 
-512 0 0 -842150451:0 1:-5.39135 2:0 
-512 0 0 -842150451:0 1:-5.39135 2:0 
-512 0 0 -842150451:1 1:0.00540924 2:0 
-62.05952031379258 426.6053111910267 0 -842150451:1 1:-1.94529 2:0 
-0 0.8614745418790116 0 -842150451:17 1:-1.05114 2:0 
-512 0 0 -842150451:0 1:-5.39135 2:0 
-512 0 0 -842150451:0 1:-5.39135 2:0 
-512 0 0 -842150451:0 1:-5.39135 2:0 
-512 0 0 -842150451:0 1:-5.39135 2:0 
-512 0 0 -842150451:0 1:-5.39135 2:0 
-512 0 0 -842150451:0 1:-5.39135 2:0 
-512 0 0 -842150451:0 1:-5.39135 2:0 
-512 0 0 -842150451:0 1:-5.39135 2:0 
-512 0 0 -842150451:0 1:-5.39135 2:0 
-512 0 0 -842150451:0 1:-5.39135 2:0 
-67.46812862222822 0 0 -842150451:16 1:-1.23656 2:0 
-0 512 0 -842150451:2 1:-0.1639 2:0 
-512 0 0 -842150451:0 1:-5.39135 2:0 
-512 0 0 -842150451:0 1:-5.39135 2:0 
-512 0 0 -842150451:0 1:-5.39135 2:0 
-512 0 0 -842150451:0 1:-5.39135 2:0 
-512 0 0 -842150451:0 1:-5.39135 2:0 
-512 0 0 -842150451:0 1:-5.39135 2:0 
-512 0 0 -842150451:0 1:-5.39135 2:0 
-512 0 0 -842150451:0 1:-5.39135 2:0 
-512 0 0 -842150451:0 1:-5.39135 2:0 
-512 0 0 -842150451:0 1:-5.39135 2:0 
-512 0 0 -842150451:0 1:-5.39135 2:0 
-512 0 0 -842150451:0 1:-5.39135 2:0 
-512 512 0 -842150451:4 1:-0.939237 2:0 
-0.7630686577016019 1.021215522357758 0 -842150451:18 1:-0.931934 2:0 
-512 0 0 -842150451:0 1:-5.39135 2:0 
-512 0 0 -842150451:0 1:-5.39135 2:0 
-512 0 0 -842150451:0 1:-5.39135 2:0 
-512 0 0 -842150451:0 1:-5.39135 2:0 
-512 0 0 -842150451:0 1:-5.39135 2:0 
-512 0 0 -842150451:0 1:-5.39135 2:0 
-512 0 0 -842150451:0 1:-5.39135 2:0 
-512 0 0 -842150451:0 1:-5.39135 2:0 
-512 0 0 -842150451:0 1:-5.39135 2:0 
-512 0 0 -842150451:0 1:-5.39135 2:0 
-512 0 0 -842150451:0 1:-5.39135 2:0 
-512 0 0 -842150451:0 1:-5.39135 2:0 
-512 0 0 -842150451:0 1:-5.39135 2:0 
-512 0 0 -842150451:0 1:-5.39135 2:0 
-512 0 0 -842150451:0 1:-5.39135 2:0 
-512 0 0 -842150451:0 1:-5.39135 2:0 
-512 0 0 -842150451:0 1:-5.39135 2:0 
-512 0 0 -842150451:0 1:-5.39135 2:0 
-512 209.1500662339382 0 -842150451:2 1:-0.929665 2:0 
-1.187059565403817 2.949274773007898 0 -842150451:8 1:-1.00632 2:0 
-512 0 0 -842150451:0 1:-5.39135 2:0 
-512 0 0 -842150451:0 1:-5.39135 2:0 
-512 0 0 -842150451:0 1:-5.39135 2:0 
-511.8390727955213 0 0 -842150451:2 1:-0.00137711 2:0 
-0 512 0 -842150451:3 1:0.00305303 2:0 
-512 0 0 -842150451:0 1:-5.39135 2:0 
-512 0 0 -842150451:0 1:-5.39135 2:0 
-512 0 0 -842150451:0 1:-5.39135 2:0 
-512 0 0 -842150451:0 1:-5.39135 2:0 
-512 0 0 -842150451:0 1:-5.39135 2:0 
-512 0 0 -842150451:0 1:-5.39135 2:0 
-512 0 0 -842150451:0 1:-5.39135 2:0 
-512 0 0 -842150451:0 1:-5.39135 2:0 
-512 0 0 -842150451:0 1:-5.39135 2:0 
-443.371098656784 0 0 -842150451:1 1:0.00176239 2:0 
-512 0 0 -842150451:0 1:-5.39135 2:0 
-512 0 0 -842150451:0 1:-5.39135 2:0 
-512 0 0 -842150451:0 1:-5.39135 2:0 
-44.40382016238372 0 0 -842150451:1 1:0.00684357 2:0 
-512 0 0 -842150451:1 1:-0.00416183 2:0 
-511.7629687901314 0 0 -842150451:1 1:0.00259399 2:0 
-0.7120196115885824 0.9515973816361667 0 -842150451:24 1:-1.23592 2:0 
-512 0 0 -842150451:0 1:-5.39135 2:0 
-512 0 0 -842150451:0 1:-5.39135 2:0 
-512 0 0 -842150451:0 1:-5.39135 2:0 
-512 0 0 -842150451:0 1:-5.39135 2:0 
-512 0 0 -842150451:0 1:-5.39135 2:0 
-512 0 0 -842150451:0 1:-5.39135 2:0 
-512 0 0 -842150451:0 1:-5.39135 2:0 
-512 0 0 -842150451:0 1:-5.39135 2:0 
-512 0 0 -842150451:0 1:-5.39135 2:0 
-0 512 0 -842150451:3 1:0.00534185 2:0 
-0.6366786515209764 0.8511733527854821 0 -842150451:19 1:-1.21616 2:0 
-512 21.28864534098314 0 -842150451:1 1:-2.4809 2:0 
-512 0 0 -842150451:0 1:-5.39135 2:0 
-512 0 0 -842150451:0 1:-5.39135 2:0 
-512 0 0 -842150451:0 1:-5.39135 2:0 
-512 0 0 -842150451:0 1:-5.39135 2:0 
-512 0 0 -842150451:0 1:-5.39135 2:0 
-512 0 0 -842150451:0 1:-5.39135 2:0 
-512 0 0 -842150451:0 1:-5.39135 2:0 
-512 0 0 -842150451:0 1:-5.39135 2:0 
-512 0 0 -842150451:0 1:-5.39135 2:0 
-0 512 0 -842150451:3 1:0.00536601 2:0 
-512 0 0 -842150451:0 1:-5.39135 2:0 
-512 0 0 -842150451:1 1:0.00455093 2:0 
-512 0 0 -842150451:0 1:-5.39135 2:0 
-512 0 0 -842150451:0 1:-5.39135 2:0 
-512 0 0 -842150451:0 1:-5.39135 2:0 
-512 0 0 -842150451:0 1:-5.39135 2:0 
-512 0 0 -842150451:0 1:-5.39135 2:0 
-512 0 0 -842150451:0 1:-5.39135 2:0 
-512 0 0 -842150451:0 1:-5.39135 2:0 
-512 0 0 -842150451:0 1:-5.39135 2:0 
-512 0 0 -842150451:0 1:-5.39135 2:0 
-512 0 0 -842150451:0 1:-5.39135 2:0 
-512 0 0 -842150451:1 1:0.000843048 2:0 
-0 120.1061231787712 0 -842150451:12 1:-1.00471 2:0 
-512 0 0 -842150451:0 1:-5.39135 2:0 
-512 0 0 -842150451:0 1:-5.39135 2:0 
-512 0 0 -842150451:0 1:-5.39135 2:0 
-512 0 0 -842150451:0 1:-5.39135 2:0 
-512 0 0 -842150451:0 1:-5.39135 2:0 
-512 0 0 -842150451:0 1:-5.39135 2:0 
-512 0 0 -842150451:0 1:-5.39135 2:0 
-512 0 0 -842150451:0 1:-5.39135 2:0 
-512 0 0 -842150451:0 1:-5.39135 2:0 
-512 0 0 -842150451:0 1:-5.39135 2:0 
-512 0 0 -842150451:1 1:-0.00662231 2:0 
-512 0 0 -842150451:0 1:-5.39135 2:0 
-114.6811493116663 1.412778119743454 0 -842150451:2 1:-2.24628 2:0 
-8.367453333238062 1.044839674223548 0 -842150451:16 1:-0.97055 2:0 
-512 0 0 -842150451:0 1:-5.39135 2:0 
-512 0 0 -842150451:0 1:-5.39135 2:0 
-512 0 0 -842150451:0 1:-5.39135 2:0 
-512 0 0 -842150451:0 1:-5.39135 2:0 
-512 0 0 -842150451:0 1:-5.39135 2:0 
-512 0 0 -842150451:0 1:-5.39135 2:0 
-512 0 0 -842150451:0 1:-5.39135 2:0 
-512 0 0 -842150451:0 1:-5.39135 2:0 
-512 0 0 -842150451:0 1:-5.39135 2:0 
-512 0 0 -842150451:0 1:-5.39135 2:0 
-61.64252489606295 0 0 -842150451:2 1:0.00277328 2:0 
-1.186988143646282 1.586309136427596 0 -842150451:30 1:-1.53807 2:0 
-512 0 0 -842150451:0 1:-5.39135 2:0 
-512 0 0 -842150451:0 1:-5.39135 2:0 
-512 0 0 -842150451:0 1:-5.39135 2:0 
-512 0 0 -842150451:0 1:-5.39135 2:0 
-512 0 0 -842150451:0 1:-5.39135 2:0 
-512 0 0 -842150451:0 1:-5.39135 2:0 
-512 0 0 -842150451:0 1:-5.39135 2:0 
-512 0 0 -842150451:0 1:-5.39135 2:0 
-512 0 0 -842150451:0 1:-5.39135 2:0 
-512 0 0 -842150451:0 1:-5.39135 2:0 
-509.9852121038578 0 0 -842150451:1 1:-0.00134659 2:0 
-512 0 0 -842150451:0 1:-5.39135 2:0 
-512 0 0 -842150451:0 1:-5.39135 2:0 
-512 0 0 -842150451:0 1:-5.39135 2:0 
-512 0 0 -842150451:0 1:-5.39135 2:0 
-512 0 0 -842150451:0 1:-5.39135 2:0 
-512 0 0 -842150451:0 1:-5.39135 2:0 
-512 0 0 -842150451:0 1:-5.39135 2:0 
-512 0 0 -842150451:0 1:-5.39135 2:0 
-512 0 0 -842150451:0 1:-5.39135 2:0 
-512 0 0 -842150451:0 1:-5.39135 2:0 
-364.6852929421127 512 0 -842150451:2 1:0.00815773 2:0 
-512 1.549934053479452 0 -842150451:3 1:-2.53593 2:0 
-0.5931721215167201 0.7909535104487989 0 -842150451:21 1:-1.21103 2:0 
-512 0 0 -842150451:0 1:-5.39135 2:0 
-512 0 0 -842150451:0 1:-5.39135 2:0 
-512 0 0 -842150451:0 1:-5.39135 2:0 
-512 0 0 -842150451:0 1:-5.39135 2:0 
-512 0 0 -842150451:0 1:-5.39135 2:0 
-512 0 0 -842150451:0 1:-5.39135 2:0 
-512 0 0 -842150451:0 1:-5.39135 2:0 
-512 0 0 -842150451:0 1:-5.39135 2:0 
-512 0 0 -842150451:0 1:-5.39135 2:0 
-512 0 0 -842150451:0 1:-5.39135 2:0 
-0.6672603366511247 0.8913763023246997 0 -842150451:23 1:-1.54397 2:0 
-512 0 0 -842150451:0 1:-5.39135 2:0 
-512 0 0 -842150451:0 1:-5.39135 2:0 
-512 0 0 -842150451:0 1:-5.39135 2:0 
-512 0 0 -842150451:0 1:-5.39135 2:0 
-512 0 0 -842150451:0 1:-5.39135 2:0 
-512 0 0 -842150451:0 1:-5.39135 2:0 
-512 0 0 -842150451:0 1:-5.39135 2:0 
-512 0 0 -842150451:0 1:-5.39135 2:0 
-512 0 0 -842150451:0 1:-5.39135 2:0 
-512 0 0 -842150451:0 1:-5.39135 2:0 
-0.7114063760298643 0.9513796167269748 0 -842150451:24 1:-1.46105 2:0 
-512 0 0 -842150451:0 1:-5.39135 2:0 
-512 0 0 -842150451:0 1:-5.39135 2:0 
-512 0 0 -842150451:0 1:-5.39135 2:0 
-512 0 0 -842150451:0 1:-5.39135 2:0 
-512 0 0 -842150451:0 1:-5.39135 2:0 
-512 0 0 -842150451:0 1:-5.39135 2:0 
-512 0 0 -842150451:0 1:-5.39135 2:0 
-512 0 0 -842150451:0 1:-5.39135 2:0 
-512 0 0 -842150451:0 1:-5.39135 2:0 
-512 0 0 -842150451:0 1:-5.39135 2:0 
-162.6802529827626 0 0 -842150451:3 1:-1.75265 2:0 
-512 0 0 -842150451:0 1:-5.39135 2:0 
-512 0 0 -842150451:0 1:-5.39135 2:0 
-512 0 0 -842150451:0 1:-5.39135 2:0 
-512 0 0 -842150451:0 1:-5.39135 2:0 
-512 0 0 -842150451:0 1:-5.39135 2:0 
-512 0 0 -842150451:0 1:-5.39135 2:0 
-512 0 0 -842150451:0 1:-5.39135 2:0 
-512 0 0 -842150451:0 1:-5.39135 2:0 
-512 0 0 -842150451:0 1:-5.39135 2:0 
-0 512 0 -842150451:2 1:0.00775909 2:0 
-512 0 0 -842150451:0 1:-5.39135 2:0 
-512 0 0 -842150451:1 1:0.00669861 2:0 
-1.187089051018111 1.587124272597945 0 -842150451:27 1:-1.50692 2:0 
-512 0 0 -842150451:1 1:-2.63352 2:0 
-512 0 0 -842150451:0 1:-5.39135 2:0 
-512 0 0 -842150451:0 1:-5.39135 2:0 
-512 0 0 -842150451:0 1:-5.39135 2:0 
-512 0 0 -842150451:2 1:-0.00123405 2:0 
-0 450.2357149751517 0 -842150451:2 1:0.00754166 2:0 
-512 0 0 -842150451:0 1:-5.39135 2:0 
-512 0 0 -842150451:0 1:-5.39135 2:0 
-512 0 0 -842150451:0 1:-5.39135 2:0 
-512 0 0 -842150451:0 1:-5.39135 2:0 
-512 0 0 -842150451:0 1:-5.39135 2:0 
-512 0 0 -842150451:0 1:-5.39135 2:0 
-512 0 0 -842150451:0 1:-5.39135 2:0 
-512 0 0 -842150451:0 1:-5.39135 2:0 
-512 0 0 -842150451:0 1:-5.39135 2:0 
-512 0 0 -842150451:0 1:-5.39135 2:0 
-512 0 0 -842150451:0 1:-5.39135 2:0 
-512 0 0 -842150451:0 1:-5.39135 2:0 
-8.379284793124631 1.426933598462813 0 -842150451:4 1:-1.26698 2:0 
-0.6613761165712363 0.8834426509393054 0 -842150451:25 1:-1.40471 2:0 
-512 1.144249662340456 0 -842150451:2 1:-2.62806 2:0 
-512 0 0 -842150451:0 1:-5.39135 2:0 
-512 0 0 -842150451:0 1:-5.39135 2:0 
-512 0 0 -842150451:0 1:-5.39135 2:0 
-512 0 0 -842150451:0 1:-5.39135 2:0 
-512 0 0 -842150451:0 1:-5.39135 2:0 
-512 0 0 -842150451:0 1:-5.39135 2:0 
-512 0 0 -842150451:0 1:-5.39135 2:0 
-512 0 0 -842150451:0 1:-5.39135 2:0 
-512 0 0 -842150451:0 1:-5.39135 2:0 
-512 0 0 -842150451:0 1:-5.39135 2:0 
-512 0 0 -842150451:0 1:-5.39135 2:0 
-428.6161825582682 0 0 -842150451:2 1:0.0011673 2:0 
-512 0 0 -842150451:0 1:-5.39135 2:0 
-512 0 0 -842150451:0 1:-5.39135 2:0 
-512 0 0 -842150451:0 1:-5.39135 2:0 
-512 0 0 -842150451:0 1:-5.39135 2:0 
-512 0 0 -842150451:0 1:-5.39135 2:0 
-512 0 0 -842150451:0 1:-5.39135 2:0 
-512 0 0 -842150451:0 1:-5.39135 2:0 
-512 0 0 -842150451:0 1:-5.39135 2:0 
-512 0 0 -842150451:0 1:-5.39135 2:0 
-512 0 0 -842150451:0 1:-5.39135 2:0 
-512 0 0 -842150451:1 1:-0.00364304 2:0 
-512 0 0 -842150451:0 1:-5.39135 2:0 
-0.5794475994963266 0.6670471780761476 0 -842150451:20 1:-1.45235 2:0 
-512 0 0 -842150451:0 1:-5.39135 2:0 
-512 0 0 -842150451:0 1:-5.39135 2:0 
-512 0 0 -842150451:0 1:-5.39135 2:0 
-512 0 0 -842150451:0 1:-5.39135 2:0 
-512 0 0 -842150451:0 1:-5.39135 2:0 
-512 0 0 -842150451:0 1:-5.39135 2:0 
-512 0 0 -842150451:0 1:-5.39135 2:0 
-512 0 0 -842150451:0 1:-5.39135 2:0 
-512 0 0 -842150451:0 1:-5.39135 2:0 
-512 0 0 -842150451:0 1:-5.39135 2:0 
-493.6596716239507 0 0 -842150451:3 1:-0.875275 2:0 
-512 0 0 -842150451:0 1:-5.39135 2:0 
-512 0 0 -842150451:0 1:-5.39135 2:0 
-512 0 0 -842150451:0 1:-5.39135 2:0 
-512 0 0 -842150451:0 1:-5.39135 2:0 
-512 0 0 -842150451:0 1:-5.39135 2:0 
-512 0 0 -842150451:0 1:-5.39135 2:0 
-512 0 0 -842150451:0 1:-5.39135 2:0 
-512 0 0 -842150451:0 1:-5.39135 2:0 
-512 0 0 -842150451:0 1:-5.39135 2:0 
-512 0 0 -842150451:1 1:-0.000858307 2:0 
-512 0 0 -842150451:0 1:-5.39135 2:0 
-0 148.2751625764956 0 -842150451:3 1:-0.838141 2:0 
-0.6617201659550732 0.8851212845411974 0 -842150451:25 1:-1.57473 2:0 
-512 0 0 -842150451:1 1:-2.62916 2:0 
-512 0 0 -842150451:0 1:-5.39135 2:0 
-512 0 0 -842150451:0 1:-5.39135 2:0 
-512 0 0 -842150451:0 1:-5.39135 2:0 
-512 0 0 -842150451:0 1:-5.39135 2:0 
-512 0 0 -842150451:0 1:-5.39135 2:0 
-512 0 0 -842150451:0 1:-5.39135 2:0 
-512 0 0 -842150451:0 1:-5.39135 2:0 
-512 0 0 -842150451:0 1:-5.39135 2:0 
-512 0 0 -842150451:0 1:-5.39135 2:0 
-512 0 0 -842150451:0 1:-5.39135 2:0 
-512 0 0 -842150451:0 1:-5.39135 2:0 
-0.6911778755168376 0.9240947620455822 0 -842150451:22 1:-1.33362 2:0 
-512 0 0 -842150451:0 1:-5.39135 2:0 
-512 0 0 -842150451:0 1:-5.39135 2:0 
-512 0 0 -842150451:0 1:-5.39135 2:0 
-512 0 0 -842150451:0 1:-5.39135 2:0 
-512 0 0 -842150451:0 1:-5.39135 2:0 
-512 0 0 -842150451:0 1:-5.39135 2:0 
-512 0 0 -842150451:0 1:-5.39135 2:0 
-512 0 0 -842150451:0 1:-5.39135 2:0 
-512 0 0 -842150451:0 1:-5.39135 2:0 
-512 0 0 -842150451:0 1:-5.39135 2:0 
-512 0 0 -842150451:0 1:-5.39135 2:0 
-512 0 0 -842150451:0 1:-5.39135 2:0 
-360.2951153493705 0 0 -842150451:3 1:-1.66935 2:0 
-0.607507124410231 0.9196752462898623 0 -842150451:20 1:-1.46094 2:0 
-512 0 0 -842150451:4 1:-1.31279 2:0 
-512 0 0 -842150451:0 1:-5.39135 2:0 
-512 0 0 -842150451:0 1:-5.39135 2:0 
-512 0 0 -842150451:0 1:-5.39135 2:0 
-512 0 0 -842150451:0 1:-5.39135 2:0 
-512 0 0 -842150451:0 1:-5.39135 2:0 
-512 0 0 -842150451:0 1:-5.39135 2:0 
-512 0 0 -842150451:0 1:-5.39135 2:0 
-512 0 0 -842150451:0 1:-5.39135 2:0 
-512 0 0 -842150451:0 1:-5.39135 2:0 
-512 0 0 -842150451:0 1:-5.39135 2:0 
-0.6663128500985674 0.8907051870385134 0 -842150451:23 1:-1.36732 2:0 
-512 0 0 -842150451:3 1:-1.00384 2:0 
-512 0 0 -842150451:0 1:-5.39135 2:0 
-512 0 0 -842150451:0 1:-5.39135 2:0 
-512 0 0 -842150451:0 1:-5.39135 2:0 
-512 0 0 -842150451:0 1:-5.39135 2:0 
-512 0 0 -842150451:0 1:-5.39135 2:0 
-512 0 0 -842150451:0 1:-5.39135 2:0 
-512 0 0 -842150451:0 1:-5.39135 2:0 
-512 0 0 -842150451:0 1:-5.39135 2:0 
-512 0 0 -842150451:0 1:-5.39135 2:0 
-512 0 0 -842150451:0 1:-5.39135 2:0 
-1.304083958957449 2.1536047493211 0 -842150451:5 1:-1.51758 2:0 
-512 0 0 -842150451:0 1:-5.39135 2:0 
-512 0 0 -842150451:0 1:-5.39135 2:0 
-512 0 0 -842150451:0 1:-5.39135 2:0 
-512 0 0 -842150451:0 1:-5.39135 2:0 
-512 0 0 -842150451:0 1:-5.39135 2:0 
-512 0 0 -842150451:0 1:-5.39135 2:0 
-512 0 0 -842150451:0 1:-5.39135 2:0 
-512 0 0 -842150451:0 1:-5.39135 2:0 
-512 0 0 -842150451:0 1:-5.39135 2:0 
-512 0 0 -842150451:0 1:-5.39135 2:0 
-512 0 0 -842150451:0 1:-5.39135 2:0 
-48.26916575685517 45.18312707956066 0 -842150451:2 1:-1.2414 2:0 
-0.6918895838061392 0.9247094298509668 0 -842150451:22 1:-1.53828 2:0 
-512 0 0 -842150451:0 1:-5.39135 2:0 
-512 0 0 -842150451:0 1:-5.39135 2:0 
-512 0 0 -842150451:0 1:-5.39135 2:0 
-512 0 0 -842150451:1 1:-0.00485611 2:0 
-512 0 0 -842150451:2 1:-2.42587 2:0 
-0.6014872825492864 0.8061965841348581 0 -842150451:21 1:-1.16902 2:0 
-512 0 0 -842150451:0 1:-5.39135 2:0 
-512 0 0 -842150451:0 1:-5.39135 2:0 
-512 0 0 -842150451:0 1:-5.39135 2:0 
-512 0 0 -842150451:0 1:-5.39135 2:0 
-512 0 0 -842150451:0 1:-5.39135 2:0 
-512 0 0 -842150451:0 1:-5.39135 2:0 
-0 512 0 -842150451:3 1:-1.58214 2:0 
-512 0 0 -842150451:12 1:-1.32732 2:0 
-512 0 0 -842150451:0 1:-5.39135 2:0 
-512 0 0 -842150451:0 1:-5.39135 2:0 
-512 0 0 -842150451:0 1:-5.39135 2:0 
-512 0 0 -842150451:0 1:-5.39135 2:0 
-512 0 0 -842150451:0 1:-5.39135 2:0 
-512 0 0 -842150451:0 1:-5.39135 2:0 
-512 0 0 -842150451:0 1:-5.39135 2:0 
-512 0 0 -842150451:0 1:-5.39135 2:0 
-512 0 0 -842150451:0 1:-5.39135 2:0 
-512 0 0 -842150451:0 1:-5.39135 2:0 
-512 0 0 -842150451:2 1:-0.00215149 2:0 
-512 0 0 -842150451:1 1:0.000347137 2:0 
-512 0 0 -842150451:0 1:-5.39135 2:0 
-5.687653184270133 1.934995492369781 0 -842150451:9 1:-0.621109 2:0 
-512 0 0 -842150451:0 1:-5.39135 2:0 
-512 0 0 -842150451:0 1:-5.39135 2:0 
-512 0 0 -842150451:0 1:-5.39135 2:0 
-512 0 0 -842150451:0 1:-5.39135 2:0 
-512 0 0 -842150451:0 1:-5.39135 2:0 
-512 0 0 -842150451:0 1:-5.39135 2:0 
-512 0 0 -842150451:0 1:-5.39135 2:0 
-512 0 0 -842150451:0 1:-5.39135 2:0 
-512 0 0 -842150451:0 1:-5.39135 2:0 
-512 0 0 -842150451:0 1:-5.39135 2:0 
-512 0 0 -842150451:0 1:-5.39135 2:0 
-512 0 0 -842150451:0 1:-5.39135 2:0 
-489.657009747682 0 0 -842150451:12 1:-0.939637 2:0 
-512 0 0 -842150451:0 1:-5.39135 2:0 
-512 0 0 -842150451:0 1:-5.39135 2:0 
-512 0 0 -842150451:0 1:-5.39135 2:0 
-512 0 0 -842150451:0 1:-5.39135 2:0 
-512 0 0 -842150451:0 1:-5.39135 2:0 
-512 0 0 -842150451:0 1:-5.39135 2:0 
-512 0 0 -842150451:0 1:-5.39135 2:0 
-512 0 0 -842150451:0 1:-5.39135 2:0 
-512 0 0 -842150451:0 1:-5.39135 2:0 
-512 0 0 -842150451:0 1:-5.39135 2:0 
-512 0 0 -842150451:0 1:-5.39135 2:0 
-2.485137305109846 2.808511028190398 0 -842150451:13 1:-0.859327 2:0 
-512 0 0 -842150451:0 1:-5.39135 2:0 
-512 0 0 -842150451:0 1:-5.39135 2:0 
-512 0 0 -842150451:0 1:-5.39135 2:0 
-512 0 0 -842150451:0 1:-5.39135 2:0 
-512 0 0 -842150451:0 1:-5.39135 2:0 
-512 0 0 -842150451:0 1:-5.39135 2:0 
-512 0 0 -842150451:0 1:-5.39135 2:0 
-512 0 0 -842150451:1 1:-0.00960541 2:0 
-512 0 0 -842150451:0 1:-5.39135 2:0 
-512 0 0 -842150451:0 1:-5.39135 2:0 
-512 0 0 -842150451:0 1:-5.39135 2:0 
-512 0 0 -842150451:0 1:-5.39135 2:0 
-512 0 0 -842150451:0 1:-5.39135 2:0 
-512 0 0 -842150451:0 1:-5.39135 2:0 
-512 0 0 -842150451:0 1:-5.39135 2:0 
-498.8481078576673 0 0 -842150451:1 1:-0.0215416 2:0 
-512 0 0 -842150451:0 1:-5.39135 2:0 
-512 0 0 -842150451:0 1:-5.39135 2:0 
-512 0 0 -842150451:0 1:-5.39135 2:0 
-512 0 0 -842150451:0 1:-5.39135 2:0 
-512 0 0 -842150451:0 1:-5.39135 2:0 
-512 0 0 -842150451:0 1:-5.39135 2:0 
-512 0 0 -842150451:0 1:-5.39135 2:0 
-512 0 0 -842150451:1 1:-0.0156326 2:0 
-512 0 0 -842150451:0 1:-5.39135 2:0 
-512 0 0 -842150451:0 1:-5.39135 2:0 
-512 1.624020353937723 0 -842150451:0 1:-5.39135 2:0 
-512 512 0 -842150451:0 1:-5.39135 2:0 
-512 512 0 -842150451:0 1:-5.39135 2:0 
-512 0 0 -842150451:2 1:-0.723879 2:0 
-512 512 0 -842150451:0 1:-5.39135 2:0 
-512 512 0 -842150451:0 1:-5.39135 2:0 
-512 512 0 -842150451:0 1:-5.39135 2:0 
-512 512 0 -842150451:0 1:-5.39135 2:0 
-0 512 0 -842150451:3 1:-0.297084 2:0 
-0 512 0 -842150451:4 1:-0.401183 2:0 
-512 512 0 -842150451:0 1:-5.39135 2:0 
-449.0265579153034 0 0 -842150451:2 1:-0.719751 2:0 
-512 512 0 -842150451:0 1:-5.39135 2:0 
-512 512 0 -842150451:0 1:-5.39135 2:0 
-512 512 0 -842150451:0 1:-5.39135 2:0 
-512 512 0 -842150451:0 1:-5.39135 2:0 
-512 0 0 -842150451:1 1:-0.0203285 2:0 
-512 512 0 -842150451:0 1:-5.39135 2:0 
-512 512 0 -842150451:0 1:-5.39135 2:0 
-512 512 0 -842150451:0 1:-5.39135 2:0 
-512 512 0 -842150451:0 1:-5.39135 2:0 
-512 512 0 -842150451:0 1:-5.39135 2:0 
-512 512 0 -842150451:0 1:-5.39135 2:0 
-512 512 0 -842150451:0 1:-5.39135 2:0 
-512 512 0 -842150451:0 1:-5.39135 2:0 
-512 512 0 -842150451:0 1:-5.39135 2:0 
-512 512 0 -842150451:0 1:-5.39135 2:0 
-512 512 0 -842150451:0 1:-5.39135 2:0 
-512 512 0 -842150451:0 1:-5.39135 2:0 
-512 0 0 -842150451:1 1:-0.0177155 2:0 
-30.62079741663618 0 0 -842150451:2 1:-0.693493 2:0 
-512 512 0 -842150451:0 1:-5.39135 2:0 
-512 512 0 -842150451:0 1:-5.39135 2:0 
-512 512 0 -842150451:0 1:-5.39135 2:0 
-512 512 0 -842150451:0 1:-5.39135 2:0 
-512 512 0 -842150451:0 1:-5.39135 2:0 
-510.0691476567429 0 0 -842150451:1 1:-0.0172691 2:0 
-512 512 0 -842150451:0 1:-5.39135 2:0 
-512 512 0 -842150451:0 1:-5.39135 2:0 
-512 512 0 -842150451:0 1:-5.39135 2:0 
-512 512 0 -842150451:0 1:-5.39135 2:0 
-512 512 0 -842150451:0 1:-5.39135 2:0 
-512 512 0 -842150451:0 1:-5.39135 2:0 
-512 512 0 -842150451:0 1:-5.39135 2:0 
-512 512 0 -842150451:0 1:-5.39135 2:0 
-512 512 0 -842150451:0 1:-5.39135 2:0 
-322.4315550636738 0 0 -842150451:2 1:-0.0203819 2:0 
-512 512 0 -842150451:0 1:-5.39135 2:0 
-512 512 0 -842150451:0 1:-5.39135 2:0 
-512 512 0 -842150451:0 1:-5.39135 2:0 
-512 512 0 -842150451:0 1:-5.39135 2:0 
-512 0 0 -842150451:1 1:-0.643417 2:0 
-512 0 0 -842150451:1 1:-0.641476 2:0 
-512 512 0 -842150451:0 1:-5.39135 2:0 
-512 512 0 -842150451:0 1:-5.39135 2:0 
-512 512 0 -842150451:0 1:-5.39135 2:0 
-512 512 0 -842150451:0 1:-5.39135 2:0 
-512 512 0 -842150451:0 1:-5.39135 2:0 
-512 0 0 -842150451:1 1:-0.643497 2:0 
-512 0 0 -842150451:1 1:-0.629944 2:0 
-512 512 0 -842150451:0 1:-5.39135 2:0 
-512 512 0 -842150451:0 1:-5.39135 2:0 
-512 512 0 -842150451:0 1:-5.39135 2:0 
-512 512 0 -842150451:0 1:-5.39135 2:0 
-8.1890397713808 0 0 -842150451:2 1:-0.0193729 2:0 
-512 0 0 -842150451:1 1:-0.634758 2:0 
-512 0 0 -842150451:2 1:-0.626692 2:0 
-512 0 0 -842150451:1 1:-0.610477 2:0 
-512 512 0 -842150451:0 1:-5.39135 2:0 
-512 512 0 -842150451:0 1:-5.39135 2:0 
-512 512 0 -842150451:0 1:-5.39135 2:0 
-512 512 0 -842150451:0 1:-5.39135 2:0 
-0 512 0 -842150451:2 1:-0.36289 2:0 
-512 512 0 -842150451:3 1:-0.440376 2:0 
-512 512 0 -842150451:0 1:-5.39135 2:0 
-212.8519772621213 512 0 -842150451:2 1:-0.351078 2:0 
-512 512 0 -842150451:3 1:-0.434586 2:0 
-512 205.6099275140241 0 -842150451:3 1:-0.604223 2:0 
-512 512 0 -842150451:0 1:-5.39135 2:0 
-512 512 0 -842150451:0 1:-5.39135 2:0 
-512 512 0 -842150451:0 1:-5.39135 2:0 
-512 512 0 -842150451:0 1:-5.39135 2:0 
-512 512 0 -842150451:0 1:-5.39135 2:0 
-512 512 0 -842150451:0 1:-5.39135 2:0 
-512 512 0 -842150451:0 1:-5.39135 2:0 
-512 512 0 -842150451:0 1:-5.39135 2:0 
-512 409.7341858226458 0 -842150451:1 1:-0.583447 2:0 
-512 0 0 -842150451:1 1:-0.590626 2:0 
-512 0 0 -842150451:2 1:-0.588161 2:0 
-512 512 0 -842150451:0 1:-5.39135 2:0 
-512 512 0 -842150451:0 1:-5.39135 2:0 
-512 512 0 -842150451:0 1:-5.39135 2:0 
-512 512 0 -842150451:0 1:-5.39135 2:0 
-512 512 0 -842150451:0 1:-5.39135 2:0 
-512 512 0 -842150451:0 1:-5.39135 2:0 
-512 512 0 -842150451:0 1:-5.39135 2:0 
-512 512 0 -842150451:0 1:-5.39135 2:0 
-512 512 0 -842150451:0 1:-5.39135 2:0 
-512 512 0 -842150451:0 1:-5.39135 2:0 
-512 512 0 -842150451:0 1:-5.39135 2:0 
-512 512 0 -842150451:0 1:-5.39135 2:0 
-512 512 0 -842150451:0 1:-5.39135 2:0 
-72.96383974174177 0 0 -842150451:1 1:0.00149918 2:0 
-512 512 0 -842150451:0 1:-5.39135 2:0 
-512 512 0 -842150451:0 1:-5.39135 2:0 
-512 512 0 -842150451:0 1:-5.39135 2:0 
-512 512 0 -842150451:0 1:-5.39135 2:0 
-512 512 0 -842150451:0 1:-5.39135 2:0 
-512 512 0 -842150451:0 1:-5.39135 2:0 
-512 512 0 -842150451:0 1:-5.39135 2:0 
-512 512 0 -842150451:0 1:-5.39135 2:0 
-218.236918227366 0 0 -842150451:1 1:-0.0127487 2:0 
-512 512 0 -842150451:0 1:-5.39135 2:0 
-512 512 0 -842150451:0 1:-5.39135 2:0 
-512 512 0 -842150451:0 1:-5.39135 2:0 
-512 512 0 -842150451:0 1:-5.39135 2:0 
-512 512 0 -842150451:0 1:-5.39135 2:0 
-512 512 0 -842150451:0 1:-5.39135 2:0 
-512 512 0 -842150451:0 1:-5.39135 2:0 
-512 512 0 -842150451:0 1:-5.39135 2:0 
-512 0 0 -842150451:2 1:-0.00728226 2:0 
-512 512 0 -842150451:0 1:-5.39135 2:0 
-512 512 0 -842150451:0 1:-5.39135 2:0 
-512 512 0 -842150451:0 1:-5.39135 2:0 
-512 217.8899854882858 0 -842150451:3 1:-0.67601 2:0 
-512 512 0 -842150451:0 1:-5.39135 2:0 
-512 512 0 -842150451:0 1:-5.39135 2:0 
-512 512 0 -842150451:0 1:-5.39135 2:0 
-512 512 0 -842150451:0 1:-5.39135 2:0 
-512 512 0 -842150451:0 1:-5.39135 2:0 
-512 512 0 -842150451:0 1:-5.39135 2:0 
-17.83862250876012 0 0 -842150451:1 1:-0.00912857 2:0 
-0 498.7391756328297 0 -842150451:5 1:-0.53281 2:0 
-21.07090877542383 0 0 -842150451:2 1:-0.0415154 2:0 
-484.6470874859478 0 0 -842150451:2 1:-0.0606041 2:0 
-512 0 0 -842150451:1 1:-0.00741196 2:0 
-512 0 0 -842150451:1 1:-0.00682831 2:0 
-1.949011816931046 0 0 -842150451:2 1:-0.0115776 2:0 
-512 0 0 -842150451:1 1:-0.00272751 2:0 
-512 512 0 -842150451:0 1:-5.39135 2:0 
-512 512 0 -842150451:0 1:-5.39135 2:0 
-19.44345850366546 191.7988568849672 0 -842150451:4 1:-0.548422 2:0 
-512 512 0 -842150451:0 1:-5.39135 2:0 
-512 512 0 -842150451:0 1:-5.39135 2:0 
-4.1623229192597 0 0 -842150451:2 1:-0.0330029 2:0 
-512 0 0 -842150451:1 1:-0.00782013 2:0 
-512 512 0 -842150451:0 1:-5.39135 2:0 
-512 512 0 -842150451:0 1:-5.39135 2:0 
-512 512 0 -842150451:0 1:-5.39135 2:0 
-512 512 0 -842150451:0 1:-5.39135 2:0 
-512 512 0 -842150451:0 1:-5.39135 2:0 
-512 512 0 -842150451:0 1:-5.39135 2:0 
-512 512 0 -842150451:0 1:-5.39135 2:0 
-512 512 0 -842150451:0 1:-5.39135 2:0 
-512 512 0 -842150451:0 1:-5.39135 2:0 
-512 512 0 -842150451:0 1:-5.39135 2:0 
-512 512 0 -842150451:0 1:-5.39135 2:0 
-512 512 0 -842150451:0 1:-5.39135 2:0 
-512 512 0 -842150451:0 1:-5.39135 2:0 
-512 512 0 -842150451:0 1:-5.39135 2:0 
-512 512 0 -842150451:0 1:-5.39135 2:0 
-512 512 0 -842150451:0 1:-5.39135 2:0 
-512 512 0 -842150451:0 1:-5.39135 2:0 
-512 512 0 -842150451:0 1:-5.39135 2:0 
-512 512 0 -842150451:0 1:-5.39135 2:0 
-512 512 0 -842150451:0 1:-5.39135 2:0 
-512 512 0 -842150451:0 1:-5.39135 2:0 
-512 512 0 -842150451:0 1:-5.39135 2:0 
-512 512 0 -842150451:0 1:-5.39135 2:0 
-512 512 0 -842150451:0 1:-5.39135 2:0 
-512 512 0 -842150451:0 1:-5.39135 2:0 
-512 512 0 -842150451:0 1:-5.39135 2:0 
-512 512 0 -842150451:0 1:-5.39135 2:0 
-512 512 0 -842150451:0 1:-5.39135 2:0 
-512 0 0 -842150451:1 1:-0.00674438 2:0 
-512 512 0 -842150451:0 1:-5.39135 2:0 
-512 512 0 -842150451:0 1:-5.39135 2:0 
-512 512 0 -842150451:0 1:-5.39135 2:0 
-0 158.2050575276758 0 -842150451:2 1:-0.509823 2:0 
-512 512 0 -842150451:1 1:-0.526573 2:0 
-512 512 0 -842150451:1 1:-0.507683 2:0 
-512 512 0 -842150451:0 1:-5.39135 2:0 
-512 512 0 -842150451:0 1:-5.39135 2:0 
-512 512 0 -842150451:0 1:-5.39135 2:0 
-512 0 0 -842150451:2 1:-0.00354004 2:0 
-512 0 0 -842150451:1 1:-0.00897217 2:0 
-512 512 0 -842150451:0 1:-5.39135 2:0 
-512 512 0 -842150451:0 1:-5.39135 2:0 
-94.83591806093367 0 0 -842150451:2 1:-0.526154 2:0 
-512 512 0 -842150451:0 1:-5.39135 2:0 
-512 512 0 -842150451:0 1:-5.39135 2:0 
-512 512 0 -842150451:0 1:-5.39135 2:0 
-512 512 0 -842150451:0 1:-5.39135 2:0 
-512 512 0 -842150451:0 1:-5.39135 2:0 
-512 512 0 -842150451:0 1:-5.39135 2:0 
-512 512 0 -842150451:0 1:-5.39135 2:0 
-512 0 0 -842150451:1 1:-0.624386 2:0 
-512 0 0 -842150451:2 1:-0.570087 2:0 
-512 512 0 -842150451:0 1:-5.39135 2:0 
-512 512 0 -842150451:0 1:-5.39135 2:0 
-512 512 0 -842150451:0 1:-5.39135 2:0 
-512 512 0 -842150451:0 1:-5.39135 2:0 
-512 512 0 -842150451:0 1:-5.39135 2:0 
-512 512 0 -842150451:0 1:-5.39135 2:0 
-512 512 0 -842150451:0 1:-5.39135 2:0 
-512 512 0 -842150451:0 1:-5.39135 2:0 
-512 512 0 -842150451:0 1:-5.39135 2:0 
-512 512 0 -842150451:0 1:-5.39135 2:0 
-512 512 0 -842150451:0 1:-5.39135 2:0 
-512 512 0 -842150451:0 1:-5.39135 2:0 
-512 512 0 -842150451:0 1:-5.39135 2:0 
-512 512 0 -842150451:0 1:-5.39135 2:0 
-512 512 0 -842150451:0 1:-5.39135 2:0 
-512 512 0 -842150451:0 1:-5.39135 2:0 
-512 512 0 -842150451:0 1:-5.39135 2:0 
-512 512 0 -842150451:0 1:-5.39135 2:0 
-512 512 0 -842150451:0 1:-5.39135 2:0 
-512 512 0 -842150451:0 1:-5.39135 2:0 
-512 512 0 -842150451:0 1:-5.39135 2:0 
-512 512 0 -842150451:0 1:-5.39135 2:0 
-512 512 0 -842150451:0 1:-5.39135 2:0 
-512 512 0 -842150451:0 1:-5.39135 2:0 
-512 512 0 -842150451:0 1:-5.39135 2:0 
-512 512 0 -842150451:0 1:-5.39135 2:0 
-512 512 0 -842150451:0 1:-5.39135 2:0 
-512 512 0 -842150451:0 1:-5.39135 2:0 
-512 512 0 -842150451:0 1:-5.39135 2:0 
-512 512 0 -842150451:0 1:-5.39135 2:0 
-512 512 0 -842150451:0 1:-5.39135 2:0 
-512 512 0 -842150451:0 1:-5.39135 2:0 
-225.4461839529037 0 0 -842150451:2 1:-0.00400734 2:0 
-512 512 0 -842150451:0 1:-5.39135 2:0 
-512 512 512 -842150451:0 1:-5.39135 2:0 
-512 512 512 -842150451:0 1:-5.39135 2:0 
-512 512 512 -842150451:0 1:-5.39135 2:0 
-512 512 512 -842150451:0 1:-5.39135 2:0 
-512 512 512 -842150451:0 1:-5.39135 2:0 
-512 512 512 -842150451:0 1:-5.39135 2:0 
-512 512 512 -842150451:0 1:-5.39135 2:0 
-470.1941199444937 0 0 -842150451:2 1:-0.0591946 2:0 
-512 512 512 -842150451:0 1:-5.39135 2:0 
-512 512 512 -842150451:0 1:-5.39135 2:0 
-512 512 512 -842150451:0 1:-5.39135 2:0 
-512 512 512 -842150451:0 1:-5.39135 2:0 
-512 512 512 -842150451:0 1:-5.39135 2:0 
-512 512 512 -842150451:0 1:-5.39135 2:0 
-512 512 512 -842150451:0 1:-5.39135 2:0 
-512 512 512 -842150451:0 1:-5.39135 2:0 
-301.759156491043 0 0 -842150451:1 1:-0.00521469 2:0 
-512 512 512 -842150451:0 1:-5.39135 2:0 
-512 512 512 -842150451:0 1:-5.39135 2:0 
-512 512 512 -842150451:0 1:-5.39135 2:0 
-512 512 512 -842150451:0 1:-5.39135 2:0 
-512 512 512 -842150451:0 1:-5.39135 2:0 
-512 512 512 -842150451:0 1:-5.39135 2:0 
-512 512 512 -842150451:0 1:-5.39135 2:0 
-512 512 512 -842150451:0 1:-5.39135 2:0 
-512 512 512 -842150451:0 1:-5.39135 2:0 
-512 512 512 -842150451:0 1:-5.39135 2:0 
-512 0 0 -842150451:1 1:-0.00260544 2:0 
-512 0 0 -842150451:1 1:-0.00971985 2:0 
-512 512 512 -842150451:0 1:-5.39135 2:0 
-512 512 512 -842150451:0 1:-5.39135 2:0 
-512 512 512 -842150451:0 1:-5.39135 2:0 
-512 512 512 -842150451:0 1:-5.39135 2:0 
-512 512 0 -842150451:1 1:-0.477615 2:0 
-512 512 512 -842150451:0 1:-5.39135 2:0 
-512 512 512 -842150451:0 1:-5.39135 2:0 
-512 512 512 -842150451:0 1:-5.39135 2:0 
-512 512 512 -842150451:0 1:-5.39135 2:0 
-512 512 512 -842150451:0 1:-5.39135 2:0 
-512 512 512 -842150451:0 1:-5.39135 2:0 
-512 512 512 -842150451:0 1:-5.39135 2:0 
-512 512 512 -842150451:0 1:-5.39135 2:0 
-512 512 0 -842150451:1 1:-0.499409 2:0 
-512 512 0 -842150451:3 1:-0.531105 2:0 
-512 512 512 -842150451:0 1:-5.39135 2:0 
-512 512 512 -842150451:0 1:-5.39135 2:0 
-512 512 512 -842150451:0 1:-5.39135 2:0 
-512 512 512 -842150451:0 1:-5.39135 2:0 
-210.752512289967 0 0 -842150451:2 1:-0.00621986 2:0 
-512 0 0 -842150451:1 1:-0.0113983 2:0 
-512 512 512 -842150451:0 1:-5.39135 2:0 
-512 512 512 -842150451:0 1:-5.39135 2:0 
-512 0 0 -842150451:2 1:-0.613411 2:0 
-512 512 512 -842150451:0 1:-5.39135 2:0 
-512 0 0 -842150451:4 1:-0.580489 2:0 
-512 512 512 -842150451:0 1:-5.39135 2:0 
-512 512 512 -842150451:0 1:-5.39135 2:0 
-512 512 512 -842150451:0 1:-5.39135 2:0 
-512 512 512 -842150451:0 1:-5.39135 2:0 
-512 0 0 -842150451:1 1:-0.0041008 2:0 
-512 512 512 -842150451:0 1:-5.39135 2:0 
-512 512 512 -842150451:0 1:-5.39135 2:0 
-0 512 0 -842150451:4 1:-0.482247 2:0 
-512 512 512 -842150451:0 1:-5.39135 2:0 
-512 512 512 -842150451:0 1:-5.39135 2:0 
-512 512 512 -842150451:0 1:-5.39135 2:0 
-512 512 512 -842150451:0 1:-5.39135 2:0 
-512 512 512 -842150451:0 1:-5.39135 2:0 
-512 512 512 -842150451:0 1:-5.39135 2:0 
-512 512 512 -842150451:0 1:-5.39135 2:0 
-512 0 0 -842150451:2 1:-0.550018 2:0 
-512 512 512 -842150451:0 1:-5.39135 2:0 
-512 512 512 -842150451:0 1:-5.39135 2:0 
-512 512 512 -842150451:0 1:-5.39135 2:0 
-512 512 512 -842150451:0 1:-5.39135 2:0 
-512 512 512 -842150451:0 1:-5.39135 2:0 
-512 512 512 -842150451:0 1:-5.39135 2:0 
-512 512 512 -842150451:0 1:-5.39135 2:0 
-512 512 512 -842150451:0 1:-5.39135 2:0 
-512 0 0 -842150451:2 1:-0.593853 2:0 
-512 512 512 -842150451:0 1:-5.39135 2:0 
-512 512 512 -842150451:0 1:-5.39135 2:0 
-512 512 512 -842150451:0 1:-5.39135 2:0 
-512 512 512 -842150451:0 1:-5.39135 2:0 
-512 0 0 -842150451:1 1:-0.00188828 2:0 
-512 0 0 -842150451:1 1:-0.0057373 2:0 
-512 512 512 -842150451:0 1:-5.39135 2:0 
-512 512 512 -842150451:0 1:-5.39135 2:0 
-512 512 512 -842150451:0 1:-5.39135 2:0 
-512 512 512 -842150451:0 1:-5.39135 2:0 
-512 0 0 -842150451:1 1:-0.628075 2:0 
-512 512 512 -842150451:0 1:-5.39135 2:0 
-512 512 512 -842150451:0 1:-5.39135 2:0 
-512 512 0 -842150451:1 1:-0.277161 2:0 
-512 512 512 -842150451:0 1:-5.39135 2:0 
-512 0 0 -842150451:1 1:-0.00798416 2:0 
-512 512 512 -842150451:0 1:-5.39135 2:0 
-512 512 512 -842150451:0 1:-5.39135 2:0 
-512 512 512 -842150451:0 1:-5.39135 2:0 
-512 512 512 -842150451:0 1:-5.39135 2:0 
-512 512 512 -842150451:0 1:-5.39135 2:0 
-512 512 512 -842150451:0 1:-5.39135 2:0 
-512 512 512 -842150451:0 1:-5.39135 2:0 
-512 512 512 -842150451:0 1:-5.39135 2:0 
-512 512 512 -842150451:0 1:-5.39135 2:0 
-512 0 0 -842150451:2 1:-0.00551414 2:0 
-512 512 512 -842150451:0 1:-5.39135 2:0 
-512 0 0 -842150451:1 1:-0.0105286 2:0 
-512 512 512 -842150451:0 1:-5.39135 2:0 
-512 512 512 -842150451:0 1:-5.39135 2:0 
-512 512 512 -842150451:0 1:-5.39135 2:0 
-512 512 512 -842150451:0 1:-5.39135 2:0 
-512 512 512 -842150451:0 1:-5.39135 2:0 
-512 512 512 -842150451:0 1:-5.39135 2:0 
-512 512 512 -842150451:0 1:-5.39135 2:0 
-101.0981634955565 0 0 -842150451:2 1:-0.0523453 2:0 
-33.24406288886198 0 0 -842150451:2 1:-0.0438976 2:0 
-512 512 512 -842150451:0 1:-5.39135 2:0 
-512 0 0 -842150451:1 1:-0.00538635 2:0 
-512 0 0 -842150451:1 1:-0.0094223 2:0 
-2.623657564110479 0.8099358120004732 0 -842150451:7 1:-0.6675 2:0 
-1.187341030526603 1.586291879511257 0 -842150451:10 1:-0.426559 2:0 
-0 1.066162090666844 0 -842150451:7 1:-0.474487 2:0 
-1.198488597641876 42.05856778572343 0 -842150451:6 1:-0.390881 2:0 
-108.9194826660488 512 0 -842150451:5 1:-0.371898 2:0 
-512 0 0 -842150451:1 1:-0.0034523 2:0 
-512 0 0 -842150451:1 1:-0.00793076 2:0 
-512 512 512 -842150451:0 1:-5.39135 2:0 
-192.356596149673 0 0 -842150451:1 1:-0.0065918 2:0 
-512 0 0 -842150451:1 1:-0.00464249 2:0 
-512 0 0 -842150451:1 1:-0.00336075 2:0 
-512 512 512 -842150451:0 1:-5.39135 2:0 
-512 0 0 -842150451:2 1:-0.00484276 2:0 
-41.23462471089696 0 0 -842150451:1 1:-0.0119705 2:0 
-0.0737510884377912 0 0 -842150451:2 1:-0.010231 2:0 
-512 0 0 -842150451:1 1:-0.00647736 2:0 
-512 0 0 -842150451:1 1:-0.00460815 2:0 
-512 0 0 -842150451:1 1:-0.00679398 2:0 
-512 0 0 -842150451:1 1:-0.00584412 2:0 
-512 512 512 -842150451:0 1:-5.39135 2:0 
-512 0 0 -842150451:1 1:-0.00537491 2:0 
-512 0 0 -842150451:1 1:-0.00619125 2:0 
-512 512 512 -842150451:0 1:-5.39135 2:0 
-512 0 0 -842150451:1 1:-0.00548935 2:0 
-512 512 512 -842150451:0 1:-5.39135 2:0 
-512 512 512 -842150451:0 1:-5.39135 2:0 
-512 512 512 -842150451:0 1:-5.39135 2:0 
-0 512 0 -842150451:1 1:-0.138214 2:0 
-512 512 512 -842150451:0 1:-5.39135 2:0 
-101.799006036113 0 0 -842150451:2 1:-0.0556126 2:0 
-0 512 0 -842150451:2 1:-0.161741 2:0 
-0 363.8448162081382 0 -842150451:4 1:-0.143689 2:0 
-512 0 0 -842150451:1 1:-0.002491 2:0 
-57.79681355553807 0 0 -842150451:1 1:-0.0101471 2:0 
-512 512 512 -842150451:0 1:-5.39135 2:0 
-512 512 512 -842150451:0 1:-5.39135 2:0 
-512 512 512 -842150451:0 1:-5.39135 2:0 
-0 512 0 -842150451:3 1:-0.217509 2:0 
-0 512 0 -842150451:2 1:-0.235613 2:0 
-512 512 512 -842150451:0 1:-5.39135 2:0 
-512 512 512 -842150451:0 1:-5.39135 2:0 
-512 0 0 -842150451:1 1:-0.00640488 2:0 
-512 0 0 -842150451:1 1:-0.0154877 2:0 
-0 512 0 -842150451:1 1:-0.213036 2:0 
-374.3433042485001 512 0 -842150451:2 1:-0.244835 2:0 
-512 512 512 -842150451:0 1:-5.39135 2:0 
-0 512 0 -842150451:3 1:-0.271008 2:0 
-512 512 512 -842150451:0 1:-5.39135 2:0 
-512 512 512 -842150451:0 1:-5.39135 2:0 
-512 512 512 -842150451:0 1:-5.39135 2:0 
-512 0 0 -842150451:1 1:-0.00808334 2:0 
-512 512 512 -842150451:0 1:-5.39135 2:0 
-512 512 512 -842150451:0 1:-5.39135 2:0 
-512 512 512 -842150451:0 1:-5.39135 2:0 
-512 512 0 -842150451:1 1:-0.29134 2:0 
-512 512 512 -842150451:0 1:-5.39135 2:0 
-512 512 512 -842150451:0 1:-5.39135 2:0 
-512 512 512 -842150451:0 1:-5.39135 2:0 
-512 0 0 -842150451:1 1:-0.00844574 2:0 
-512 512 512 -842150451:0 1:-5.39135 2:0 
-512 512 512 -842150451:0 1:-5.39135 2:0 
-0 512 0 -842150451:1 1:-0.137547 2:0 
-6.551520623362019 512 0 -842150451:3 1:-0.359524 2:0 
-512 512 512 -842150451:0 1:-5.39135 2:0 
-0 512 0 -842150451:3 1:-0.24707 2:0 
-0 512 0 -842150451:3 1:-0.320656 2:0 
-214.9855144988037 512 0 -842150451:1 1:-0.23175 2:0 
-0 512 0 -842150451:1 1:-0.184853 2:0 
-512 512 512 -842150451:0 1:-5.39135 2:0 
-512 512 512 -842150451:0 1:-5.39135 2:0 
-512 0 0 -842150451:1 1:-0.0046196 2:0 
-512 512 512 -842150451:0 1:-5.39135 2:0 
-512 512 512 -842150451:0 1:-5.39135 2:0 
-402.5764996708339 0 0 -842150451:5 1:-0.331136 2:0 
-512 512 512 -842150451:0 1:-5.39135 2:0 
-512 512 512 -842150451:0 1:-5.39135 2:0 
-0 19.19892161279874 0 -842150451:2 1:-0.159601 2:0 
-512 512 512 -842150451:0 1:-5.39135 2:0 
-512 0 0 -842150451:1 1:-0.00561142 2:0 
-512 512 512 -842150451:0 1:-5.39135 2:0 
-512 512 512 -842150451:0 1:-5.39135 2:0 
-512 512 512 -842150451:0 1:-5.39135 2:0 
-512 512 0 -842150451:1 1:-0.25 2:0 
-0 512 0 -842150451:1 1:-0.145233 2:0 
-0 297.2395696062821 0 -842150451:3 1:-0.159273 2:0 
-0 512 0 -842150451:1 1:-0.184006 2:0 
-0 512 0 -842150451:2 1:-0.182682 2:0 
-512 512 512 -842150451:0 1:-5.39135 2:0 
-512 512 512 -842150451:0 1:-5.39135 2:0 
-512 512 512 -842150451:0 1:-5.39135 2:0 
-512 512 0 -842150451:2 1:-0.257534 2:0 
-512 512 512 -842150451:0 1:-5.39135 2:0 
-512 512 512 -842150451:0 1:-5.39135 2:0 
-512 512 512 -842150451:0 1:-5.39135 2:0 
-512 512 512 -842150451:0 1:-5.39135 2:0 
-512 512 512 -842150451:0 1:-5.39135 2:0 
-512 512 512 -842150451:0 1:-5.39135 2:0 
-512 512 512 -842150451:0 1:-5.39135 2:0 
-512 512 512 -842150451:0 1:-5.39135 2:0 
-512 512 512 -842150451:0 1:-5.39135 2:0 
-512 512 512 -842150451:0 1:-5.39135 2:0 
-0 512 0 -842150451:1 1:-0.183876 2:0 
-512 512 512 -842150451:0 1:-5.39135 2:0 
-512 512 512 -842150451:0 1:-5.39135 2:0 
-512 512 512 -842150451:0 1:-5.39135 2:0 
-512 512 512 -842150451:0 1:-5.39135 2:0 
-512 0 0 -842150451:1 1:-0.00569916 2:0 
-512 0 0 -842150451:1 1:-0.00403595 2:0 
-512 512 512 -842150451:0 1:-5.39135 2:0 
-512 512 512 -842150451:0 1:-5.39135 2:0 
-512 512 512 -842150451:0 1:-5.39135 2:0 
-512 512 512 -842150451:0 1:-5.39135 2:0 
-512 512 512 -842150451:0 1:-5.39135 2:0 
-512 512 512 -842150451:0 1:-5.39135 2:0 
-512 512 512 -842150451:0 1:-5.39135 2:0 
-512 512 512 -842150451:0 1:-5.39135 2:0 
-512 512 512 -842150451:0 1:-5.39135 2:0 
-512 0 0 -842150451:1 1:-0.0084343 2:0 
-512 512 512 -842150451:0 1:-5.39135 2:0 
-512 512 512 -842150451:0 1:-5.39135 2:0 
-512 512 512 -842150451:0 1:-5.39135 2:0 
-512 512 512 -842150451:0 1:-5.39135 2:0 
-512 0 0 -842150451:2 1:-0.00584412 2:0 
-512 512 512 -842150451:0 1:-5.39135 2:0 
-512 512 512 -842150451:0 1:-5.39135 2:0 
-512 512 512 -842150451:0 1:-5.39135 2:0 
-512 0 0 -842150451:1 1:-0.0152473 2:0 
-512 512 512 -842150451:0 1:-5.39135 2:0 
-512 512 512 -842150451:0 1:-5.39135 2:0 
-512 512 512 -842150451:0 1:-5.39135 2:0 
-512 512 512 -842150451:0 1:-5.39135 2:0 
-512 512 512 -842150451:0 1:-5.39135 2:0 
-512 512 512 -842150451:0 1:-5.39135 2:0 
-512 512 512 -842150451:0 1:-5.39135 2:0 
-512 512 512 -842150451:0 1:-5.39135 2:0 
-512 512 512 -842150451:0 1:-5.39135 2:0 
-512 512 512 -842150451:0 1:-5.39135 2:0 
-0.2944949881260906 182.8390344080019 0 -842150451:4 1:-0.00800991 2:0 
-512 0 0 -842150451:1 1:-0.00769424 2:0 
-484.9306452405613 0 0 -842150451:1 1:-0.0132294 2:0 
-512 512 512 -842150451:0 1:-5.39135 2:0 
-512 512 512 -842150451:0 1:-5.39135 2:0 
-512 512 512 -842150451:0 1:-5.39135 2:0 
-512 512 512 -842150451:0 1:-5.39135 2:0 
-512 512 512 -842150451:0 1:-5.39135 2:0 
-512 512 512 -842150451:0 1:-5.39135 2:0 
-512 512 512 -842150451:0 1:-5.39135 2:0 
-512 512 512 -842150451:0 1:-5.39135 2:0 
-512 512 512 -842150451:0 1:-5.39135 2:0 
-512 0 0 -842150451:1 1:-0.00767136 2:0 
-512 0 0 -842150451:1 1:-0.0121613 2:0 
-512 512 512 -842150451:0 1:-5.39135 2:0 
-512 512 512 -842150451:0 1:-5.39135 2:0 
-512 512 512 -842150451:0 1:-5.39135 2:0 
-512 512 512 -842150451:0 1:-5.39135 2:0 
-512 512 512 -842150451:0 1:-5.39135 2:0 
-512 512 512 -842150451:0 1:-5.39135 2:0 
-512 512 512 -842150451:0 1:-5.39135 2:0 
-512 512 512 -842150451:0 1:-5.39135 2:0 
-512 512 512 -842150451:0 1:-5.39135 2:0 
-512 512 512 -842150451:0 1:-5.39135 2:0 
-512 0 0 -842150451:1 1:-0.00850677 2:0 
-512 512 512 -842150451:0 1:-5.39135 2:0 
-512 512 512 -842150451:0 1:-5.39135 2:0 
-512 512 512 -842150451:0 1:-5.39135 2:0 
-512 512 512 -842150451:0 1:-5.39135 2:0 
-512 512 512 -842150451:0 1:-5.39135 2:0 
-512 512 512 -842150451:0 1:-5.39135 2:0 
-512 512 512 -842150451:0 1:-5.39135 2:0 
-512 512 512 -842150451:0 1:-5.39135 2:0 
-512 512 512 -842150451:0 1:-5.39135 2:0 
-512 0 0 -842150451:1 1:-0.0122261 2:0 
-512 0 0 -842150451:1 1:-0.0128975 2:0 
-512 512 512 -842150451:0 1:-5.39135 2:0 
-512 512 512 -842150451:0 1:-5.39135 2:0 
-512 512 512 -842150451:0 1:-5.39135 2:0 
-512 512 512 -842150451:0 1:-5.39135 2:0 
-512 512 512 -842150451:0 1:-5.39135 2:0 
-512 512 512 -842150451:0 1:-5.39135 2:0 
-512 512 512 -842150451:0 1:-5.39135 2:0 
-512 512 512 -842150451:0 1:-5.39135 2:0 
-512 512 512 -842150451:0 1:-5.39135 2:0 
-512 512 512 -842150451:0 1:-5.39135 2:0 
-512 512 512 -842150451:0 1:-5.39135 2:0 
-512 512 512 -842150451:0 1:-5.39135 2:0 
-512 512 512 -842150451:0 1:-5.39135 2:0 
-512 512 512 -842150451:0 1:-5.39135 2:0 
-512 512 512 -842150451:0 1:-5.39135 2:0 
-512 512 512 -842150451:0 1:-5.39135 2:0 
-512 512 512 -842150451:0 1:-5.39135 2:0 
-512 512 512 -842150451:0 1:-5.39135 2:0 
-512 512 512 -842150451:0 1:-5.39135 2:0 
-512 0 0 -842150451:1 1:-0.00806808 2:0 
-512 512 512 -842150451:0 1:-5.39135 2:0 
-512 512 512 -842150451:0 1:-5.39135 2:0 
-512 512 512 -842150451:0 1:-5.39135 2:0 
-512 512 512 -842150451:0 1:-5.39135 2:0 
-512 512 512 -842150451:0 1:-5.39135 2:0 
-512 512 512 -842150451:0 1:-5.39135 2:0 
-512 512 512 -842150451:0 1:-5.39135 2:0 
-512 512 512 -842150451:0 1:-5.39135 2:0 
-512 512 512 -842150451:0 1:-5.39135 2:0 
-512 512 512 -842150451:0 1:-5.39135 2:0 
-512 512 512 -842150451:0 1:-5.39135 2:0 
-512 512 512 -842150451:0 1:-5.39135 2:0 
-512 512 512 -842150451:0 1:-5.39135 2:0 
-512 512 512 -842150451:0 1:-5.39135 2:0 
-512 512 512 -842150451:0 1:-5.39135 2:0 
-512 512 512 -842150451:0 1:-5.39135 2:0 
-512 512 512 -842150451:0 1:-5.39135 2:0 
-512 512 512 -842150451:0 1:-5.39135 2:0 
-512 512 512 -842150451:0 1:-5.39135 2:0 
-512 512 512 -842150451:0 1:-5.39135 2:0 
-512 512 512 -842150451:0 1:-5.39135 2:0 
-512 512 512 -842150451:0 1:-5.39135 2:0 
-512 512 512 -842150451:0 1:-5.39135 2:0 
-512 512 512 -842150451:0 1:-5.39135 2:0 
-512 512 512 -842150451:0 1:-5.39135 2:0 
-512 512 512 -842150451:0 1:-5.39135 2:0 
-512 512 512 -842150451:0 1:-5.39135 2:0 
-512 512 512 -842150451:0 1:-5.39135 2:0 
-512 512 512 -842150451:0 1:-5.39135 2:0 
-512 512 512 -842150451:0 1:-5.39135 2:0 
-512 0 0 -842150451:1 1:-0.0157166 2:0 
-512 512 512 -842150451:0 1:-5.39135 2:0 
-512 512 512 -842150451:0 1:-5.39135 2:0 
-512 512 512 -842150451:0 1:-5.39135 2:0 
-512 512 512 -842150451:0 1:-5.39135 2:0 
-189.7958970129629 0 0 -842150451:2 1:-0.0232944 2:0 
-512 512 512 -842150451:0 1:-5.39135 2:0 
-512 512 512 -842150451:0 1:-5.39135 2:0 
-0 35.72650080394863 0 -842150451:4 1:-0.0586805 2:0 
-512 512 512 -842150451:0 1:-5.39135 2:0 
-201.2269065353347 0 0 -842150451:1 1:-0.012867 2:0 
-512 512 512 -842150451:0 1:-5.39135 2:0 
-512 512 512 -842150451:0 1:-5.39135 2:0 
-512 512 512 -842150451:0 1:-5.39135 2:0 
-512 512 512 -842150451:0 1:-5.39135 2:0 
-512 512 512 -842150451:0 1:-5.39135 2:0 
-512 512 512 -842150451:0 1:-5.39135 2:0 
-512 512 512 -842150451:0 1:-5.39135 2:0 
-512 512 512 -842150451:0 1:-5.39135 2:0 
-33.56290253512361 0 0 -842150451:2 1:-0.013237 2:0 
-512 512 512 -842150451:0 1:-5.39135 2:0 
-512 512 512 -842150451:0 1:-5.39135 2:0 
-512 512 512 -842150451:0 1:-5.39135 2:0 
-512 512 512 -842150451:0 1:-5.39135 2:0 
-512 512 512 -842150451:0 1:-5.39135 2:0 
-512 512 512 -842150451:0 1:-5.39135 2:0 
-512 512 512 -842150451:0 1:-5.39135 2:0 
-512 512 512 -842150451:0 1:-5.39135 2:0 
-512 512 512 -842150451:0 1:-5.39135 2:0 
-512 512 512 -842150451:0 1:-5.39135 2:0 
-512 512 512 -842150451:0 1:-5.39135 2:0 
-467.9170417422296 0 0 -842150451:2 1:-0.0111179 2:0 
-512 512 512 -842150451:0 1:-5.39135 2:0 
-512 512 512 -842150451:0 1:-5.39135 2:0 
-512 512 512 -842150451:0 1:-5.39135 2:0 
-512 512 512 -842150451:0 1:-5.39135 2:0 
-512 512 512 -842150451:0 1:-5.39135 2:0 
-512 512 512 -842150451:0 1:-5.39135 2:0 
-512 512 512 -842150451:0 1:-5.39135 2:0 
-512 512 512 -842150451:0 1:-5.39135 2:0 
-512 512 512 -842150451:0 1:-5.39135 2:0 
-512 512 512 -842150451:0 1:-5.39135 2:0 
-14.98331636088433 0 0 -842150451:2 1:-0.0114689 2:0 
-512 512 512 -842150451:0 1:-5.39135 2:0 
-512 0 0 -842150451:1 1:-0.00895309 2:0 
-512 512 512 -842150451:0 1:-5.39135 2:0 
-512 512 512 -842150451:0 1:-5.39135 2:0 
-512 512 512 -842150451:0 1:-5.39135 2:0 
-512 512 512 -842150451:0 1:-5.39135 2:0 
-512 512 512 -842150451:0 1:-5.39135 2:0 
-512 512 512 -842150451:0 1:-5.39135 2:0 
-512 512 512 -842150451:0 1:-5.39135 2:0 
-512 512 512 -842150451:0 1:-5.39135 2:0 
-512 512 512 -842150451:0 1:-5.39135 2:0 
-512 0 0 -842150451:1 1:-0.0154495 2:0 
-512 512 512 -842150451:0 1:-5.39135 2:0 
-512 512 512 -842150451:0 1:-5.39135 2:0 
-512 512 512 -842150451:0 1:-5.39135 2:0 
-512 512 512 -842150451:0 1:-5.39135 2:0 
-512 512 512 -842150451:0 1:-5.39135 2:0 
-512 512 512 -842150451:0 1:-5.39135 2:0 
-512 512 512 -842150451:0 1:-5.39135 2:0 
-512 512 512 -842150451:0 1:-5.39135 2:0 
-512 512 512 -842150451:0 1:-5.39135 2:0 
-512 512 512 -842150451:0 1:-5.39135 2:0 
-512 512 512 -842150451:0 1:-5.39135 2:0 
-512 512 512 -842150451:0 1:-5.39135 2:0 
-512 512 512 -842150451:0 1:-5.39135 2:0 
-512 512 512 -842150451:0 1:-5.39135 2:0 
-512 512 512 -842150451:0 1:-5.39135 2:0 
-512 512 512 -842150451:0 1:-5.39135 2:0 
-512 512 512 -842150451:0 1:-5.39135 2:0 
-512 512 512 -842150451:0 1:-5.39135 2:0 
-512 512 512 -842150451:0 1:-5.39135 2:0 
-512 512 512 -842150451:0 1:-5.39135 2:0 
-512 512 512 -842150451:0 1:-5.39135 2:0 
-512 512 512 -842150451:0 1:-5.39135 2:0 
-512 512 512 -842150451:0 1:-5.39135 2:0 
-512 512 512 -842150451:0 1:-5.39135 2:0 
-512 512 512 -842150451:0 1:-5.39135 2:0 
-512 512 512 -842150451:0 1:-5.39135 2:0 
-512 512 512 -842150451:0 1:-5.39135 2:0 
-512 512 512 -842150451:0 1:-5.39135 2:0 
-512 512 512 -842150451:0 1:-5.39135 2:0 
-512 0 0 -842150451:1 1:-0.0140305 2:0 
-512 512 512 -842150451:0 1:-5.39135 2:0 
-512 512 512 -842150451:0 1:-5.39135 2:0 
-512 512 512 -842150451:0 1:-5.39135 2:0 
-512 512 512 -842150451:0 1:-5.39135 2:0 
-512 512 512 -842150451:0 1:-5.39135 2:0 
-512 512 512 -842150451:0 1:-5.39135 2:0 
-512 512 512 -842150451:0 1:-5.39135 2:0 
-512 512 512 -842150451:0 1:-5.39135 2:0 
-512 512 512 -842150451:0 1:-5.39135 2:0 
-512 512 512 -842150451:0 1:-5.39135 2:0 
-511.1102396800403 511.9627611925791 512 -842150451:0 1:-5.39135 2:0 
-0 -512 0 -842150451:1 1:-0.221851 2:0 
-0 -512 0 -842150451:3 1:-0.246451 2:0 
-512 -512 0 -842150451:0 1:-5.39135 2:0 
-512 -512 0 -842150451:0 1:-5.39135 2:0 
-512 -512 0 -842150451:0 1:-5.39135 2:0 
-512 -512 0 -842150451:0 1:-5.39135 2:0 
-512 -512 0 -842150451:0 1:-5.39135 2:0 
-512 -512 0 -842150451:0 1:-5.39135 2:0 
-512 -512 0 -842150451:0 1:-5.39135 2:0 
-512 -512 0 -842150451:0 1:-5.39135 2:0 
-512 -512 0 -842150451:1 1:-0.517742 2:0 
-512 -512 0 -842150451:0 1:-5.39135 2:0 
-0 -512 0 -842150451:2 1:-0.233469 2:0 
-0 -512 0 -842150451:3 1:-0.275698 2:0 
-0 -236.0610782386118 0 -842150451:4 1:-0.3345 2:0 
-512 -512 0 -842150451:0 1:-5.39135 2:0 
-512 -512 0 -842150451:0 1:-5.39135 2:0 
-512 -512 0 -842150451:0 1:-5.39135 2:0 
-512 -512 0 -842150451:0 1:-5.39135 2:0 
-512 -512 0 -842150451:0 1:-5.39135 2:0 
-512 -512 0 -842150451:0 1:-5.39135 2:0 
