svm_type c_svc
kernel_type rbf
gamma 8
nr_class 2
total_sv 110
rho -0.357654
label 0 1
probA -4.12139
probB 2.00797
nr_sv 56 54
SV
0.5 -842150451:1 1:0.211506 2:0.010505 
0.5 -842150451:1 1:0.210798 2:0.00482159 
0.001447104500351653 -842150451:1 1:0.21344 2:0.00259483 
0.5 -842150451:1 1:0.209364 2:0.00523844 
0.1444675974953871 -842150451:0 1:-11.331 2:-0.1 
0.5 -842150451:0 1:-11.331 2:-0.1 
0.5 -842150451:0 1:-11.331 2:-0.1 
0.5 -842150451:0 1:-11.331 2:-0.1 
0.5 -842150451:0 1:-11.331 2:-0.1 
0.5 -842150451:0 1:-11.331 2:-0.1 
0.5 -842150451:0 1:-11.331 2:-0.1 
0.5 -842150451:0 1:-11.331 2:-0.1 
0.5 -842150451:0 1:-11.331 2:-0.1 
0.5 -842150451:0 1:-11.331 2:-0.1 
0.5 -842150451:0 1:-11.331 2:-0.1 
0.5 -842150451:0 1:-11.331 2:-0.1 
0.5 -842150451:0 1:-11.331 2:-0.1 
0.5 -842150451:0 1:-11.331 2:-0.1 
0.5 -842150451:0 1:-11.331 2:-0.1 
0.5 -842150451:0 1:-11.331 2:-0.1 
0.5 -842150451:0 1:-11.331 2:-0.1 
0.5 -842150451:0 1:-11.331 2:-0.1 
0.5 -842150451:0 1:-11.331 2:-0.1 
0.5 -842150451:0 1:-11.331 2:-0.1 
0.5 -842150451:0 1:-11.331 2:-0.1 
0.5 -842150451:0 1:-11.331 2:-0.1 
0.5 -842150451:0 1:-11.331 2:-0.1 
0.5 -842150451:0 1:-11.331 2:-0.1 
0.5 -842150451:1 1:0.211408 2:0.00425529 
0.5 -842150451:0 1:-11.331 2:-0.1 
0.3151140203180366 -842150451:5 1:0.227633 2:0.00521037 
0.2828454892189335 -842150451:3 1:0.214778 2:0.00493816 
0.5 -842150451:3 1:0.201896 2:0.00456661 
0.5 -842150451:3 1:0.190918 2:0.0044015 
0.2086037064231168 -842150451:4 1:0.213964 2:0.00481578 
0.5 -842150451:4 1:0.203944 2:0.00331524 
0.5 -842150451:4 1:0.211996 2:0.00404188 
0.5 -842150451:4 1:0.2091 2:0.00393758 
0.5 -842150451:4 1:0.209069 2:0.00333583 
0.3288927006857257 -842150451:5 1:0.202025 2:0.0028689 
0.5 -842150451:3 1:0.211905 2:0.00268967 
0.5 -842150451:3 1:0.204124 2:0.00259895 
0.5 -842150451:4 1:0.204358 2:0.00326743 
0.5 -842150451:6 1:0.219466 2:0.002759 
0.5 -842150451:2 1:0.205844 2:0.00364075 
0.5 -842150451:2 1:0.200485 2:0.0058378 
0.5 -842150451:3 1:0.214252 2:0.00384934 
0.1162810982686456 -842150451:2 1:0.206333 2:0.00677519 
0.5 -842150451:2 1:0.200584 2:0.00598783 
0.5 -842150451:0 1:-11.331 2:-0.1 
0.4982283453254438 -842150451:0 1:-11.331 2:-0.1 
0.5 -842150451:2 1:0.201479 2:0.00381695 
0.5 -842150451:1 1:0.205656 2:0.00356988 
0.5 -842150451:2 1:0.197334 2:0.00355817 
0.5 -842150451:2 1:0.196926 2:0.00331486 
0.5 -842150451:1 1:0.212253 2:0.00451068 
-0.5 -842150451:1 1:-0.0036831 2:0.000144915 
-0.4367679268329505 -842150451:1 1:-0.00396909 2:0.000174105 
-0.5 -842150451:0 1:-11.331 2:-0.1 
-0.5 -842150451:0 1:-11.331 2:-0.1 
-0.5 -842150451:1 1:-0.00334183 2:0.000157034 
-0.5 -842150451:0 1:-11.331 2:-0.1 
-0.5 -842150451:1 1:-0.00160744 2:0.00019333 
-0.5 -842150451:0 1:-11.331 2:-0.1 
-0.5 -842150451:0 1:-11.331 2:-0.1 
-0.5 -842150451:1 1:-0.00378671 2:0.00013646 
-0.05562496310135039 -842150451:2 1:-0.00811415 2:0.000132599 
-0.5 -842150451:0 1:-11.331 2:-0.1 
-0.5 -842150451:2 1:-0.00678927 2:0.000115294 
-0.5 -842150451:0 1:-11.331 2:-0.1 
-0.5 -842150451:2 1:-0.00534038 2:0.000104435 
-0.5 -842150451:0 1:-11.331 2:-0.1 
-0.5 -842150451:0 1:-11.331 2:-0.1 
-0.5 -842150451:1 1:-0.00388458 2:0.000132466 
-0.5 -842150451:1 1:-0.00380694 2:0.000111629 
-0.5 -842150451:0 1:-11.331 2:-0.1 
-0.5 -842150451:2 1:-0.00666316 2:0.000122692 
-0.5 -842150451:0 1:-11.331 2:-0.1 
-0.5 -842150451:2 1:-0.00655209 2:0.000121157 
-0.5 -842150451:0 1:-11.331 2:-0.1 
-0.5 -842150451:0 1:-11.331 2:-0.1 
-0.5 -842150451:0 1:-11.331 2:-0.1 
-0.5 -842150451:2 1:-0.00457637 2:0.00012407 
-0.5 -842150451:2 1:-0.0080605 2:0.00010521 
-0.5 -842150451:0 1:-11.331 2:-0.1 
-0.5 -842150451:0 1:-11.331 2:-0.1 
-0.5 -842150451:0 1:-11.331 2:-0.1 
-0.5 -842150451:0 1:-11.331 2:-0.1 
-0.5 -842150451:0 1:-11.331 2:-0.1 
-0.5 -842150451:0 1:-11.331 2:-0.1 
-0.5 -842150451:0 1:-11.331 2:-0.1 
-0.5 -842150451:0 1:-11.331 2:-0.1 
-0.5 -842150451:0 1:-11.331 2:-0.1 
-0.5 -842150451:0 1:-11.331 2:-0.1 
-0.5 -842150451:0 1:-11.331 2:-0.1 
-0.5 -842150451:3 1:-0.012576 2:0.000133784 
-0.5 -842150451:3 1:-0.012491 2:0.000132585 
-0.5 -842150451:2 1:-0.00773192 2:0.000168947 
-0.5 -842150451:3 1:-0.0138178 2:0.000138097 
-0.5 -842150451:3 1:-0.014311 2:0.000167859 
-0.2441672542111618 -842150451:3 1:-0.0145934 2:0.000132414 
-0.5 -842150451:3 1:-0.0137191 2:0.00021501 
-0.5 -842150451:4 1:-0.0152419 2:0.000162067 
-0.5 -842150451:4 1:-0.0166933 2:0.00013737 
-0.5 -842150451:4 1:-0.016213 2:0.000155528 
-0.5 -842150451:4 1:-0.016777 2:0.000221007 
-0.5 -842150451:3 1:-0.0139547 2:0.000198706 
-0.1593199180901783 -842150451:4 1:-0.0174838 2:0.000193822 
-0.5 -842150451:4 1:-0.017426 2:0.000175107 
-0.5 -842150451:4 1:-0.0157358 2:0.000232992 
