svm_type c_svc
kernel_type rbf
gamma 0.00012207
nr_class 3
total_sv 244
rho -646.55 0 0
label 0 1 2
probA -2.12669 -3.94194 -3.41817
probB -0.658243 -1.20738 -2.21151
nr_sv 80 118 46
SV
32768 0 -842150451:2 1:0.0908737 2:0 
32768 0 -842150451:2 1:0.0964832 2:0 
32768 3.266945564979387 -842150451:1 1:0.0965919 2:0 
32768 0 -842150451:2 1:0.136261 2:0 
32768 0 -842150451:2 1:0.09795 2:0 
32768 0 -842150451:1 1:0.10117 2:0 
32768 0 -842150451:3 1:0.17483 2:0 
32768 32768 -842150451:0 1:-54.6075 2:0 
32768 0 -842150451:4 1:0.186314 2:0 
32768 0 -842150451:2 1:0.265123 2:0 
32768 0 -842150451:4 1:0.171577 2:0 
32768 0 -842150451:4 1:0.30223 2:0 
32768 0 -842150451:4 1:0.297743 2:0 
32768 32768 -842150451:0 1:-54.6075 2:0 
32768 0 -842150451:2 1:0.294622 2:0 
32768 32768 -842150451:0 1:-54.6075 2:0 
32768 32768 -842150451:0 1:-54.6075 2:0 
32768 32768 -842150451:0 1:-54.6075 2:0 
32768 0 -842150451:3 1:0.217428 2:0 
32768 0 -842150451:3 1:0.337763 2:0 
32768 0 -842150451:3 1:0.318766 2:0 
32768 0 -842150451:4 1:0.280704 2:0 
32768 0 -842150451:3 1:0.230715 2:0 
32768 0 -842150451:2 1:0.251257 2:0 
32768 32768 -842150451:0 1:-54.6075 2:0 
32768 0 -842150451:2 1:0.334164 2:0 
32768 0 -842150451:3 1:0.207539 2:0 
32768 0 -842150451:1 1:0.275955 2:0 
32768 0 -842150451:1 1:0.241779 2:0 
32768 0 -842150451:1 1:0.183449 2:0 
32768 0 -842150451:1 1:0.303226 2:0 
32768 0 -842150451:1 1:0.316868 2:0 
32768 0 -842150451:2 1:0.327217 2:0 
32768 0 -842150451:2 1:0.308794 2:0 
32768 0 -842150451:2 1:0.310905 2:0 
32768 0 -842150451:2 1:0.316572 2:0 
32768 0 -842150451:2 1:0.313787 2:0 
32768 0 -842150451:1 1:0.321423 2:0 
32768 0 -842150451:2 1:0.287054 2:0 
32768 0 -842150451:1 1:0.296581 2:0 
32768 0 -842150451:2 1:0.304552 2:0 
32768 0 -842150451:3 1:0.305005 2:0 
32768 0 -842150451:3 1:0.333359 2:0 
32768 0 -842150451:2 1:0.302221 2:0 
32768 0 -842150451:3 1:0.302353 2:0 
32768 0 -842150451:1 1:0.301632 2:0 
32768 0 -842150451:1 1:0.297688 2:0 
32768 0 -842150451:1 1:0.303089 2:0 
32768 0 -842150451:2 1:0.289602 2:0 
32768 0 -842150451:2 1:0.290514 2:0 
32768 0 -842150451:2 1:0.294458 2:0 
32768 0 -842150451:3 1:0.340752 2:0 
32768 0 -842150451:2 1:0.329021 2:0 
32768 0 -842150451:2 1:0.326714 2:0 
32768 0 -842150451:1 1:0.31765 2:0 
32768 0 -842150451:1 1:0.314518 2:0 
32768 0 -842150451:3 1:0.318358 2:0 
32768 0 -842150451:2 1:0.323071 2:0 
32768 0 -842150451:2 1:0.318514 2:0 
32768 0 -842150451:1 1:0.315964 2:0 
32768 0 -842150451:1 1:0.314316 2:0 
32768 0 -842150451:2 1:0.310608 2:0 
32768 0 -842150451:2 1:0.316338 2:0 
32768 0 -842150451:2 1:0.324158 2:0 
32768 0 -842150451:2 1:0.313791 2:0 
32768 0 -842150451:2 1:0.318064 2:0 
32768 0 -842150451:1 1:0.298477 2:0 
32768 0 -842150451:2 1:0.295259 2:0 
32768 0 -842150451:1 1:0.285633 2:0 
32768 0 -842150451:1 1:0.299927 2:0 
32768 0 -842150451:3 1:0.337841 2:0 
32768 0 -842150451:2 1:0.326305 2:0 
32768 0 -842150451:3 1:0.330335 2:0 
32768 32768 -842150451:0 1:-54.6075 2:0 
32768 32768 -842150451:0 1:-54.6075 2:0 
32768 32768 -842150451:0 1:-54.6075 2:0 
32768 0 -842150451:4 1:0.32278 2:0 
32768 0 -842150451:2 1:0.322977 2:0 
32768 0 -842150451:4 1:0.32075 2:0 
32768 0 -842150451:3 1:0.327124 2:0 
-32768 0 -842150451:2 1:0.21386 2:0 
-32768 0 -842150451:1 1:0.217533 2:0 
-32768 0 -842150451:1 1:0.21785 2:0 
-32768 0 -842150451:2 1:0.212021 2:0 
-32768 0 -842150451:2 1:0.21283 2:0 
-32768 0 -842150451:3 1:0.219639 2:0 
-32768 0 -842150451:2 1:0.21954 2:0 
-32768 0 -842150451:2 1:0.212965 2:0 
-32768 0 -842150451:1 1:0.220917 2:0 
-32768 0 -842150451:2 1:0.212688 2:0 
-32768 0 -842150451:2 1:0.214821 2:0 
-32768 0 -842150451:1 1:0.209709 2:0 
-32768 0 -842150451:1 1:0.214935 2:0 
-32768 0 -842150451:2 1:0.217468 2:0 
-32768 0 -842150451:2 1:0.213829 2:0 
-32768 0 -842150451:2 1:0.212997 2:0 
-32768 0 -842150451:2 1:0.211349 2:0 
-32768 0 -842150451:1 1:0.214558 2:0 
-32768 0 -842150451:1 1:0.212059 2:0 
-32768 0 -842150451:2 1:0.216578 2:0 
-32768 0 -842150451:1 1:0.212681 2:0 
-32768 0 -842150451:4 1:0.214649 2:0 
-32768 0 -842150451:4 1:0.218797 2:0 
-32768 0 -842150451:2 1:0.21596 2:0 
-32768 0 -842150451:4 1:0.216799 2:0 
-32768 0 -842150451:2 1:0.215027 2:0 
-32768 0 -842150451:4 1:0.218191 2:0 
-32768 0 -842150451:2 1:0.215773 2:0 
-32768 0 -842150451:1 1:0.215492 2:0 
-32768 0 -842150451:1 1:0.210976 2:0 
-19889.282060242 0 -842150451:2 1:0.210932 2:0 
-32768 0 -842150451:2 1:0.217026 2:0 
-32768 0 -842150451:4 1:0.215465 2:0 
-32768 0 -842150451:2 1:0.215296 2:0 
-32768 0 -842150451:4 1:0.216197 2:0 
-32768 0 -842150451:2 1:0.223835 2:0 
-15169.88933907742 0 -842150451:4 1:0.213068 2:0 
-32768 0 -842150451:2 1:0.222597 2:0 
-32768 0 -842150451:4 1:0.21635 2:0 
-32768 0 -842150451:1 1:0.215416 2:0 
-32768 0 -842150451:2 1:0.214472 2:0 
-32768 0 -842150451:1 1:0.21648 2:0 
-32768 0 -842150451:2 1:0.221619 2:0 
-32768 0 -842150451:2 1:0.217722 2:0 
-32768 0 -842150451:2 1:0.2132 2:0 
-32768 0 -842150451:4 1:0.219893 2:0 
-32768 0 -842150451:2 1:0.214569 2:0 
-32768 0 -842150451:4 1:0.218475 2:0 
-32768 0 -842150451:2 1:0.217119 2:0 
-32768 0 -842150451:4 1:0.221966 2:0 
-32768 0 -842150451:2 1:0.211195 2:0 
-32768 0 -842150451:2 1:0.218048 2:0 
-32768 0 -842150451:1 1:0.214306 2:0 
-32768 0 -842150451:2 1:0.219849 2:0 
-32768 0 -842150451:3 1:0.224681 2:0 
-32768 0 -842150451:2 1:0.218126 2:0 
-32768 0 -842150451:4 1:0.219642 2:0 
-32768 0 -842150451:2 1:0.215488 2:0 
-32768 0 -842150451:4 1:0.218707 2:0 
-32768 0 -842150451:2 1:0.217268 2:0 
-32768 0 -842150451:4 1:0.215995 2:0 
-32768 0 -842150451:2 1:0.218498 2:0 
-32768 0 -842150451:1 1:0.198288 2:0 
-32768 0 -842150451:2 1:0.213449 2:0 
-32768 0 -842150451:1 1:0.201954 2:0 
-0 32768 -842150451:0 1:-54.6075 2:0 
-0 32768 -842150451:0 1:-54.6075 2:0 
-0 32768 -842150451:0 1:-54.6075 2:0 
-0 32768 -842150451:0 1:-54.6075 2:0 
-0 32768 -842150451:0 1:-54.6075 2:0 
-0 32768 -842150451:0 1:-54.6075 2:0 
-0 32768 -842150451:0 1:-54.6075 2:0 
-0 32768 -842150451:0 1:-54.6075 2:0 
-0 32768 -842150451:0 1:-54.6075 2:0 
-0 32768 -842150451:0 1:-54.6075 2:0 
-32768 0 -842150451:2 1:0.217981 2:0 
-0 32768 -842150451:0 1:-54.6075 2:0 
-0 32768 -842150451:0 1:-54.6075 2:0 
-0 32768 -842150451:0 1:-54.6075 2:0 
-0 32768 -842150451:0 1:-54.6075 2:0 
-0 32768 -842150451:0 1:-54.6075 2:0 
-32768 0 -842150451:1 1:0.223282 2:0 
-0 32768 -842150451:0 1:-54.6075 2:0 
-0 32768 -842150451:0 1:-54.6075 2:0 
-0 32768 -842150451:0 1:-54.6075 2:0 
-32768 0 -842150451:1 1:0.209412 2:0 
-0 32768 -842150451:0 1:-54.6075 2:0 
-0 32768 -842150451:0 1:-54.6075 2:0 
-0 32768 -842150451:0 1:-54.6075 2:0 
-0 32768 -842150451:0 1:-54.6075 2:0 
-0 32768 -842150451:0 1:-54.6075 2:0 
-32768 0 -842150451:1 1:0.230095 2:0 
-0 32768 -842150451:0 1:-54.6075 2:0 
-0 32768 -842150451:0 1:-54.6075 2:0 
-0 32768 -842150451:0 1:-54.6075 2:0 
-0 32768 -842150451:0 1:-54.6075 2:0 
-0 32768 -842150451:0 1:-54.6075 2:0 
-32768 0 -842150451:1 1:0.201485 2:0 
-0 32768 -842150451:0 1:-54.6075 2:0 
-0 32768 -842150451:0 1:-54.6075 2:0 
-0 32768 -842150451:0 1:-54.6075 2:0 
-0 32768 -842150451:0 1:-54.6075 2:0 
-32768 0 -842150451:1 1:0.202778 2:0 
-0 32768 -842150451:0 1:-54.6075 2:0 
-0 32768 -842150451:0 1:-54.6075 2:0 
-0 32768 -842150451:0 1:-54.6075 2:0 
-0 32768 -842150451:0 1:-54.6075 2:0 
-32768 32768 -842150451:0 1:-54.6075 2:0 
-32768 32768 -842150451:0 1:-54.6075 2:0 
-32768 32768 -842150451:0 1:-54.6075 2:0 
-32768 32768 -842150451:0 1:-54.6075 2:0 
-32768 32768 -842150451:0 1:-54.6075 2:0 
-32768 32768 -842150451:0 1:-54.6075 2:0 
-32768 32768 -842150451:0 1:-54.6075 2:0 
-32768 0 -842150451:2 1:0.212378 2:0 
-32768 32768 -842150451:0 1:-54.6075 2:0 
-30476.82860068072 32768 -842150451:0 1:-54.6075 2:0 
-0 3.277556654680827 -842150451:1 1:-0.0103645 2:0 
-0 -3.277556654680666 -842150451:0 1:-54.6075 2:0 
-0 -32768 -842150451:0 1:-54.6075 2:0 
-0 -32768 -842150451:0 1:-54.6075 2:0 
-0 -32768 -842150451:0 1:-54.6075 2:0 
-0 -32768 -842150451:0 1:-54.6075 2:0 
-0 -32768 -842150451:0 1:-54.6075 2:0 
-0 -32768 -842150451:0 1:-54.6075 2:0 
-0 -32768 -842150451:0 1:-54.6075 2:0 
-0 -32768 -842150451:0 1:-54.6075 2:0 
-0 -32768 -842150451:0 1:-54.6075 2:0 
-0 -32768 -842150451:0 1:-54.6075 2:0 
-0 -32768 -842150451:0 1:-54.6075 2:0 
-0 -32768 -842150451:0 1:-54.6075 2:0 
-0 -32768 -842150451:0 1:-54.6075 2:0 
-0 -32768 -842150451:0 1:-54.6075 2:0 
-0 -32768 -842150451:0 1:-54.6075 2:0 
-0 -32768 -842150451:0 1:-54.6075 2:0 
-0 -32768 -842150451:0 1:-54.6075 2:0 
-0 -32768 -842150451:0 1:-54.6075 2:0 
-0 -32768 -842150451:0 1:-54.6075 2:0 
-0 -32768 -842150451:0 1:-54.6075 2:0 
-0 -32768 -842150451:0 1:-54.6075 2:0 
-0 -32768 -842150451:0 1:-54.6075 2:0 
-0 -32768 -842150451:0 1:-54.6075 2:0 
-0 -32768 -842150451:0 1:-54.6075 2:0 
-0 -32768 -842150451:0 1:-54.6075 2:0 
-0 -32768 -842150451:0 1:-54.6075 2:0 
-0 -32768 -842150451:0 1:-54.6075 2:0 
-0 -32768 -842150451:0 1:-54.6075 2:0 
-0 -32768 -842150451:0 1:-54.6075 2:0 
-0 -32768 -842150451:0 1:-54.6075 2:0 
-0 -32768 -842150451:0 1:-54.6075 2:0 
-0 -32768 -842150451:0 1:-54.6075 2:0 
-0 -32768 -842150451:0 1:-54.6075 2:0 
-0 -32768 -842150451:0 1:-54.6075 2:0 
-0 -32768 -842150451:0 1:-54.6075 2:0 
-3.266945564980049 -32768 -842150451:0 1:-54.6075 2:0 
-32768 -32768 -842150451:0 1:-54.6075 2:0 
-32768 -32768 -842150451:0 1:-54.6075 2:0 
-32768 -32768 -842150451:0 1:-54.6075 2:0 
-32768 -32768 -842150451:0 1:-54.6075 2:0 
-32768 -32768 -842150451:0 1:-54.6075 2:0 
-32768 -32768 -842150451:0 1:-54.6075 2:0 
-32768 -32768 -842150451:0 1:-54.6075 2:0 
-32768 -32768 -842150451:0 1:-54.6075 2:0 
-32768 -32768 -842150451:0 1:-54.6075 2:0 
