svm_type c_svc
kernel_type rbf
gamma 0.00012207
nr_class 5
total_sv 225
rho 38.8499 -3.31306 0 -0.63569 20.2476 -0.000489537 -0.746226 -0.00150035 -1.08974 0.025312
label 0 1 2 3 4
probA -1.98332 -2.09442 -3.46072 -2.76458 -2.29529 -3.98605 -2.87095 -3.96525 -2.52264 -4.9445
probB 0.41496 -0.00190724 -1.96858 -1.55621 -0.459529 -1.61878 -1.95342 -1.86214 -2.0325 0.262934
nr_sv 87 84 27 24 3
SV
0 0 32768 0 -842150451:0 1:-219.253 2:0 
0 0 32768 0 -842150451:0 1:-219.253 2:0 
0 0 32768 0 -842150451:0 1:-219.253 2:0 
0 0 32768 0 -842150451:0 1:-219.253 2:0 
0 0 32768 0 -842150451:0 1:-219.253 2:0 
0 0 32768 0 -842150451:0 1:-219.253 2:0 
0 0 32768 0 -842150451:0 1:-219.253 2:0 
32768 32768 0 0 -842150451:1 1:-0.0340881 2:0 
0 0 32768 0 -842150451:0 1:-219.253 2:0 
0 0 32768 0 -842150451:0 1:-219.253 2:0 
0 0 32768 0 -842150451:0 1:-219.253 2:0 
0 3.497249065361197 32768 0 -842150451:0 1:-219.253 2:0 
0 32768 32768 0 -842150451:0 1:-219.253 2:0 
0 32768 32768 0 -842150451:0 1:-219.253 2:0 
53.82731534247546 32768 32768 0 -842150451:0 1:-219.253 2:0 
32768 32768 32768 0 -842150451:0 1:-219.253 2:0 
32768 32768 0 0 -842150451:1 1:-0.0640869 2:0 
32768 32768 32768 0 -842150451:0 1:-219.253 2:0 
32768 32768 32768 0 -842150451:0 1:-219.253 2:0 
32768 32768 32768 0 -842150451:0 1:-219.253 2:0 
32768 32768 32768 0 -842150451:0 1:-219.253 2:0 
0 0 0 849.1213646760691 -842150451:4 1:0.16317 2:0 
32768 32768 32768 0 -842150451:0 1:-219.253 2:0 
32768 32768 32768 0 -842150451:0 1:-219.253 2:0 
32768 32768 32768 0 -842150451:0 1:-219.253 2:0 
32767.99828070026 32767.69494746752 32768 0.7876898426724319 -842150451:0 1:-219.253 2:0 
32768 0 0 0 -842150451:2 1:0.0878601 2:0 
32768 0 0 0 -842150451:2 1:0.0899963 2:0 
32768 0 0 0 -842150451:2 1:0.0848923 2:0 
32768 0 0 0 -842150451:2 1:0.0856247 2:0 
32768 0 0 0 -842150451:2 1:0.0871429 2:0 
32768 0 0 0 -842150451:1 1:0.0888977 2:0 
32768 0 0 0 -842150451:2 1:0.0860443 2:0 
32768 32768 0 0 -842150451:2 1:0.0823593 2:0 
32768 0 0 0 -842150451:1 1:0.0878448 2:0 
32768 0 0 0 -842150451:1 1:0.0901031 2:0 
32768 0 0 0 -842150451:1 1:0.0856934 2:0 
32768 0 0 0 -842150451:1 1:0.0847473 2:0 
32768 0 0 0 -842150451:1 1:0.0861511 2:0 
32768 0 0 0 -842150451:1 1:0.0844574 2:0 
32768 32768 0 0 -842150451:1 1:0.0832214 2:0 
32768 0 0 0 -842150451:2 1:0.0857391 2:0 
32768 0 0 0 -842150451:2 1:0.0887375 2:0 
32768 0 0 0 -842150451:2 1:0.0876923 2:0 
32768 0 0 0 -842150451:2 1:0.0868759 2:0 
32768 0 0 0 -842150451:2 1:0.0862961 2:0 
32768 32758.66589694625 0 0 -842150451:2 1:0.0840225 2:0 
32768 0 0 0 -842150451:2 1:0.088829 2:0 
32768 0 0 0 -842150451:2 1:0.085495 2:0 
32768 0 0 0 -842150451:1 1:0.0904999 2:0 
17273.02455017935 0 0 0 -842150451:1 1:0.0909882 2:0 
32768 0 0 0 -842150451:1 1:0.086319 2:0 
32768 0 0 0 -842150451:1 1:0.0903473 2:0 
32768 0 0 0 -842150451:1 1:0.0845947 2:0 
32768 32768 0 0 -842150451:1 1:0.0820007 2:0 
32768 0 0 0 -842150451:1 1:0.0900269 2:0 
32768 0 0 0 -842150451:2 1:0.0897369 2:0 
32768 0 0 0 -842150451:2 1:0.101051 2:0 
32768 17799.97571882901 0 0 -842150451:1 1:0.0840607 2:0 
32768 0 0 0 -842150451:2 1:0.0905075 2:0 
32768 0 0 0 -842150451:1 1:0.086792 2:0 
32768 0 0 0 -842150451:2 1:0.0904694 2:0 
32768 0 0 0 -842150451:1 1:0.0865479 2:0 
32768 0 0 0 -842150451:2 1:0.0907898 2:0 
32768 0 0 0 -842150451:2 1:0.0908279 2:0 
32768 0 0 0 -842150451:1 1:0.0881042 2:0 
32768 0 0 0 -842150451:2 1:0.0892639 2:0 
32768 0 0 0 -842150451:1 1:0.0877686 2:0 
32768 0 0 0 -842150451:2 1:0.0858612 2:0 
32768 0 0 0 -842150451:1 1:0.0902863 2:0 
32768 0 0 0 -842150451:2 1:0.0927963 2:0 
32768 32768 0 0 -842150451:1 1:0.0826416 2:0 
32768 0 0 0 -842150451:1 1:0.0859222 2:0 
32768 0 0 0 -842150451:1 1:0.08638 2:0 
32768 0 0 0 -842150451:1 1:0.0860748 2:0 
32768 0 0 0 -842150451:1 1:0.0879059 2:0 
32768 0 0 0 -842150451:1 1:0.0894012 2:0 
32768 0 0 0 -842150451:1 1:0.0894775 2:0 
32768 0 0 0 -842150451:1 1:0.0895538 2:0 
32768 0 0 0 -842150451:1 1:0.089386 2:0 
32768 0 0 0 -842150451:3 1:0.0902354 2:0 
32768 0 0 0 -842150451:1 1:0.0895538 2:0 
32768 0 0 0 -842150451:2 1:0.0895233 2:0 
32768 0 0 0 -842150451:2 1:0.0875397 2:0 
32768 0 0 0 -842150451:3 1:0.0925039 2:0 
32768 0 0 0 -842150451:1 1:0.0883942 2:0 
32768 0 1.002821173650903 0 -842150451:2 1:0.0893173 2:0 
-32768 0 0 0 -842150451:1 1:0.00592041 2:0 
-32768 0 0 0 -842150451:1 1:0.00746155 2:0 
-32768 0 0 0 -842150451:1 1:0.00338745 2:0 
-32768 0 0 0 -842150451:1 1:0.00764465 2:0 
-32768 0 0 0 -842150451:1 1:0.00526428 2:0 
-32768 0 0 0 -842150451:1 1:0.0104065 2:0 
-32768 0 0 0 -842150451:1 1:0.00559998 2:0 
-32768 0 0 0 -842150451:1 1:0.00410461 2:0 
-32768 0 0 0 -842150451:1 1:0.0168457 2:0 
-32768 0 0 0 -842150451:1 1:0.0145721 2:0 
-32768 0 0 0 -842150451:1 1:0.00744629 2:0 
-32768 0 0 0 -842150451:1 1:0.00413513 2:0 
-32768 0 0 0 -842150451:1 1:0.00726318 2:0 
-32768 0 0 0 -842150451:1 1:0.00604248 2:0 
-32768 0 0 0 -842150451:1 1:0.00724792 2:0 
-32768 0 0 0 -842150451:1 1:0.0113678 2:0 
-32768 0 0 0 -842150451:1 1:0.00994873 2:0 
-32768 0 0 0 -842150451:1 1:0.00976563 2:0 
-32768 0 0 0 -842150451:1 1:0.0098877 2:0 
-32768 0 0 0 -842150451:1 1:0.00408936 2:0 
-32768 0 0 0 -842150451:1 1:0.00827026 2:0 
-32768 0 0 0 -842150451:1 1:0.00541687 2:0 
-32768 32768 32768 0 -842150451:0 1:-219.253 2:0 
-32768 0 0 0 -842150451:1 1:0.0177155 2:0 
-32768 0 0 0 -842150451:1 1:0.0135803 2:0 
-32768 0 0 0 -842150451:1 1:0.0169678 2:0 
-32768 0 0 0 -842150451:1 1:0.0102844 2:0 
-32768 0 0 0 -842150451:1 1:0.00978088 2:0 
-32768 0 0 0 -842150451:1 1:0.0149384 2:0 
-32768 0 0 0 -842150451:1 1:0.0117035 2:0 
-32768 0 0 0 -842150451:1 1:0.0117798 2:0 
-32768 0 0 0 -842150451:1 1:0.0139923 2:0 
-32768 0 0 0 -842150451:2 1:0.0241928 2:0 
-32768 0 0 0 -842150451:1 1:0.0135193 2:0 
-32768 0 0 0 -842150451:1 1:0.016922 2:0 
-32768 0 0 0 -842150451:1 1:0.0137939 2:0 
-32768 0 0 0 -842150451:1 1:0.0262909 2:0 
-32768 32768 32768 0 -842150451:0 1:-219.253 2:0 
-32768 32768 32768 0 -842150451:0 1:-219.253 2:0 
-32768 32768 32768 0 -842150451:0 1:-219.253 2:0 
-32768 32768 32768 0 -842150451:0 1:-219.253 2:0 
-0 32768 0 0 -842150451:2 1:-0.111717 2:0 
-0 32768 0 0 -842150451:3 1:-0.108292 2:0 
-0 32768 0 0 -842150451:2 1:-0.114532 2:0 
-32768 32768 32768 0 -842150451:0 1:-219.253 2:0 
-32768 32768 32768 0 -842150451:0 1:-219.253 2:0 
-32768 32768 32768 0 -842150451:0 1:-219.253 2:0 
-0 32768 0 0 -842150451:1 1:-0.116196 2:0 
-0 30642.56143263869 0 0 -842150451:2 1:-0.108749 2:0 
-32768 0 0 0 -842150451:2 1:0.0816422 2:0 
-0 32768 0.505135695202681 0 -842150451:1 1:-0.118469 2:0 
-32768 0 0 0 -842150451:3 1:0.0763702 2:0 
-32768 32768 32768 0.7370953851681523 -842150451:0 1:-219.253 2:0 
-32768 0 0 0 -842150451:2 1:0.0599442 2:0 
-0 32768 0 0 -842150451:1 1:-0.111893 2:0 
-32768 0 0 0 -842150451:2 1:0.0593414 2:0 
-0 32768 0 0 -842150451:2 1:-0.109047 2:0 
-0 32768 0 24.27493390347771 -842150451:3 1:-0.110326 2:0 
-0 8623.476804677455 0.498201512045712 1052.024077100802 -842150451:5 1:-0.0777039 2:0 
-0 32768 0 0 -842150451:1 1:-0.114944 2:0 
-0 32768 0 0 -842150451:2 1:-0.113396 2:0 
-17326.85014622207 0 0 0 -842150451:3 1:0.0398305 2:0 
-32768 0 0 0 -842150451:3 1:0.0583343 2:0 
-32768 0 0 0 -842150451:3 1:0.181452 2:0 
-32768 0 0 0 -842150451:3 1:0.0488637 2:0 
-32768 0 0 0 -842150451:3 1:0.0566457 2:0 
-32768 0 0 0 -842150451:2 1:0.0389404 2:0 
-32768 0 0 0 -842150451:2 1:0.0404663 2:0 
-32768 0 0 0 -842150451:5 1:0.103958 2:0 
-32768 0 0 0 -842150451:3 1:0.0491231 2:0 
-32768 0 0 0 -842150451:2 1:0.0271072 2:0 
-32768 0 0 0 -842150451:1 1:0.00325012 2:0 
-32768 0 0 0 -842150451:2 1:0.132011 2:0 
-32768 0 0 0 -842150451:1 1:0.0134277 2:0 
-32768 0 0 0 -842150451:1 1:0.0119476 2:0 
-32768 0 0 0 -842150451:1 1:0.107971 2:0 
-32768 0 0 0 -842150451:2 1:0.224205 2:0 
-32768 0 0 0 -842150451:1 1:0.00645447 2:0 
-32768 0 0 0 -842150451:1 1:0.03479 2:0 
-32768 0 0 0 -842150451:2 1:0.110146 2:0 
-32768 0 0 0 -842150451:2 1:0.207764 2:0 
-32768 0 0 0 -842150451:1 1:0.0232086 2:0 
-32768 0 0 0 -842150451:3 1:0.0882161 2:0 
-32768 0 0 0 -842150451:2 1:0.121506 2:0 
-0 -32768 0 0 -842150451:5 1:-0.380209 2:0 
-32768 -32768 0 0 -842150451:1 1:-0.0901337 2:0 
-32768 -32768 0 0 -842150451:1 1:-0.111374 2:0 
-32768 -0 32768 0 -842150451:0 1:-219.253 2:0 
-17793.83381230815 -32768 0 0 -842150451:1 1:-0.14212 2:0 
-32768 -32768 0 0 -842150451:1 1:-0.105011 2:0 
-32768 -32768 0 0 -842150451:1 1:-0.0861206 2:0 
-32768 -32768 0 0 -842150451:2 1:-0.0913696 2:0 
-0 -0 0.4945685516811182 355.6421743274736 -842150451:8 1:-0.404112 2:0 
-32768 -32768 0 0 -842150451:1 1:-0.0973206 2:0 
-32768 -32768 0 0 -842150451:2 1:-0.0873108 2:0 
-32768 -0 32768 0 -842150451:0 1:-219.253 2:0 
-0 -32768 0 0 -842150451:2 1:-0.383278 2:0 
-0 -6520.991795661486 0 0 -842150451:6 1:-0.391942 2:0 
-0 -32768 0 0 -842150451:3 1:-0.34938 2:0 
-32768 -0 32768 0 -842150451:0 1:-219.253 2:0 
-32768 -32768 32768 0 -842150451:0 1:-219.253 2:0 
-32768 -32768 32768 0 -842150451:0 1:-219.253 2:0 
-32768 -32768 32768 0 -842150451:0 1:-219.253 2:0 
-32768 -32768 32768 0 -842150451:0 1:-219.253 2:0 
-32768 -32768 32768 0 -842150451:0 1:-219.253 2:0 
-32768 -32768 32768 0 -842150451:0 1:-219.253 2:0 
-0 -0 0 1400.814043280136 -842150451:4 1:-0.757561 2:0 
-0 -0 0.5098562675608003 0 -842150451:1 1:-0.772141 2:0 
-32768 -32768 32768 0 -842150451:0 1:-219.253 2:0 
-32768 -32768 32768 0 -842150451:0 1:-219.253 2:0 
-32768 -32745.04644165467 32768 0.5339027950859334 -842150451:0 1:-219.253 2:0 
-1.002821173649863 -0 -0 0 -842150451:0 1:-219.253 2:0 
-32768 -0 -0 0 -842150451:0 1:-219.253 2:0 
-32768 -0 -0 0 -842150451:0 1:-219.253 2:0 
-32768 -0 -0 0 -842150451:0 1:-219.253 2:0 
-32768 -0 -0 0 -842150451:0 1:-219.253 2:0 
-32768 -0 -0 0 -842150451:0 1:-219.253 2:0 
-32768 -0 -0 0 -842150451:0 1:-219.253 2:0 
-32768 -0 -0 0 -842150451:0 1:-219.253 2:0 
-32768 -0 -0 0 -842150451:0 1:-219.253 2:0 
-32768 -0 -0 0 -842150451:0 1:-219.253 2:0 
-32768 -0 -0 0 -842150451:0 1:-219.253 2:0 
-32768 -0 -1.004424819240752 0 -842150451:0 1:-219.253 2:0 
-32768 -0 -32768 0 -842150451:0 1:-219.253 2:0 
-32768 -0 -32768 0 -842150451:0 1:-219.253 2:0 
-32768 -1.003337207246613 -32768 0 -842150451:0 1:-219.253 2:0 
-32768 -32768 -32768 0 -842150451:0 1:-219.253 2:0 
-32768 -32768 -32768 0 -842150451:0 1:-219.253 2:0 
-32768 -32768 -32768 0 -842150451:0 1:-219.253 2:0 
-32768 -32768 -32768 0 -842150451:0 1:-219.253 2:0 
-32768 -32768 -32768 0 -842150451:0 1:-219.253 2:0 
-32768 -32768 -32768 0 -842150451:0 1:-219.253 2:0 
-32768 -32768 -32768 0 -842150451:0 1:-219.253 2:0 
-32768 -32768 -32768 0 -842150451:0 1:-219.253 2:0 
-32768 -32768 -32768 1.028960714588989 -842150451:0 1:-219.253 2:0 
-0 -0 -0 -0.5170840537102719 -842150451:31 1:-6.18757 2:0 
-684.1296296674882 -1077.036106389448 -1756.990120402696 -0 -842150451:5 1:-2.83741 2:0 
-165.7794248512532 -0 -0 -0.5118766608787175 -842150451:2 1:-3.24216 2:0 
