svm_type c_svc
kernel_type rbf
gamma 2
nr_class 6
total_sv 198
rho 0.0258595 0.0166007 0.644414 1.33653 -0.48492 0.146779 0.57758 0.349724 -0.576783 0.450908 0.258766 -0.602572 -0.590323 -0.811215 -0.706357
label 0 1 2 3 4 5
probA -3.78107 -5.12295 -2.80455 -2.1739 -4.22921 -5.3448 -4.52188 -4.18477 -5.67025 -4.99212 -4.99981 -5.28573 -1.93226 -4.50067 -4.108
probB 0.624608 0.465935 0.76005 0.0420203 -1.29968 -0.0638322 -0.0532394 -0.475167 0.0775625 -0.392021 -0.433736 -0.217994 -0.252536 -0.933879 -1.28839
nr_sv 40 9 8 51 71 19
SV
0 0 8 2.863879169235173 0 -842150451:3 1:0.584405 2:0 
0 0 8 8 0 -842150451:3 1:0.659205 2:0 
0 0 0 8 0 -842150451:2 1:0.662083 2:0 
0 0 0 8 0 -842150451:2 1:0.665898 2:0 
0 0 2.311865144229241 8 0 -842150451:2 1:0.666255 2:0 
0 0.5085744389743223 8 8 0.2582939004412111 -842150451:3 1:0.668284 2:0 
0 0 0 8 0 -842150451:2 1:0.655363 2:0 
0 0 0.2081599753472961 8 0 -842150451:1 1:0.656244 2:0 
0 0 0 8 0 -842150451:1 1:0.65604 2:0 
0 0 0 8 8 -842150451:0 1:-3.46692 2:0 
0 0 0 8 0 -842150451:2 1:0.655329 2:0 
0 0 0 8 0 -842150451:2 1:0.655231 2:0 
0 0.4483222701282403 8 8 0.2274276310076453 -842150451:2 1:0.681485 2:0 
0 0 0 8 0 -842150451:2 1:0.643107 2:0 
0 0 0 8 0 -842150451:2 1:0.619288 2:0 
0 0 0 4.418598435817674 0 -842150451:2 1:0.617237 2:0 
0 0 0 8 0 -842150451:1 1:0.655275 2:0 
0 0.5067078836938855 8 8 0.2567001660301391 -842150451:1 1:0.657106 2:0 
0 0 0 8 0 -842150451:2 1:0.647437 2:0 
0 0 0 8 0 -842150451:1 1:0.655411 2:0 
0 0 0 1.49699859818472 0 -842150451:1 1:0.654243 2:0 
0 0 0 8 8 -842150451:0 1:-3.46692 2:0 
0 0 0 8 8 -842150451:0 1:-3.46692 2:0 
0 0 0 8 8 -842150451:0 1:-3.46692 2:0 
0 0 0 8 8 -842150451:0 1:-3.46692 2:0 
0 0 0 8 8 -842150451:0 1:-3.46692 2:0 
0 0 0 8 8 -842150451:0 1:-3.46692 2:0 
7.605586467814738 0.5185293317304086 3.87824854483016 0 0.2623719937464504 -842150451:3 1:0.311782 2:0 
0 0 0 0.8745005063359412 0 -842150451:2 1:0.319724 2:0 
6.348049414055979 0.4230834317518012 0 8 0.2142210529292059 -842150451:2 1:0.318317 2:0 
8 0.5265375607004343 0 0.7587497323927692 0.2661461973567444 -842150451:1 1:0.292557 2:0 
0 0 1.698394106382709 8 8 -842150451:0 1:-3.46692 2:0 
0 0 8 8 8 -842150451:0 1:-3.46692 2:0 
0 0 8 8 8 -842150451:0 1:-3.46692 2:0 
0 0 8 8 8 -842150451:0 1:-3.46692 2:0 
0 0 8 8 8 -842150451:0 1:-3.46692 2:0 
0 0 8 8 8 -842150451:0 1:-3.46692 2:0 
0 0 8 8 8 -842150451:0 1:-3.46692 2:0 
0 1.025460268026137 8 8 8 -842150451:0 1:-3.46692 2:0 
1.025777162586819 7.997282375708816 7.946090629617196 8 8 -842150451:0 1:-3.46692 2:0 
-8 0.5051483304172072 1.188379613729699 3.114484126285286 0.2028998856897383 -842150451:1 1:0.0687332 2:0 
-0.1029732297874509 0 0 0 0 -842150451:1 1:0.0672684 2:0 
-0.9736336172410116 1.146871509346238 1.57969882009688 1.350116169636885 0.423530412080742 -842150451:5 1:3.7346 2:0 
-6.326216827530935 0.4647271091071014 1.378208735337481 2.640812597307619 0.1729150438634263 -842150451:2 1:0.0653982 2:0 
-7.576589369898139 0.5428880335269004 8 3.088688412254101 0.2012256084007708 -842150451:3 1:0.0609659 2:0 
-0 0.5513459712309481 0 0 0.202318296771466 -842150451:3 1:-0.189739 2:0 
-0 0.4604487844599217 0.036373800365178 0 0.1685152991820335 -842150451:2 1:-0.191333 2:0 
-0 0.6132386537889895 0.4555086686338989 0 0.2051564747699572 -842150451:1 1:-0.205372 2:0 
-0 0 7.582864674467749 0 0 -842150451:3 1:-0.172975 2:0 
-8 -0.8477670371203084 8 8 8 -842150451:0 1:-3.46692 2:0 
-0.665760422590044 -0.5524504225328432 0.9729042678463066 0.8470007499937381 0.2813427163535689 -842150451:1 1:-2.30851 2:0 
-0.3285310703740636 -0.2829560921877408 0.4820096638947571 0.4225628958873555 0.1334608742800015 -842150451:3 1:-2.25751 2:0 
-0.8862802169103392 -0.7687599796717868 1.307761991756235 1.13430877973124 0.3579086940071583 -842150451:4 1:-2.33013 2:0 
-0.4729288799245194 -0.4130343654596327 0.6971975590322009 0.6048686770354314 0.1899159403234798 -842150451:2 1:-2.28566 2:0 
-0.7171280369007766 -0.6504155212435817 1.059028926990868 0.9182351188197092 0.2860269069540563 -842150451:1 1:-1.54763 2:0 
-0.5184412142978636 -0.4523987105724637 0.767863371251753 0.6618418509409039 0.2088319496442729 -842150451:3 1:-1.95478 2:0 
-0.3654277197164391 -0.3168862630889488 0.5411638934100964 0.4685476744125492 0.1478016463472527 -842150451:2 1:-1.93767 2:0 
-8 -0 -0 8 8 -842150451:0 1:-3.46692 2:0 
-8 -0 -0 8 8 -842150451:0 1:-3.46692 2:0 
-0 -0 -0 8 0 -842150451:1 1:1.04069 2:0 
-0 -0 -0 0 0.0334792229094629 -842150451:3 1:1.11687 2:0 
-0 -0 -0 7.593848358884229 0 -842150451:4 1:1.1162 2:0 
-0 -0 -0 1.552666144756453 0 -842150451:2 1:1.05077 2:0 
-0 -0 -0 8 0 -842150451:2 1:1.04761 2:0 
-0 -0 -0 8 0 -842150451:2 1:1.04997 2:0 
-0 -0 -0 8 0 -842150451:4 1:0.96853 2:0 
-0 -0 -0 8 0 -842150451:1 1:0.906431 2:0 
-0 -0 -0 8 0 -842150451:1 1:0.903431 2:0 
-0 -0 -0 8 0 -842150451:1 1:0.902573 2:0 
-7.595089453611466 -0.6931078920698234 -0.4280391424578549 8 0.1474926165531568 -842150451:1 1:0.898972 2:0 
-0 -0 -0 8 0 -842150451:1 1:1.06064 2:0 
-0 -0 -0 8 0 -842150451:2 1:1.04726 2:0 
-0 -0 -0 8 0 -842150451:2 1:1.04618 2:0 
-0 -0 -0 8 0 -842150451:2 1:1.03856 2:0 
-0 -0 -0 8 0 -842150451:2 1:1.04855 2:0 
-0 -0.3002990853523112 -0.2488472307322896 0 0.08604078563094386 -842150451:4 1:1.39459 2:0 
-0 -0.2577664846697313 -0.3720273179114566 0 0.1281791950375009 -842150451:2 1:1.87061 2:0 
-8 -0 -0 8 8 -842150451:0 1:-3.46692 2:0 
-8 -0 -0 8 8 -842150451:0 1:-3.46692 2:0 
-0 -0.2790898035540963 -0.4292133093006692 0 0.147469002719153 -842150451:1 1:1.87984 2:0 
-0 -0.2949592187905041 -0.3806908873784749 0 0.1319219438684308 -842150451:3 1:1.87666 2:0 
-8 -0 -0 8 8 -842150451:0 1:-3.46692 2:0 
-0.3470497526008093 -0.3861545618975249 -0.4997410934598696 0.239280852198129 0.1716933498318237 -842150451:4 1:2.49071 2:0 
-0 -0 -0 7.263029594156557 0 -842150451:1 1:1.09832 2:0 
-0 -0 -0 8 0 -842150451:1 1:1.09706 2:0 
-0 -0 -0 8 0 -842150451:1 1:1.09751 2:0 
-0 -0 -0 0 0.001248392249026777 -842150451:3 1:1.09344 2:0 
-0 -0 -0.1573074571521222 4.508238810481777 0 -842150451:3 1:1.07306 2:0 
-5.152195367275493 -0 -0 8 0 -842150451:3 1:0.877635 2:0 
-0.2299529102393857 -0 -0.2799091943590318 8 0.09586927868983197 -842150451:4 1:0.934572 2:0 
-0 -0 -0 8 0 -842150451:3 1:0.920003 2:0 
-8 -0 -0.234086103398872 8 0.06983686105051598 -842150451:3 1:0.583108 2:0 
-0 -0 -0 8 0 -842150451:2 1:0.887705 2:0 
-8 -0 -0 8 0.02873364767963482 -842150451:3 1:0.860679 2:0 
-1.821756925382723 -0 -0 8 0 -842150451:2 1:0.877463 2:0 
-8 -0.5073068563191797 -0.373405118488445 8 0.1282759190555584 -842150451:2 1:0.875073 2:0 
-8 -8 -0 6.471006032082341 0 -842150451:3 1:0.266538 2:0 
-0.3017054968356414 -0.3749162661894277 -0.4641646216376912 5.121530562870843 0.1596106713513789 -842150451:5 1:0.508661 2:0 
-0 -0 -0 8 0 -842150451:3 1:1.04258 2:0 
-0 -0 -0 8 0 -842150451:3 1:1.03874 2:0 
-0 -0 -0.001992181684718939 8 0 -842150451:3 1:1.0355 2:0 
-0.276768299244516 -0.3267326827510206 -0.4275132682343394 0.0978331887493249 0.1468811129686154 -842150451:6 1:0.256452 2:0 
-0 -0 -0 8 0 -842150451:1 1:0.997637 2:0 
-0 -8 -0.4819257016349508 0 0.1658126986572269 -842150451:3 1:-0.25091 2:0 
-0.3182401952165705 -0.3783550022105987 -0.4911284383951642 0.5205882654948144 0.1689304843750386 -842150451:7 1:0.309707 2:0 
-8 -0 -0 8 8 -842150451:0 1:-3.46692 2:0 
-8 -0 -0.9998835003014802 8 8 -842150451:0 1:-3.46692 2:0 
-8 -0.4223464588266699 -7.558055107654787 8 8 -842150451:0 1:-3.46692 2:0 
-2.586233203853792 -0 -0 -8 0 -842150451:3 1:0.905265 2:0 
-0 -0 -0 -8 0 -842150451:4 1:0.902925 2:0 
-0 -0 -0 -8 0 -842150451:4 1:0.909862 2:0 
-0 -0 -0 -8 0 -842150451:3 1:0.907887 2:0 
-8 -0 -0 -0 0 -842150451:1 1:0.884459 2:0 
-0 -0 -0 -0 8 -842150451:0 1:-3.46692 2:0 
-0 -0 -0 -0 8 -842150451:0 1:-3.46692 2:0 
-8 -0 -0 -0 8 -842150451:0 1:-3.46692 2:0 
-8 -0 -0 -0 8 -842150451:0 1:-3.46692 2:0 
-0 -0 -0 -8 0 -842150451:3 1:0.924379 2:0 
-0 -0 -0 -8 0 -842150451:3 1:0.913852 2:0 
-8 -0 -0 -0 0 -842150451:1 1:0.885899 2:0 
-0 -0 -0 -8 0 -842150451:3 1:0.921666 2:0 
-0 -0 -0.3489263693926133 -8 0.1385405749208142 -842150451:3 1:0.924987 2:0 
-0 -0.1260381347767952 -0.3223391792204964 -8 0.128105411822465 -842150451:4 1:0.929885 2:0 
-8 -0 -0 -0 8 -842150451:0 1:-3.46692 2:0 
-8 -0 -0 -0 0 -842150451:2 1:0.892395 2:0 
-2.663386716720875 -0 -0 -0 0 -842150451:1 1:0.892883 2:0 
-0 -0 -0 -1.353966050384 0 -842150451:2 1:0.926905 2:0 
-5.499566133608543 -0 -0 -0 0 -842150451:2 1:0.8936 2:0 
-8 -0 -0 -0 8 -842150451:0 1:-3.46692 2:0 
-8 -0 -0 -0 0 -842150451:2 1:0.887309 2:0 
-8 -0 -0 -0 8 -842150451:0 1:-3.46692 2:0 
-8 -0 -0 -0 8 -842150451:0 1:-3.46692 2:0 
-8 -0 -0 -0 8 -842150451:0 1:-3.46692 2:0 
-8 -0 -0 -1.595293374954596 8 -842150451:0 1:-3.46692 2:0 
-8 -0 -0 -8 8 -842150451:0 1:-3.46692 2:0 
-8 -0 -0 -8 8 -842150451:0 1:-3.46692 2:0 
-8 -0 -0 -8 8 -842150451:0 1:-3.46692 2:0 
-8 -0 -0 -8 8 -842150451:0 1:-3.46692 2:0 
-8 -0 -0 -8 8 -842150451:0 1:-3.46692 2:0 
-8 -0 -0 -8 8 -842150451:0 1:-3.46692 2:0 
-8 -0 -0.999871646787219 -8 8 -842150451:0 1:-3.46692 2:0 
-0 -0 -0 -8 0 -842150451:2 1:0.932903 2:0 
-7.663540387783067 -0.6502346302510618 -7.748967665365429 -7.994993815114855 8 -842150451:0 1:-3.46692 2:0 
-8 -2.646112068071964 -0.342420406383088 -8 0.135420396775553 -842150451:3 1:0.490285 2:0 
-8 -0 -0 -0 0 -842150451:2 1:0.606169 2:0 
-0 -0.5874134624834448 -0.6586829062716976 -0 0 -842150451:5 1:0.851621 2:0 
-0 -0 -0.4063440641975981 -8 0.1607808167755784 -842150451:1 1:0.970373 2:0 
-0 -0 -0 -8 0 -842150451:1 1:0.964222 2:0 
-0 -0 -0 -8 0 -842150451:1 1:0.961023 2:0 
-8 -2.33897801092456 -0.3463379766108319 -0 0.1372963340049489 -842150451:2 1:0.492105 2:0 
-8 -0 -0 -0 0 -842150451:2 1:0.598882 2:0 
-8 -0 -0 -8 0 -842150451:3 1:0.893055 2:0 
-0 -0 -0 -8 0 -842150451:1 1:0.95969 2:0 
-0 -0 -0 -8 0 -842150451:1 1:0.957645 2:0 
-8 -0 -0 -0 0 -842150451:2 1:0.506182 2:0 
-8 -0 -0 -0 0 -842150451:2 1:0.606507 2:0 
-0 -0.6502346212824881 -0.7410958634546687 -1.630174814209469 0.2931583621117521 -842150451:8 1:0.844183 2:0 
-0 -0 -0 -8 0 -842150451:2 1:0.939839 2:0 
-0 -0 -0 -8 0 -842150451:2 1:0.935686 2:0 
-0 -0 -0 -8 0 -842150451:2 1:0.93532 2:0 
-8 -2.740899716024015 -0.404412320303383 -0 0.1598294433547292 -842150451:1 1:0.496418 2:0 
-8 -0 -0 -0 0 -842150451:1 1:0.601376 2:0 
-0 -0 -0 -5.458414857889287 0.261156101688646 -842150451:5 1:0.847178 2:0 
-0 -0 -0 -8 0 -842150451:1 1:0.961372 2:0 
-8 -0 -0 -0 0 -842150451:2 1:0.499526 2:0 
-8 -0 -0 -0 0 -842150451:2 1:0.579888 2:0 
-0 -0 -0 -8 0 -842150451:1 1:0.961761 2:0 
-0 -0 -0 -8 0 -842150451:1 1:0.957096 2:0 
-0 -0 -0 -8 0 -842150451:2 1:0.950372 2:0 
-0 -0.4541906616695627 -0.3894764011857214 -0 0.1537058125014476 -842150451:4 1:0.463698 2:0 
-8 -0 -0 -0 0 -842150451:2 1:0.599619 2:0 
-0 -0 -0.3484909476481808 -8 0.1381946438732785 -842150451:2 1:0.957175 2:0 
-0 -0 -0 -8 0 -842150451:2 1:0.955759 2:0 
-0 -0 -0 -7.335178897122261 0 -842150451:1 1:0.956083 2:0 
-8 -0 -0 -0 0 -842150451:1 1:0.503082 2:0 
-8 -0 -0 -0 0 -842150451:2 1:0.612176 2:0 
-0 -0 -0 -8 0 -842150451:1 1:0.963455 2:0 
-0 -0 -0 -8 0 -842150451:2 1:0.956868 2:0 
-0 -0 -0 -8 0 -842150451:2 1:0.953286 2:0 
-0 -0 -0 -0 -1.706913069841335 -842150451:0 1:-3.46692 2:0 
-0 -0 -0 -0 -8 -842150451:0 1:-3.46692 2:0 
-1.485160941511396 -0 -0 -0 -8 -842150451:0 1:-3.46692 2:0 
-8 -0 -0 -0 -8 -842150451:0 1:-3.46692 2:0 
-8 -0 -0 -0 -8 -842150451:0 1:-3.46692 2:0 
-8 -0 -0 -0 -8 -842150451:0 1:-3.46692 2:0 
-8 -0 -0 -0 -8 -842150451:0 1:-3.46692 2:0 
-8 -0 -0 -0 -8 -842150451:0 1:-3.46692 2:0 
-8 -0 -0 -0 -8 -842150451:0 1:-3.46692 2:0 
-8 -0 -0 -0 -8 -842150451:0 1:-3.46692 2:0 
-8 -0 -0 -1.813595630551698 -8 -842150451:0 1:-3.46692 2:0 
-8 -0 -0 -8 -8 -842150451:0 1:-3.46692 2:0 
-8 -0 -0 -8 -8 -842150451:0 1:-3.46692 2:0 
-8 -0 -0 -8 -8 -842150451:0 1:-3.46692 2:0 
-8 -0 -0 -8 -8 -842150451:0 1:-3.46692 2:0 
-8 -0 -0 -8 -8 -842150451:0 1:-3.46692 2:0 
-8 -0 -0 -8 -8 -842150451:0 1:-3.46692 2:0 
-8 -0 -1.60528872790979 -8 -8 -842150451:0 1:-3.46692 2:0 
-8 -1.576561020758134 -8 -7.997879552075602 -7.999274827987878 -842150451:0 1:-3.46692 2:0 
