svm_type c_svc
kernel_type rbf
gamma 0.000488281
nr_class 6
total_sv 570
rho -165.093 -174.764 5.8838 -19.2331 -0.00278885 -80.5574 4.81998 -14.7484 -0.00120413 4.90561 -62.5138 -0.00276141 -3.27579 -0.000486652 -0.00827355
label 0 1 2 3 4 5
probA -2.87844 -1.33876 -5.08144 -1.6239 -3.97975 -2.55123 -4.56891 -4.1972 -5.25262 -5.20519 -4.6361 -3.90524 -3.41369 -5.80363 -4.10907
probB 0.112501 -0.496433 1.31119 0.0993963 -1.66116 0.806011 0.407979 -1.33044 -0.35421 1.14526 3.51428 -2.35443 -0.657651 -0.6834 -1.74438
nr_sv 90 76 190 6 66 142
SV
0 0 0 0 0.2984558114098669 -842150451:6 1:0.221098 2:0 
32768 32768 0 0 0 -842150451:1 1:0.0628395 2:0 
0 32768 0 0 32768 -842150451:0 1:-55.7189 2:0 
32768 16705.26851298086 0 0 0 -842150451:1 1:0.0752983 2:0 
32768 32768 0 0 0 -842150451:1 1:0.0669441 2:0 
32768 32768 0 0 0 -842150451:1 1:0.0739594 2:0 
0 32768 0 0 32768 -842150451:0 1:-55.7189 2:0 
0 32768 0 22.66608448247124 32768 -842150451:0 1:-55.7189 2:0 
0 32768 0 32768 32768 -842150451:0 1:-55.7189 2:0 
0 32768 0 32768 32768 -842150451:0 1:-55.7189 2:0 
0 32768 0 32768 32768 -842150451:0 1:-55.7189 2:0 
0 32768 0 32768 32768 -842150451:0 1:-55.7189 2:0 
0 32768 0 32768 32768 -842150451:0 1:-55.7189 2:0 
10634.75160506843 0 0 0 0 -842150451:1 1:0.0771103 2:0 
32768 32768 0 0 0 -842150451:1 1:0.0714607 2:0 
32768 0 0 0 0 -842150451:1 1:0.0758095 2:0 
32768 32768 0 0 0 -842150451:1 1:0.0748863 2:0 
32768 32768 0 0 0 -842150451:2 1:0.075489 2:0 
0 32768 0 32768 32768 -842150451:0 1:-55.7189 2:0 
0 32768 0 32768 32768 -842150451:0 1:-55.7189 2:0 
0 32768 0 32768 32768 -842150451:0 1:-55.7189 2:0 
0 0 574.8193922449088 0 0 -842150451:1 1:0.38607 2:0 
0 32768 0 32768 32768 -842150451:0 1:-55.7189 2:0 
0 32768 0 32768 32768 -842150451:0 1:-55.7189 2:0 
0 32768 0 32768 32768 -842150451:0 1:-55.7189 2:0 
0 32768 0 32768 32768 -842150451:0 1:-55.7189 2:0 
0 32768 0 32768 32768 -842150451:0 1:-55.7189 2:0 
0 32768 0 32768 32768 -842150451:0 1:-55.7189 2:0 
0 32768 0 32768 32768 -842150451:0 1:-55.7189 2:0 
0 32768 0 32768 32768 -842150451:0 1:-55.7189 2:0 
0 32768 0 32768 32768 -842150451:0 1:-55.7189 2:0 
0 32768 0 32768 32768 -842150451:0 1:-55.7189 2:0 
0 32768 0 32768 32768 -842150451:0 1:-55.7189 2:0 
0 32768 0 32768 32768 -842150451:0 1:-55.7189 2:0 
0 32768 0 32768 32768 -842150451:0 1:-55.7189 2:0 
0 32768 0 32768 32768 -842150451:0 1:-55.7189 2:0 
0 32768 0 32768 32768 -842150451:0 1:-55.7189 2:0 
0 32768 0 32768 32768 -842150451:0 1:-55.7189 2:0 
0 32768 0 32768 32768 -842150451:0 1:-55.7189 2:0 
0 32768 0 32768 32768 -842150451:0 1:-55.7189 2:0 
0 32768 0 32768 32768 -842150451:0 1:-55.7189 2:0 
0 32768 0 32768 32768 -842150451:0 1:-55.7189 2:0 
32768 32768 0 0 0 -842150451:1 1:0.0750809 2:0 
32768 32768 0 0 0 -842150451:1 1:0.0729332 2:0 
32768 32768 0 0 0 -842150451:1 1:0.0635529 2:0 
32768 32768 0 0 0 -842150451:1 1:0.00597 2:0 
32768 32768 0 0 0 -842150451:1 1:-0.00696564 2:0 
32768 32768 0 0 0 -842150451:1 1:-0.00632858 2:0 
32768 32768 0 2855.793289754117 0.9841333223406947 -842150451:1 1:-0.0106087 2:0 
32768 32768 0 0 0 -842150451:1 1:-0.00424576 2:0 
32768 32768 0 0 0 -842150451:1 1:0.0044899 2:0 
0 32768 0 32768 32768 -842150451:0 1:-55.7189 2:0 
0 32768 0 32768 32768 -842150451:0 1:-55.7189 2:0 
0 32768 0 32768 32768 -842150451:0 1:-55.7189 2:0 
0 32768 0 32768 32768 -842150451:0 1:-55.7189 2:0 
0 32768 0 32768 32768 -842150451:0 1:-55.7189 2:0 
0 32768 0 32768 32768 -842150451:0 1:-55.7189 2:0 
0 32768 0 32768 32768 -842150451:0 1:-55.7189 2:0 
0 32768 0 32768 32768 -842150451:0 1:-55.7189 2:0 
0 32768 0 32768 32768 -842150451:0 1:-55.7189 2:0 
0 32768 0 32768 32768 -842150451:0 1:-55.7189 2:0 
0 32768 0 32768 32768 -842150451:0 1:-55.7189 2:0 
0 32768 0 32768 32768 -842150451:0 1:-55.7189 2:0 
0 32768 0 32768 32768 -842150451:0 1:-55.7189 2:0 
0 32768 0 32768 32768 -842150451:0 1:-55.7189 2:0 
0 32768 0 32768 32768 -842150451:0 1:-55.7189 2:0 
0 32768 0 32768 32768 -842150451:0 1:-55.7189 2:0 
0 32768 0 32768 32768 -842150451:0 1:-55.7189 2:0 
0 32768 0 32768 32768 -842150451:0 1:-55.7189 2:0 
0 32768 0 32768 32768 -842150451:0 1:-55.7189 2:0 
0 32768 0 32768 32768 -842150451:0 1:-55.7189 2:0 
0 32768 0 32768 32768 -842150451:0 1:-55.7189 2:0 
0 32768 0 32768 32768 -842150451:0 1:-55.7189 2:0 
0 32768 0 32768 32768 -842150451:0 1:-55.7189 2:0 
0 32768 0 32768 32768 -842150451:0 1:-55.7189 2:0 
0 32768 0 32768 32768 -842150451:0 1:-55.7189 2:0 
0 32768 0 32768 32768 -842150451:0 1:-55.7189 2:0 
32768 32768 0 0 0 -842150451:1 1:0.0546303 2:0 
32768 32768 0 0 0 -842150451:1 1:0.0515633 2:0 
0 32768 0 32768 32768 -842150451:0 1:-55.7189 2:0 
0 32768 0 32768 32768 -842150451:0 1:-55.7189 2:0 
0 32768 0 32768 32768 -842150451:0 1:-55.7189 2:0 
32768 32768 0 0 0 -842150451:1 1:0.0586433 2:0 
32768 4291.590258499618 0 792.3166463522529 0 -842150451:4 1:0.0698853 2:0 
32768 32768 0 0 0 -842150451:2 1:0.0606194 2:0 
253.845404285987 32768 0 32768 32768 -842150451:0 1:-55.7189 2:0 
32768 32768 0 32768 32768 -842150451:0 1:-55.7189 2:0 
32768 32768 32761.97203794328 32768 32768 -842150451:0 1:-55.7189 2:0 
32768 32768 32768 32768 32768 -842150451:0 1:-55.7189 2:0 
32768 32768 32766.62975060131 32767.1335162323 32768 -842150451:0 1:-55.7189 2:0 
-0 32768 0 0 0 -842150451:2 1:-0.00748634 2:0 
-0 32768 0 0 0 -842150451:1 1:-0.00599289 2:0 
-32768 0 0 0 0 -842150451:1 1:0.00428391 2:0 
-0 32768 0 0 0 -842150451:1 1:-0.00740814 2:0 
-0 32768 0 0 0 -842150451:1 1:-0.0118027 2:0 
-32768 0 0 0 0 -842150451:1 1:0.00515366 2:0 
-32768 0 0 0 0 -842150451:1 1:0.00415802 2:0 
-0 32768 0 0 0 -842150451:2 1:-0.0058918 2:0 
-32768 0 0 0 0 -842150451:1 1:0.00422668 2:0 
-32768 32768 0 32768 32768 -842150451:0 1:-55.7189 2:0 
-0 32768 0 0 0 -842150451:1 1:-0.00805283 2:0 
-0 32768 0 0 0 -842150451:1 1:-0.0133362 2:0 
-0 32768 0 0 0 -842150451:1 1:-0.00691605 2:0 
-0 32768 0 0 0 -842150451:1 1:-0.00699234 2:0 
-32768 0 0 0 0 -842150451:1 1:0.00877762 2:0 
-0 32768 0 0 0 -842150451:1 1:-0.00980377 2:0 
-0 32768 0 0 0 -842150451:1 1:-0.0059967 2:0 
-0 32768 0 0 0 -842150451:1 1:-0.00815964 2:0 
-0 32768 0 0 0 -842150451:2 1:-0.00819397 2:0 
-32768 32768 32762.39105708745 32768 32768 -842150451:0 1:-55.7189 2:0 
-0 32768 0 0 0 -842150451:1 1:-0.00677872 2:0 
-0 32768 0 0 0 -842150451:1 1:-0.0112915 2:0 
-0 32768 0 0 0 -842150451:2 1:-0.0071373 2:0 
-32768 0 0 0 0 -842150451:1 1:0.00832748 2:0 
-32768 0 0 0 0 -842150451:1 1:0.00624466 2:0 
-3237.695706400465 0 0 0 0 -842150451:1 1:0.00385284 2:0 
-0 32768 0 0 0 -842150451:1 1:-0.00912857 2:0 
-0 32768 0 0 0 -842150451:1 1:-0.0108261 2:0 
-0 32768 0 0 0 -842150451:1 1:-0.0128517 2:0 
-32768 0 0 0 0 -842150451:1 1:0.00550461 2:0 
-0 32768 0 0 0 -842150451:1 1:-0.00959778 2:0 
-32768 0 0 0 0 -842150451:1 1:0.006073 2:0 
-0 32768 0 0 0 -842150451:2 1:-0.00806999 2:0 
-0 32768 0 0 0 -842150451:2 1:-0.00745201 2:0 
-0 32768 0 0 0 -842150451:1 1:-0.00798798 2:0 
-32768 0 0 0 0 -842150451:1 1:0.00648499 2:0 
-32768 0 0 0 0 -842150451:1 1:0.00437546 2:0 
-0 32768 0 0 0 -842150451:2 1:-0.00806999 2:0 
-0 32768 0 0 0 -842150451:1 1:-0.0106163 2:0 
-32768 0 0 0 0 -842150451:1 1:0.0108681 2:0 
-0 32768 0 0 0 -842150451:1 1:-0.00917816 2:0 
-0 32768 0 0 0 -842150451:2 1:-0.00954247 2:0 
-32768 0 0 0 0 -842150451:1 1:0.00606155 2:0 
-0 32768 0 0 0 -842150451:1 1:-0.00809479 2:0 
-0 32768 0 0 0 -842150451:1 1:-0.0100708 2:0 
-32768 0 0 0 0 -842150451:1 1:0.00430679 2:0 
-0 32768 0 0 0 -842150451:2 1:-0.00748825 2:0 
-0 32768 0 0 0 -842150451:2 1:-0.00582123 2:0 
-0 32768 0 0 0 -842150451:1 1:-0.0119209 2:0 
-0 32768 0 0 0 -842150451:2 1:-0.00831413 2:0 
-0 32768 0 0 0 -842150451:1 1:-0.00997925 2:0 
-32768 0 0 0 0 -842150451:1 1:0.0107994 2:0 
-32768 0 352.3103303041022 0 0 -842150451:1 1:0.016346 2:0 
-32768 0 0 0 0 -842150451:1 1:0.00655365 2:0 
-32768 32768 32768 32768 32768 -842150451:0 1:-55.7189 2:0 
-32768 32768 32767.31927664463 32768 32768 -842150451:0 1:-55.7189 2:0 
-0 3627.143293804147 0 0 0 -842150451:3 1:-0.00628408 2:0 
-8117.464784923564 0 0 0 0 -842150451:3 1:0.00645447 2:0 
-0 32768 0 0 0 -842150451:1 1:-0.00848389 2:0 
-0 32768 0 0 0 -842150451:1 1:-0.00986099 2:0 
-32768 0 56.17865328887859 0 0 -842150451:4 1:0.0032053 2:0 
-0 32768 0 0 0 -842150451:1 1:-0.0113754 2:0 
-32768 0 0 0 0 -842150451:1 1:0.00429535 2:0 
-8603.698367220386 0 0 0 0 -842150451:4 1:0.002841 2:0 
-0 32768 0 0 0.8836858540216507 -842150451:1 1:-0.0133629 2:0 
-0 32768 0 0 0 -842150451:1 1:-0.00765991 2:0 
-0 32768 0 0 0 -842150451:3 1:-0.00676854 2:0 
-23697.73815081004 0 0 0 0 -842150451:2 1:0.00685883 2:0 
-0 32768 0 0 0 -842150451:2 1:-0.007164 2:0 
-32768 0 0 0 0 -842150451:1 1:0.00623322 2:0 
-0 27955.58816983275 0 0 0 -842150451:1 1:-0.00601578 2:0 
-0 30319.82470580847 0 1017.595289194606 0.3984897798270394 -842150451:4 1:-0.00767326 2:0 
-0 32768 0 0 0 -842150451:2 1:-0.0103016 2:0 
-32768 0 0 0 0 -842150451:1 1:0.00479507 2:0 
-0 32768 0 2984.150004421832 0 -842150451:2 1:-0.0108757 2:0 
-0 32768 0 0 0 -842150451:1 1:-0.00652313 2:0 
-0 -0 0 0 32768 -842150451:0 1:-55.7189 2:0 
-32768 -32768 0 0 0 -842150451:1 1:-0.00344467 2:0 
-0 -0 0 0 32768 -842150451:0 1:-55.7189 2:0 
-0 -0 0 0 32768 -842150451:0 1:-55.7189 2:0 
-0 -0 0 0 32768 -842150451:0 1:-55.7189 2:0 
-0 -0 0 0 32768 -842150451:0 1:-55.7189 2:0 
-0 -0 0 0 32768 -842150451:0 1:-55.7189 2:0 
-0 -32768 0 0 0 -842150451:1 1:-0.00511169 2:0 
-0 -0 0 0 32768 -842150451:0 1:-55.7189 2:0 
-0 -0 0 0 32768 -842150451:0 1:-55.7189 2:0 
-0 -0 0 0 32768 -842150451:0 1:-55.7189 2:0 
-0 -0 0 0 32768 -842150451:0 1:-55.7189 2:0 
-0 -0 0 0 32768 -842150451:0 1:-55.7189 2:0 
-0 -0 0 0 32768 -842150451:0 1:-55.7189 2:0 
-32768 -32768 0 0 0 -842150451:1 1:0.00169754 2:0 
-0 -0 0 0 32768 -842150451:0 1:-55.7189 2:0 
-0 -32768 0 0 0 -842150451:1 1:-0.0108986 2:0 
-0 -0 0 0 32768 -842150451:0 1:-55.7189 2:0 
-32768 -32768 0 0 0 -842150451:1 1:-0.000984192 2:0 
-0 -0 0 0 32768 -842150451:0 1:-55.7189 2:0 
-32768 -32768 0 0 0 -842150451:1 1:0.00375366 2:0 
-0 -0 0 0 32768 -842150451:0 1:-55.7189 2:0 
-0 -0 0 0 32768 -842150451:0 1:-55.7189 2:0 
-0 -0 0 0 32768 -842150451:0 1:-55.7189 2:0 
-0 -0 0 0 32768 -842150451:0 1:-55.7189 2:0 
-0 -0 0 0 32768 -842150451:0 1:-55.7189 2:0 
-0 -0 0 0 32768 -842150451:0 1:-55.7189 2:0 
-0 -0 0 0 32768 -842150451:0 1:-55.7189 2:0 
-0 -0 0 0 32768 -842150451:0 1:-55.7189 2:0 
-0 -0 0 0 32768 -842150451:0 1:-55.7189 2:0 
-0 -0 0 0 32768 -842150451:0 1:-55.7189 2:0 
-0 -0 0 0 32768 -842150451:0 1:-55.7189 2:0 
-0 -0 0 0 32768 -842150451:0 1:-55.7189 2:0 
-0 -0 0 0 32768 -842150451:0 1:-55.7189 2:0 
-0 -0 0 0 32768 -842150451:0 1:-55.7189 2:0 
-0 -0 0 0 32768 -842150451:0 1:-55.7189 2:0 
-0 -0 0 0 32768 -842150451:0 1:-55.7189 2:0 
-0 -0 0 13831.84725904183 0.9995805281115728 -842150451:1 1:-0.576031 2:0 
-0 -0 0 32495.7672376482 0 -842150451:2 1:-0.547798 2:0 
-0 -0 0 0 32768 -842150451:0 1:-55.7189 2:0 
-0 -0 0 0 32768 -842150451:0 1:-55.7189 2:0 
-0 -0 0 0 32768 -842150451:0 1:-55.7189 2:0 
-0 -0 0 0 32768 -842150451:0 1:-55.7189 2:0 
-0 -0 0 0 32768 -842150451:0 1:-55.7189 2:0 
-0 -0 0 0 32768 -842150451:0 1:-55.7189 2:0 
-0 -0 0 0 32768 -842150451:0 1:-55.7189 2:0 
-0 -0 0 0 32768 -842150451:0 1:-55.7189 2:0 
-0 -0 0 0 32768 -842150451:0 1:-55.7189 2:0 
-0 -0 0 0 32768 -842150451:0 1:-55.7189 2:0 
-0 -0 0 0 32768 -842150451:0 1:-55.7189 2:0 
-0 -0 0 0 32768 -842150451:0 1:-55.7189 2:0 
-0 -0 0 0 32768 -842150451:0 1:-55.7189 2:0 
-0 -0 0 0 32768 -842150451:0 1:-55.7189 2:0 
-0 -0 0 0 32768 -842150451:0 1:-55.7189 2:0 
-0 -0 0 0 32768 -842150451:0 1:-55.7189 2:0 
-0 -32768 0 0 0 -842150451:1 1:-0.130741 2:0 
-0 -0 0 0 32768 -842150451:0 1:-55.7189 2:0 
-0 -0 0 0 32768 -842150451:0 1:-55.7189 2:0 
-0 -0 0 0 32768 -842150451:0 1:-55.7189 2:0 
-0 -0 0 0 32768 -842150451:0 1:-55.7189 2:0 
-0 -0 0 0 32768 -842150451:0 1:-55.7189 2:0 
-0 -0 0 0 32768 -842150451:0 1:-55.7189 2:0 
-32768 -32768 0 0 0 -842150451:1 1:-0.00105667 2:0 
-0 -0 0 0 32768 -842150451:0 1:-55.7189 2:0 
-0 -0 0 0 32768 -842150451:0 1:-55.7189 2:0 
-0 -0 0 0 32768 -842150451:0 1:-55.7189 2:0 
-0 -0 0 0 32768 -842150451:0 1:-55.7189 2:0 
-0 -0 0 0 32768 -842150451:0 1:-55.7189 2:0 
-0 -0 0 0 32768 -842150451:0 1:-55.7189 2:0 
-0 -0 0 0 32768 -842150451:0 1:-55.7189 2:0 
-0 -0 0 0 32768 -842150451:0 1:-55.7189 2:0 
-0 -0 0 0 32768 -842150451:0 1:-55.7189 2:0 
-0 -0 0 0 32768 -842150451:0 1:-55.7189 2:0 
-0 -0 0 0 32768 -842150451:0 1:-55.7189 2:0 
-0 -0 0 0 32768 -842150451:0 1:-55.7189 2:0 
-0 -0 0 0 32768 -842150451:0 1:-55.7189 2:0 
-0 -0 0 0 32768 -842150451:0 1:-55.7189 2:0 
-0 -0 0 0 32768 -842150451:0 1:-55.7189 2:0 
-0 -0 0 0 32768 -842150451:0 1:-55.7189 2:0 
-0 -0 0 0 32768 -842150451:0 1:-55.7189 2:0 
-0 -0 0 0 32768 -842150451:0 1:-55.7189 2:0 
-0 -0 0 0 32768 -842150451:0 1:-55.7189 2:0 
-0 -0 0 0 32768 -842150451:0 1:-55.7189 2:0 
-0 -0 0 0 32768 -842150451:0 1:-55.7189 2:0 
-0 -0 0 0 32768 -842150451:0 1:-55.7189 2:0 
-0 -0 0 0 32768 -842150451:0 1:-55.7189 2:0 
-32768 -0 0 0 32768 -842150451:0 1:-55.7189 2:0 
-32768 -0 0 0 32768 -842150451:0 1:-55.7189 2:0 
-32768 -0 0 83.63570324918479 32768 -842150451:0 1:-55.7189 2:0 
-32768 -0 0 32768 32768 -842150451:0 1:-55.7189 2:0 
-32768 -0 0 32768 32768 -842150451:0 1:-55.7189 2:0 
-32768 -0 0 32768 32768 -842150451:0 1:-55.7189 2:0 
-32768 -0 0 32768 32768 -842150451:0 1:-55.7189 2:0 
-32768 -0 0 32768 32768 -842150451:0 1:-55.7189 2:0 
-32768 -0 0 32768 32768 -842150451:0 1:-55.7189 2:0 
-8172.466186938229 -32768 0 0 0 -842150451:1 1:-0.00445938 2:0 
-32768 -0 0 32768 32768 -842150451:0 1:-55.7189 2:0 
-32768 -0 0 32768 32768 -842150451:0 1:-55.7189 2:0 
-0 -32768 0 0 0 -842150451:2 1:-0.00741196 2:0 
-32768 -0 0 32768 32768 -842150451:0 1:-55.7189 2:0 
-32768 -0 0 32768 32768 -842150451:0 1:-55.7189 2:0 
-32768 -0 0 32768 32768 -842150451:0 1:-55.7189 2:0 
-0 -32768 0 0 0 -842150451:1 1:-0.0192375 2:0 
-32768 -32768 0 0 0 -842150451:1 1:-0.00156784 2:0 
-32768 -0 0 32768 32768 -842150451:0 1:-55.7189 2:0 
-32768 -0 0 32768 32768 -842150451:0 1:-55.7189 2:0 
-32768 -32768 0 0 0 -842150451:1 1:0.000785828 2:0 
-32768 -0 0 32768 32768 -842150451:0 1:-55.7189 2:0 
-32768 -0 0 32768 32768 -842150451:0 1:-55.7189 2:0 
-0 -32768 0 0 0 -842150451:1 1:-0.0292473 2:0 
-32768 -0 0 32768 32768 -842150451:0 1:-55.7189 2:0 
-32768 -0 0 32768 32768 -842150451:0 1:-55.7189 2:0 
-32768 -0 0 32768 32768 -842150451:0 1:-55.7189 2:0 
-0 -32768 0 0 0 -842150451:2 1:-0.0226307 2:0 
-0 -32768 0 0 0 -842150451:3 1:-0.0043246 2:0 
-0 -32768 0 0 0 -842150451:4 1:-0.119865 2:0 
-32768 -32768 0 0 0 -842150451:1 1:-0.00382233 2:0 
-0 -32768 0 0 0 -842150451:1 1:-0.00774002 2:0 
-13032.21459217025 -32768 0 0 0 -842150451:2 1:0.00124168 2:0 
-32768 -0 0 32768 32768 -842150451:0 1:-55.7189 2:0 
-32768 -0 0 32768 32768 -842150451:0 1:-55.7189 2:0 
-32768 -0 0 32768 32768 -842150451:0 1:-55.7189 2:0 
-32768 -0 0 32768 32768 -842150451:0 1:-55.7189 2:0 
-0 -32768 0 0 0 -842150451:2 1:-0.0038414 2:0 
-32768 -0 0 32768 32768 -842150451:0 1:-55.7189 2:0 
-32768 -32768 0 0 0 -842150451:1 1:0.00330353 2:0 
-32768 -0 0 32768 32768 -842150451:0 1:-55.7189 2:0 
-32768 -32768 0 0 0 -842150451:2 1:0.00308609 2:0 
-32768 -32768 406.6654351976491 0 0 -842150451:1 1:0.0114555 2:0 
-32768 -32768 0 0 0 -842150451:1 1:0.00312805 2:0 
-32768 -32768 0 0 0 -842150451:1 1:0.00160599 2:0 
-32768 -32768 0 0 0 -842150451:1 1:-0.00288391 2:0 
-0 -32768 0 0 0 -842150451:2 1:0.000463486 2:0 
-32768 -0 0 32768 32768 -842150451:0 1:-55.7189 2:0 
-32768 -0 0 32768 32768 -842150451:0 1:-55.7189 2:0 
-0 -29283.68462585616 0 0 0 -842150451:1 1:-0.139091 2:0 
-0 -32768 0 0 0 -842150451:2 1:-0.107742 2:0 
-32768 -32768 0 0 0 -842150451:1 1:0.00629807 2:0 
-32768 -32768 0 0 0 -842150451:1 1:0.000595093 2:0 
-32768 -32768 0 0 0 -842150451:2 1:0.00474167 2:0 
-32768 -0 0 32768 32768 -842150451:0 1:-55.7189 2:0 
-32768 -0 0 32768 32768 -842150451:0 1:-55.7189 2:0 
-32768 -0 0 32768 32768 -842150451:0 1:-55.7189 2:0 
-32768 -32768 0 0 0 -842150451:1 1:0.00239944 2:0 
-32768 -0 0 32768 32768 -842150451:0 1:-55.7189 2:0 
-32768 -32768 0 0 0 -842150451:1 1:0.0059166 2:0 
-0 -32768 0 0 0 -842150451:2 1:-0.0102768 2:0 
-0 -32768 0 0 0 -842150451:2 1:-0.00164986 2:0 
-0 -32768 0 0 0 -842150451:1 1:-0.00694656 2:0 
-32768 -0 0 32768 32768 -842150451:0 1:-55.7189 2:0 
-32768 -0 0 32768 32768 -842150451:0 1:-55.7189 2:0 
-32768 -0 0 32768 32768 -842150451:0 1:-55.7189 2:0 
-32768 -0 0 32768 32768 -842150451:0 1:-55.7189 2:0 
-0 -32768 0 0 0 -842150451:2 1:-0.0374966 2:0 
-0 -32768 0 0 0 -842150451:3 1:-0.0390231 2:0 
-32768 -0 0 32768 32768 -842150451:0 1:-55.7189 2:0 
-32768 -0 0 32768 32768 -842150451:0 1:-55.7189 2:0 
-0 -32768 0 0 0 -842150451:2 1:-0.00424004 2:0 
-32768 -0 0 32768 32768 -842150451:0 1:-55.7189 2:0 
-32768 -0 0 32768 32768 -842150451:0 1:-55.7189 2:0 
-32768 -0 0 32768 32768 -842150451:0 1:-55.7189 2:0 
-0 -32768 0 0 0 -842150451:1 1:-0.10075 2:0 
-32768 -0 0 32768 32768 -842150451:0 1:-55.7189 2:0 
-32768 -0 0 32768 32768 -842150451:0 1:-55.7189 2:0 
-32768 -0 0 32768 32768 -842150451:0 1:-55.7189 2:0 
-32768 -0 0 32768 32768 -842150451:0 1:-55.7189 2:0 
-0 -32768 0 0 0 -842150451:1 1:-0.0360336 2:0 
-32768 -0 0 32768 32768 -842150451:0 1:-55.7189 2:0 
-32768 -0 0 32768 32768 -842150451:0 1:-55.7189 2:0 
-0 -32768 0 0 0 -842150451:1 1:-0.0917397 2:0 
-32768 -0 0 32768 32768 -842150451:0 1:-55.7189 2:0 
-0 -32768 0 0 0 -842150451:1 1:-0.0231209 2:0 
-32768 -0 0 32768 32768 -842150451:0 1:-55.7189 2:0 
-32768 -0 0 32768 32768 -842150451:0 1:-55.7189 2:0 
-32768 -0 0 32768 32768 -842150451:0 1:-55.7189 2:0 
-32768 -0 0 32768 32768 -842150451:0 1:-55.7189 2:0 
-32768 -0 0 32768 32768 -842150451:0 1:-55.7189 2:0 
-32768 -0 0 32768 32768 -842150451:0 1:-55.7189 2:0 
-32768 -0 0 32768 32768 -842150451:0 1:-55.7189 2:0 
-32768 -0 0 32768 32768 -842150451:0 1:-55.7189 2:0 
-32768 -0 0 32768 32768 -842150451:0 1:-55.7189 2:0 
-32768 -0 0 32768 32768 -842150451:0 1:-55.7189 2:0 
-32768 -0 0 32768 32768 -842150451:0 1:-55.7189 2:0 
-32768 -0 0 32768 32768 -842150451:0 1:-55.7189 2:0 
-32768 -32768 0 32768 32768 -842150451:0 1:-55.7189 2:0 
-0 -32768 0 0 0 -842150451:1 1:-0.0147438 2:0 
-0 -0 0 0 0.2941797152443694 -842150451:6 1:-0.339155 2:0 
-32768 -32768 32762.4321266094 32768 32768 -842150451:0 1:-55.7189 2:0 
-32768 -32768 32768 32768 32768 -842150451:0 1:-55.7189 2:0 
-32560.17799237199 -32618.87154358912 32767.3794398742 32765.20883460997 32768 -842150451:0 1:-55.7189 2:0 
-0 -0 -0 189.9888980291844 0.3458929324443092 -842150451:3 1:2.36735 2:0 
-567.4211807894957 -236.966666701183 -400.4770016812407 0 0.8928127753024998 -842150451:1 1:2.35723 2:0 
-32768 -32768 -32768 32768 32768 -842150451:0 1:-55.7189 2:0 
-32768 -32768 -32768 32768 32768 -842150451:0 1:-55.7189 2:0 
-32768 -32768 -32768 32768 32768 -842150451:0 1:-55.7189 2:0 
-0 -165.2326506238751 -0 36.1411780479832 0 -842150451:2 1:2.36025 2:0 
-32768 -0 -32768 -0 32768 -842150451:0 1:-55.7189 2:0 
-32768 -0 -32768 -0 32768 -842150451:0 1:-55.7189 2:0 
-32768 -0 -32768 -0 32768 -842150451:0 1:-55.7189 2:0 
-32768 -0 -32768 -0 32768 -842150451:0 1:-55.7189 2:0 
-32768 -0 -32768 -0 32768 -842150451:0 1:-55.7189 2:0 
-32768 -0 -32768 -0 32768 -842150451:0 1:-55.7189 2:0 
-32768 -0 -32768 -0 32768 -842150451:0 1:-55.7189 2:0 
-32768 -0 -32768 -0 32768 -842150451:0 1:-55.7189 2:0 
-32768 -0 -32768 -0 32768 -842150451:0 1:-55.7189 2:0 
-32768 -0 -32768 -0 32768 -842150451:0 1:-55.7189 2:0 
-32768 -0 -32768 -0 32768 -842150451:0 1:-55.7189 2:0 
-32768 -0 -32768 -0 32768 -842150451:0 1:-55.7189 2:0 
-32768 -0 -32768 -0 32768 -842150451:0 1:-55.7189 2:0 
-32768 -0 -32768 -0 32768 -842150451:0 1:-55.7189 2:0 
-32768 -0 -32768 -0 32768 -842150451:0 1:-55.7189 2:0 
-32768 -0 -32768 -0 32768 -842150451:0 1:-55.7189 2:0 
-32768 -0 -32768 -0 32768 -842150451:0 1:-55.7189 2:0 
-32768 -0 -32768 -0 32768 -842150451:0 1:-55.7189 2:0 
-32768 -0 -32768 -0 32768 -842150451:0 1:-55.7189 2:0 
-1202.039214400965 -0 -13640.45903454918 -0 0 -842150451:1 1:-0.800617 2:0 
-32768 -0 -32768 -0 32768 -842150451:0 1:-55.7189 2:0 
-32768 -0 -32768 -0 32768 -842150451:0 1:-55.7189 2:0 
-2467.870322420175 -3730.443353573784 -32768 -202.4668162959616 0 -842150451:2 1:-0.764538 2:0 
-32768 -0 -32768 -0 32768 -842150451:0 1:-55.7189 2:0 
-32768 -0 -32768 -0 32768 -842150451:0 1:-55.7189 2:0 
-32768 -0 -32768 -0 32768 -842150451:0 1:-55.7189 2:0 
-0 -296.7931801701991 -0 -28.56066245421299 0.3750307606906573 -842150451:9 1:-0.792762 2:0 
-32768 -0 -32768 -0 32768 -842150451:0 1:-55.7189 2:0 
-32768 -0 -32768 -0 32768 -842150451:0 1:-55.7189 2:0 
-32768 -0 -32768 -0 32768 -842150451:0 1:-55.7189 2:0 
-32768 -0 -32768 -0 32768 -842150451:0 1:-55.7189 2:0 
-32768 -0 -32768 -0 32768 -842150451:0 1:-55.7189 2:0 
-32768 -0 -32768 -0 32768 -842150451:0 1:-55.7189 2:0 
-32768 -0 -32768 -0 32768 -842150451:0 1:-55.7189 2:0 
-32768 -0 -32768 -0 32768 -842150451:0 1:-55.7189 2:0 
-32768 -0 -32768 -0 32768 -842150451:0 1:-55.7189 2:0 
-32768 -0 -32768 -0 32768 -842150451:0 1:-55.7189 2:0 
-32768 -0 -32768 -0 32768 -842150451:0 1:-55.7189 2:0 
-32768 -0 -32768 -0 32768 -842150451:0 1:-55.7189 2:0 
-32768 -0 -32768 -0 32768 -842150451:0 1:-55.7189 2:0 
-32768 -0 -32768 -0 32768 -842150451:0 1:-55.7189 2:0 
-32768 -0 -32768 -0 32768 -842150451:0 1:-55.7189 2:0 
-32768 -0 -32768 -0 32768 -842150451:0 1:-55.7189 2:0 
-32768 -0 -32768 -0 32768 -842150451:0 1:-55.7189 2:0 
-32768 -0 -32768 -0 32768 -842150451:0 1:-55.7189 2:0 
-32768 -0 -32768 -0 32768 -842150451:0 1:-55.7189 2:0 
-32768 -0 -32768 -0 32768 -842150451:0 1:-55.7189 2:0 
-32768 -0 -32768 -0 32768 -842150451:0 1:-55.7189 2:0 
-32768 -0 -32768 -0 32768 -842150451:0 1:-55.7189 2:0 
-0 -0 -0 -0 0.9337447904592265 -842150451:1 1:-1.13859 2:0 
-32768 -0 -32768 -0 32768 -842150451:0 1:-55.7189 2:0 
-32768 -0 -32768 -0 32768 -842150451:0 1:-55.7189 2:0 
-32768 -0 -32768 -0 32768 -842150451:0 1:-55.7189 2:0 
-32768 -0 -32768 -0 32768 -842150451:0 1:-55.7189 2:0 
-32768 -0 -32768 -0 32768 -842150451:0 1:-55.7189 2:0 
-32768 -0 -32768 -0 32768 -842150451:0 1:-55.7189 2:0 
-32768 -0 -32768 -0 32768 -842150451:0 1:-55.7189 2:0 
-32768 -0 -32768 -0 32768 -842150451:0 1:-55.7189 2:0 
-32768 -0 -32768 -0 32768 -842150451:0 1:-55.7189 2:0 
-32768 -0 -32768 -0 32768 -842150451:0 1:-55.7189 2:0 
-32768 -0 -32768 -0 32768 -842150451:0 1:-55.7189 2:0 
-32768 -0 -32768 -0 32768 -842150451:0 1:-55.7189 2:0 
-32768 -32768 -32768 -0 32768 -842150451:0 1:-55.7189 2:0 
-32768 -32768 -32768 -32768 32768 -842150451:0 1:-55.7189 2:0 
-32768 -32768 -32768 -32768 32768 -842150451:0 1:-55.7189 2:0 
-32768 -32742.50875987245 -32768 -32763.10259732699 32768 -842150451:0 1:-55.7189 2:0 
-0 -0 -1.293760243354277 -0 -0 -842150451:0 1:-55.7189 2:0 
-0 -0 -32768 -0 -0 -842150451:0 1:-55.7189 2:0 
-0 -0 -32768 -0 -0 -842150451:0 1:-55.7189 2:0 
-0 -0 -32768 -0 -0 -842150451:0 1:-55.7189 2:0 
-0 -0 -32768 -0 -0 -842150451:0 1:-55.7189 2:0 
-0 -0 -32768 -0 -0 -842150451:0 1:-55.7189 2:0 
-0 -0 -32768 -0 -0 -842150451:0 1:-55.7189 2:0 
-0 -0 -32768 -0 -0 -842150451:0 1:-55.7189 2:0 
-0 -0 -32768 -0 -0 -842150451:0 1:-55.7189 2:0 
-0 -0 -32768 -0 -0 -842150451:0 1:-55.7189 2:0 
-0 -0 -32768 -0 -0 -842150451:0 1:-55.7189 2:0 
-0 -0 -32768 -0 -0 -842150451:0 1:-55.7189 2:0 
-0 -0 -32768 -0 -0 -842150451:0 1:-55.7189 2:0 
-0 -0 -32768 -0 -0 -842150451:0 1:-55.7189 2:0 
-0 -0 -32768 -0 -0 -842150451:0 1:-55.7189 2:0 
-0 -0 -32768 -0 -0 -842150451:0 1:-55.7189 2:0 
-0 -0 -32768 -0 -0 -842150451:0 1:-55.7189 2:0 
-0 -0 -32768 -0 -0 -842150451:0 1:-55.7189 2:0 
-0 -0 -32768 -0 -0 -842150451:0 1:-55.7189 2:0 
-0 -0 -32768 -0 -0 -842150451:0 1:-55.7189 2:0 
-0 -0 -32768 -0 -0 -842150451:0 1:-55.7189 2:0 
-0 -0 -32768 -0 -0 -842150451:0 1:-55.7189 2:0 
-0 -0 -32768 -0 -0 -842150451:0 1:-55.7189 2:0 
-0 -0 -32768 -0 -0 -842150451:0 1:-55.7189 2:0 
-0 -0 -32768 -0 -0 -842150451:0 1:-55.7189 2:0 
-0 -0 -32768 -0 -0 -842150451:0 1:-55.7189 2:0 
-0 -0 -32768 -0 -0 -842150451:0 1:-55.7189 2:0 
-0 -0 -32768 -0 -0 -842150451:0 1:-55.7189 2:0 
-0 -0 -32768 -0 -0 -842150451:0 1:-55.7189 2:0 
-0 -0 -32768 -0 -0 -842150451:0 1:-55.7189 2:0 
-0 -0 -32768 -0 -0 -842150451:0 1:-55.7189 2:0 
-0 -0 -32768 -0 -0 -842150451:0 1:-55.7189 2:0 
-0 -0 -32768 -0 -0 -842150451:0 1:-55.7189 2:0 
-0 -0 -32768 -0 -0 -842150451:0 1:-55.7189 2:0 
-0 -0 -32768 -0 -0 -842150451:0 1:-55.7189 2:0 
-0 -0 -32768 -0 -0 -842150451:0 1:-55.7189 2:0 
-0 -0 -32768 -0 -0 -842150451:0 1:-55.7189 2:0 
-0 -0 -32768 -0 -0 -842150451:0 1:-55.7189 2:0 
-0 -0 -32768 -0 -0 -842150451:0 1:-55.7189 2:0 
-0 -0 -32768 -0 -0 -842150451:0 1:-55.7189 2:0 
-0 -0 -32768 -0 -0 -842150451:0 1:-55.7189 2:0 
-0 -0 -32768 -0 -0 -842150451:0 1:-55.7189 2:0 
-0 -0 -32768 -0 -0 -842150451:0 1:-55.7189 2:0 
-0 -0 -32768 -0 -0 -842150451:0 1:-55.7189 2:0 
-0 -0 -32768 -0 -0 -842150451:0 1:-55.7189 2:0 
-0 -0 -32768 -0 -0 -842150451:0 1:-55.7189 2:0 
-0 -0 -32768 -0 -0 -842150451:0 1:-55.7189 2:0 
-0 -0 -32768 -0 -0 -842150451:0 1:-55.7189 2:0 
-0 -0 -32768 -0 -0 -842150451:0 1:-55.7189 2:0 
-0 -0 -32768 -0 -0 -842150451:0 1:-55.7189 2:0 
-0 -0 -32768 -0 -0 -842150451:0 1:-55.7189 2:0 
-0 -0 -32768 -0 -0 -842150451:0 1:-55.7189 2:0 
-0 -0 -32768 -0 -0 -842150451:0 1:-55.7189 2:0 
-0 -0 -32768 -0 -0 -842150451:0 1:-55.7189 2:0 
-0 -0 -32768 -0 -0 -842150451:0 1:-55.7189 2:0 
-0 -0 -32768 -0 -0 -842150451:0 1:-55.7189 2:0 
-0 -0 -32768 -0 -0 -842150451:0 1:-55.7189 2:0 
-0 -0 -32768 -0 -0 -842150451:0 1:-55.7189 2:0 
-0 -0 -32768 -0 -0 -842150451:0 1:-55.7189 2:0 
-0 -0 -32768 -0 -0 -842150451:0 1:-55.7189 2:0 
-0 -0 -32768 -0 -0 -842150451:0 1:-55.7189 2:0 
-0 -0 -32768 -0 -0 -842150451:0 1:-55.7189 2:0 
-0 -0 -32768 -0 -0 -842150451:0 1:-55.7189 2:0 
-0 -0 -32768 -0 -0 -842150451:0 1:-55.7189 2:0 
-0 -0 -32768 -0 -0 -842150451:0 1:-55.7189 2:0 
-0 -0 -32768 -0 -0 -842150451:0 1:-55.7189 2:0 
-0 -0 -32768 -0 -0 -842150451:0 1:-55.7189 2:0 
-0 -0 -32768 -0 -0 -842150451:0 1:-55.7189 2:0 
-0 -0 -32768 -0 -0 -842150451:0 1:-55.7189 2:0 
-0 -0 -32768 -0 -0 -842150451:0 1:-55.7189 2:0 
-0 -0 -32768 -0 -0 -842150451:0 1:-55.7189 2:0 
-0 -0 -32768 -0 -0 -842150451:0 1:-55.7189 2:0 
-0 -0 -32768 -0 -0 -842150451:0 1:-55.7189 2:0 
-0 -0 -32768 -0 -0 -842150451:0 1:-55.7189 2:0 
-0 -0 -32768 -0 -0 -842150451:0 1:-55.7189 2:0 
-0 -0 -32768 -0 -0 -842150451:0 1:-55.7189 2:0 
-1.282589133751519 -0 -32768 -0 -0 -842150451:0 1:-55.7189 2:0 
-32768 -0 -32768 -0 -0 -842150451:0 1:-55.7189 2:0 
-32768 -0 -32768 -0 -0 -842150451:0 1:-55.7189 2:0 
-32768 -0 -32768 -0 -1.308775551150788 -842150451:0 1:-55.7189 2:0 
-32768 -0 -32768 -0 -32768 -842150451:0 1:-55.7189 2:0 
-32768 -0 -32768 -0 -32768 -842150451:0 1:-55.7189 2:0 
-32768 -0 -32768 -0 -32768 -842150451:0 1:-55.7189 2:0 
-32768 -0 -32768 -0 -32768 -842150451:0 1:-55.7189 2:0 
-32768 -0 -32768 -0 -32768 -842150451:0 1:-55.7189 2:0 
-32768 -0 -32768 -0 -32768 -842150451:0 1:-55.7189 2:0 
-32768 -0 -32768 -0 -32768 -842150451:0 1:-55.7189 2:0 
-32768 -0 -32768 -0 -32768 -842150451:0 1:-55.7189 2:0 
-32768 -0 -32768 -0 -32768 -842150451:0 1:-55.7189 2:0 
-32768 -0 -32768 -0 -32768 -842150451:0 1:-55.7189 2:0 
-32768 -0 -32768 -0 -32768 -842150451:0 1:-55.7189 2:0 
-32768 -0 -32768 -0 -32768 -842150451:0 1:-55.7189 2:0 
-32768 -0 -32768 -0 -32768 -842150451:0 1:-55.7189 2:0 
-32768 -0 -32768 -0 -32768 -842150451:0 1:-55.7189 2:0 
-32768 -0 -32768 -0 -32768 -842150451:0 1:-55.7189 2:0 
-32768 -0 -32768 -0 -32768 -842150451:0 1:-55.7189 2:0 
-32768 -0 -32768 -0 -32768 -842150451:0 1:-55.7189 2:0 
-32768 -0 -32768 -0 -32768 -842150451:0 1:-55.7189 2:0 
-32768 -0 -32768 -0 -32768 -842150451:0 1:-55.7189 2:0 
-32768 -0 -32768 -0 -32768 -842150451:0 1:-55.7189 2:0 
-32768 -0 -32768 -0 -32768 -842150451:0 1:-55.7189 2:0 
-32768 -0 -32768 -0 -32768 -842150451:0 1:-55.7189 2:0 
-32768 -0 -32768 -0 -32768 -842150451:0 1:-55.7189 2:0 
-32768 -0 -32768 -0 -32768 -842150451:0 1:-55.7189 2:0 
-32768 -0 -32768 -0 -32768 -842150451:0 1:-55.7189 2:0 
-32768 -0 -32768 -0 -32768 -842150451:0 1:-55.7189 2:0 
-32768 -0 -32768 -0 -32768 -842150451:0 1:-55.7189 2:0 
-32768 -0 -32768 -0 -32768 -842150451:0 1:-55.7189 2:0 
-32768 -0 -32768 -0 -32768 -842150451:0 1:-55.7189 2:0 
-32768 -0 -32768 -0 -32768 -842150451:0 1:-55.7189 2:0 
-32768 -0 -32768 -0 -32768 -842150451:0 1:-55.7189 2:0 
-32768 -0 -32768 -0 -32768 -842150451:0 1:-55.7189 2:0 
-32768 -0 -32768 -0 -32768 -842150451:0 1:-55.7189 2:0 
-32768 -0 -32768 -0 -32768 -842150451:0 1:-55.7189 2:0 
-32768 -0 -32768 -0 -32768 -842150451:0 1:-55.7189 2:0 
-32768 -0 -32768 -0 -32768 -842150451:0 1:-55.7189 2:0 
-32768 -0 -32768 -0 -32768 -842150451:0 1:-55.7189 2:0 
-32768 -0 -32768 -0 -32768 -842150451:0 1:-55.7189 2:0 
-32768 -0 -32768 -0 -32768 -842150451:0 1:-55.7189 2:0 
-32768 -0 -32768 -0 -32768 -842150451:0 1:-55.7189 2:0 
-32768 -0 -32768 -0 -32768 -842150451:0 1:-55.7189 2:0 
-32768 -0 -32768 -0 -32768 -842150451:0 1:-55.7189 2:0 
-32768 -0 -32768 -0 -32768 -842150451:0 1:-55.7189 2:0 
-32768 -0 -32768 -0 -32768 -842150451:0 1:-55.7189 2:0 
-32768 -0 -32768 -0 -32768 -842150451:0 1:-55.7189 2:0 
-32768 -0 -32768 -0 -32768 -842150451:0 1:-55.7189 2:0 
-32768 -0 -32768 -0 -32768 -842150451:0 1:-55.7189 2:0 
-32768 -0 -32768 -0 -32768 -842150451:0 1:-55.7189 2:0 
-32768 -0 -32768 -0 -32768 -842150451:0 1:-55.7189 2:0 
-32768 -0 -32768 -0 -32768 -842150451:0 1:-55.7189 2:0 
-32768 -0 -32768 -0 -32768 -842150451:0 1:-55.7189 2:0 
-32768 -0 -32768 -0 -32768 -842150451:0 1:-55.7189 2:0 
-32768 -0 -32768 -0 -32768 -842150451:0 1:-55.7189 2:0 
-32768 -0 -32768 -0 -32768 -842150451:0 1:-55.7189 2:0 
-32768 -0 -32768 -0 -32768 -842150451:0 1:-55.7189 2:0 
-32768 -0 -32768 -0 -32768 -842150451:0 1:-55.7189 2:0 
-32768 -0 -32768 -0 -32768 -842150451:0 1:-55.7189 2:0 
-32768 -1.282175633847233 -32768 -0 -32768 -842150451:0 1:-55.7189 2:0 
-32768 -32768 -32768 -1.238705707745541 -32768 -842150451:0 1:-55.7189 2:0 
-32768 -32768 -32768 -32768 -32768 -842150451:0 1:-55.7189 2:0 
-32768 -32768 -32768 -32768 -32768 -842150451:0 1:-55.7189 2:0 
-32768 -32768 -32768 -32768 -32768 -842150451:0 1:-55.7189 2:0 
