svm_type c_svc
kernel_type rbf
gamma 8
nr_class 2
total_sv 135
rho -0.366376
label 0 1
probA -4.24641
probB 0.107522
nr_sv 69 66
SV
0.5 -842150451:1 1:0.145092 2:0 
0.5 -842150451:3 1:0.149658 2:0 
0.5 -842150451:1 1:0.155064 2:0 
0.5 -842150451:1 1:0.156742 2:0 
0.5 -842150451:1 1:0.158764 2:0 
0.5 -842150451:1 1:0.159172 2:0 
0.3361108983556858 -842150451:1 1:0.166901 2:0 
0.5 -842150451:1 1:0.165424 2:0 
0.5 -842150451:2 1:0.163174 2:0 
0.5 -842150451:1 1:0.143463 2:0 
0.5 -842150451:2 1:0.181042 2:0 
0.5 -842150451:1 1:0.143818 2:0 
0.5 -842150451:3 1:0.177452 2:0 
0.5 -842150451:2 1:0.187376 2:0 
0.5 -842150451:2 1:0.178499 2:0 
0.5 -842150451:3 1:0.188937 2:0 
0.5 -842150451:7 1:1.05795 2:0 
0.5 -842150451:4 1:0.106508 2:0 
0.03251474299887896 -842150451:5 1:0.44304 2:0 
0.5 -842150451:6 1:1.2039 2:0 
0.3918167036544863 -842150451:6 1:0.812085 2:0 
0.5 -842150451:4 1:0.112781 2:0 
0.4701178998132995 -842150451:10 1:0.868019 2:0 
0.4701271828796334 -842150451:10 1:0.504489 2:0 
0.5 -842150451:3 1:0.137783 2:0 
0.5 -842150451:8 1:1.06229 2:0 
0.5 -842150451:8 1:0.585924 2:0 
0.5 -842150451:4 1:0.0962858 2:0 
0.5 -842150451:4 1:0.100733 2:0 
0.4433636000195154 -842150451:7 1:0.58476 2:0 
0.2826189929759987 -842150451:6 1:0.429615 2:0 
0.5 -842150451:7 1:0.1453 2:0 
0.5 -842150451:4 1:0.0944881 2:0 
0.5 -842150451:4 1:0.0764465 2:0 
0.04055851391892574 -842150451:8 1:0.617229 2:0 
0.5 -842150451:4 1:-0.0850077 2:0 
0.5 -842150451:6 1:0.0240822 2:0 
0.5 -842150451:4 1:0.0993071 2:0 
0.04206290269499235 -842150451:4 1:0.114389 2:0 
0.5 -842150451:4 1:0.100971 2:0 
0.5 -842150451:4 1:0.106936 2:0 
0.5 -842150451:4 1:0.10673 2:0 
0.5 -842150451:5 1:-0.0237595 2:0 
0.5 -842150451:4 1:0.00623798 2:0 
0.5 -842150451:5 1:0.0559502 2:0 
0.5 -842150451:5 1:0.0978073 2:0 
0.5 -842150451:4 1:0.0978918 2:0 
0.5 -842150451:4 1:0.0956249 2:0 
0.5 -842150451:5 1:0.100557 2:0 
0.5 -842150451:4 1:0.104097 2:0 
0.5 -842150451:6 1:-0.0621732 2:0 
0.5 -842150451:5 1:0.110032 2:0 
0.5 -842150451:4 1:0.093133 2:0 
0.5 -842150451:3 1:0.194032 2:0 
0.5 -842150451:3 1:0.0495288 2:0 
0.5 -842150451:5 1:0.04664 2:0 
0.5 -842150451:4 1:0.111871 2:0 
0.1907403057087453 -842150451:5 1:0.114628 2:0 
0.5 -842150451:4 1:0.0171375 2:0 
0.5 -842150451:4 1:0.107579 2:0 
0.1686261470088152 -842150451:6 1:0.115442 2:0 
0.5 -842150451:3 1:0.141599 2:0 
0.06185838563299928 -842150451:2 1:0.290413 2:0 
0.5 -842150451:1 1:0.102718 2:0 
0.5 -842150451:2 1:0.109688 2:0 
0.5 -842150451:1 1:0.13438 2:0 
0.5 -842150451:2 1:0.134781 2:0 
0.1346909373470543 -842150451:0 1:-33.9416 2:0 
0.4988949223846639 -842150451:0 1:-33.9416 2:0 
-0.5 -842150451:1 1:0.000648499 2:0 
-0.5 -842150451:4 1:0.00591469 2:0 
-0.5 -842150451:1 1:0.0058136 2:0 
-0.5 -842150451:1 1:0.00786209 2:0 
-0.5 -842150451:1 1:0.00537109 2:0 
-0.5 -842150451:4 1:0.00734806 2:0 
-0.5 -842150451:1 1:0.00804138 2:0 
-0.5 -842150451:1 1:0.0109177 2:0 
-0.5 -842150451:4 1:0.00809479 2:0 
-0.5 -842150451:1 1:0.00654984 2:0 
-0.5 -842150451:3 1:0.0102158 2:0 
-0.5 -842150451:3 1:0.0103353 2:0 
-0.5 -842150451:1 1:0.00939941 2:0 
-0.5 -842150451:4 1:0.0092535 2:0 
-0.1843491310280264 -842150451:3 1:0.00996145 2:0 
-0.5 -842150451:1 1:0.00653458 2:0 
-0.5 -842150451:3 1:0.0105158 2:0 
-0.5 -842150451:1 1:0.00483704 2:0 
-0.5 -842150451:4 1:-0.00544071 2:0 
-0.5 -842150451:6 1:-0.162361 2:0 
-0.5 -842150451:6 1:-0.171794 2:0 
-0.188419888970647 -842150451:1 1:-0.378681 2:0 
-0.02033953173735927 -842150451:2 1:-0.367865 2:0 
-0.5 -842150451:2 1:-0.370872 2:0 
-0.5 -842150451:5 1:-0.295247 2:0 
-0.2611794107407652 -842150451:4 1:-0.0450535 2:0 
-0.5 -842150451:5 1:-0.04645 2:0 
-0.5 -842150451:5 1:-0.0459358 2:0 
-0.5 -842150451:5 1:-0.0475723 2:0 
-0.5 -842150451:4 1:-0.0445986 2:0 
-0.5 -842150451:4 1:-0.0446949 2:0 
-0.5 -842150451:4 1:-0.0447168 2:0 
-0.5 -842150451:4 1:-0.00680447 2:0 
-0.5 -842150451:4 1:-0.0066967 2:0 
-0.5 -842150451:4 1:-0.00520706 2:0 
-0.5 -842150451:4 1:-0.00297928 2:0 
-0.5 -842150451:1 1:-0.00214005 2:0 
-0.2382021597885535 -842150451:1 1:-0.00421524 2:0 
-0.5 -842150451:5 1:-0.00194321 2:0 
-0.5 -842150451:4 1:-0.0039072 2:0 
-0.5 -842150451:4 1:-0.00204086 2:0 
-0.5 -842150451:4 1:0.00771999 2:0 
-0.5 -842150451:4 1:0.00887489 2:0 
-0.5 -842150451:4 1:0.00839424 2:0 
-0.5 -842150451:4 1:0.00808048 2:0 
-0.5 -842150451:5 1:0.00728531 2:0 
-0.5 -842150451:4 1:0.00997353 2:0 
-0.2440491489876393 -842150451:2 1:0.0111523 2:0 
-0.5 -842150451:3 1:0.0105972 2:0 
-0.5 -842150451:2 1:0.0111732 2:0 
-0.5 -842150451:3 1:0.0101814 2:0 
-0.5 -842150451:3 1:0.0102743 2:0 
-0.5 -842150451:3 1:0.0107778 2:0 
-0.5 -842150451:2 1:0.0115032 2:0 
-0.5 -842150451:3 1:0.0101446 2:0 
-0.5 -842150451:8 1:-0.17945 2:0 
-0.5 -842150451:2 1:0.0134315 2:0 
-0.4275628641407032 -842150451:3 1:-0.358304 2:0 
-0.5 -842150451:9 1:-0.187238 2:0 
-0.5 -842150451:2 1:0.0128841 2:0 
-0.5 -842150451:5 1:-0.211221 2:0 
-0.5 -842150451:11 1:-0.222555 2:0 
-0.5 -842150451:2 1:0.01264 2:0 
-0.5 -842150451:8 1:-0.198636 2:0 
-0.5 -842150451:2 1:0.0124149 2:0 
-0.5 -842150451:2 1:0.0117435 2:0 
