svm_type c_svc
kernel_type rbf
gamma 8
nr_class 4
total_sv 591
rho 0.696732 1.57519 -0.55196 9.23662 -0.812942 -0.87574
label 0 1 2 3
probA -2.97369 -2.29181 -2.68006 -0.96398 -5.224 -5.30554
probB -1.01031 -0.522357 -2.54336 -0.0105931 0.00765179 -0.0764857
nr_sv 188 130 110 163
SV
0 0 512 -842150451:0 1:-1.49463 2:0 
0 0 0.2969230882174049 -842150451:1 1:-0.708237 2:0 
0 0 512 -842150451:0 1:-1.49463 2:0 
0 0 512 -842150451:0 1:-1.49463 2:0 
0 0 512 -842150451:0 1:-1.49463 2:0 
0 0 512 -842150451:0 1:-1.49463 2:0 
387.8123667975875 -0 0 -842150451:1 1:-0.754196 2:0 
0 0 512 -842150451:0 1:-1.49463 2:0 
0 0 512 -842150451:0 1:-1.49463 2:0 
512 0 0 -842150451:1 1:-0.786087 2:0 
0 0 512 -842150451:0 1:-1.49463 2:0 
0 0 512 -842150451:0 1:-1.49463 2:0 
512 0 0 -842150451:1 1:-0.810654 2:0 
0 0 512 -842150451:0 1:-1.49463 2:0 
0 0 512 -842150451:0 1:-1.49463 2:0 
512 0 0 -842150451:1 1:-0.832382 2:0 
0 0 512 -842150451:0 1:-1.49463 2:0 
0 0 512 -842150451:0 1:-1.49463 2:0 
512 0 0 -842150451:1 1:-0.845474 2:0 
0 0 512 -842150451:0 1:-1.49463 2:0 
512 512 0.244056092197354 -842150451:3 1:-0.838791 2:0 
512 0 0 -842150451:1 1:-0.857529 2:0 
151.9497091526959 511.9543529023018 0 -842150451:3 1:-0.826528 2:0 
0 0 512 -842150451:0 1:-1.49463 2:0 
512 0 0 -842150451:1 1:-0.883148 2:0 
0 0 512 -842150451:0 1:-1.49463 2:0 
0 0 512 -842150451:0 1:-1.49463 2:0 
512 0 0 -842150451:1 1:-0.881821 2:0 
0 0 512 -842150451:0 1:-1.49463 2:0 
0 0 512 -842150451:0 1:-1.49463 2:0 
512 512 0.2335414047580601 -842150451:2 1:-0.890846 2:0 
0 0 512 -842150451:0 1:-1.49463 2:0 
0 0 512 -842150451:0 1:-1.49463 2:0 
512 0 0 -842150451:1 1:-0.892044 2:0 
0 0 512 -842150451:0 1:-1.49463 2:0 
0 0 512 -842150451:0 1:-1.49463 2:0 
512 0 0 -842150451:1 1:-0.911774 2:0 
0 0 512 -842150451:0 1:-1.49463 2:0 
0 0 512 -842150451:0 1:-1.49463 2:0 
512 0 0 -842150451:1 1:-0.909531 2:0 
0 0 512 -842150451:0 1:-1.49463 2:0 
0 0 512 -842150451:0 1:-1.49463 2:0 
512 512 0 -842150451:1 1:-0.923264 2:0 
0 0 512 -842150451:0 1:-1.49463 2:0 
0 0 512 -842150451:0 1:-1.49463 2:0 
512 512 0 -842150451:2 1:-0.933708 2:0 
0 0 512 -842150451:0 1:-1.49463 2:0 
512 512 0 -842150451:1 1:-0.924225 2:0 
512 0 0 -842150451:1 1:-0.897354 2:0 
0 0 512 -842150451:0 1:-1.49463 2:0 
0 0 512 -842150451:0 1:-1.49463 2:0 
0 0 512 -842150451:0 1:-1.49463 2:0 
0 0 512 -842150451:0 1:-1.49463 2:0 
0 0 512 -842150451:0 1:-1.49463 2:0 
0 0 512 -842150451:0 1:-1.49463 2:0 
0 0 512 -842150451:0 1:-1.49463 2:0 
0 0 512 -842150451:0 1:-1.49463 2:0 
0 0 512 -842150451:0 1:-1.49463 2:0 
78.37468980771956 0 0.245165377273009 -842150451:3 1:-0.687225 2:0 
0 0 512 -842150451:0 1:-1.49463 2:0 
0 0 512 -842150451:0 1:-1.49463 2:0 
0 0 512 -842150451:0 1:-1.49463 2:0 
0 0 512 -842150451:0 1:-1.49463 2:0 
0 0 512 -842150451:0 1:-1.49463 2:0 
0 0 512 -842150451:0 1:-1.49463 2:0 
0 0 512 -842150451:0 1:-1.49463 2:0 
0 0 512 -842150451:0 1:-1.49463 2:0 
0 0 512 -842150451:0 1:-1.49463 2:0 
0 0 512 -842150451:0 1:-1.49463 2:0 
0 0 512 -842150451:0 1:-1.49463 2:0 
0 0 512 -842150451:0 1:-1.49463 2:0 
0 0 512 -842150451:0 1:-1.49463 2:0 
0 0 512 -842150451:0 1:-1.49463 2:0 
0 0 512 -842150451:0 1:-1.49463 2:0 
0 0 512 -842150451:0 1:-1.49463 2:0 
0 0 512 -842150451:0 1:-1.49463 2:0 
0 0 512 -842150451:0 1:-1.49463 2:0 
0 0 512 -842150451:0 1:-1.49463 2:0 
0 0 512 -842150451:0 1:-1.49463 2:0 
0 0 512 -842150451:0 1:-1.49463 2:0 
0 0 512 -842150451:0 1:-1.49463 2:0 
0 0 512 -842150451:0 1:-1.49463 2:0 
0 0 512 -842150451:0 1:-1.49463 2:0 
0 0 512 -842150451:0 1:-1.49463 2:0 
0 0 512 -842150451:0 1:-1.49463 2:0 
0 0 512 -842150451:0 1:-1.49463 2:0 
0 0 512 -842150451:0 1:-1.49463 2:0 
0 0 512 -842150451:0 1:-1.49463 2:0 
0 0 512 -842150451:0 1:-1.49463 2:0 
0 0 512 -842150451:0 1:-1.49463 2:0 
0 0 512 -842150451:0 1:-1.49463 2:0 
0 0 512 -842150451:0 1:-1.49463 2:0 
0 0 512 -842150451:0 1:-1.49463 2:0 
0 0 512 -842150451:0 1:-1.49463 2:0 
0 0 512 -842150451:0 1:-1.49463 2:0 
0 0 512 -842150451:0 1:-1.49463 2:0 
0 0 512 -842150451:0 1:-1.49463 2:0 
0 0 512 -842150451:0 1:-1.49463 2:0 
0 0 512 -842150451:0 1:-1.49463 2:0 
0 0 512 -842150451:0 1:-1.49463 2:0 
0 0 512 -842150451:0 1:-1.49463 2:0 
0 0 512 -842150451:0 1:-1.49463 2:0 
0 0 512 -842150451:0 1:-1.49463 2:0 
0 0 512 -842150451:0 1:-1.49463 2:0 
0 0 512 -842150451:0 1:-1.49463 2:0 
0 0 512 -842150451:0 1:-1.49463 2:0 
0 0 512 -842150451:0 1:-1.49463 2:0 
512 512 0.2352207190216983 -842150451:2 1:-0.999023 2:0 
512 512 0.29696254196635 -842150451:1 1:-0.999451 2:0 
512 512 0 -842150451:2 1:-0.995293 2:0 
512 143.4033763336978 0 -842150451:1 1:-0.919113 2:0 
512 512 0 -842150451:2 1:-0.918655 2:0 
512 121.9966393543222 0 -842150451:2 1:-0.916573 2:0 
0 0 512 -842150451:0 1:-1.49463 2:0 
0 0 512 -842150451:0 1:-1.49463 2:0 
0 0 512 -842150451:0 1:-1.49463 2:0 
0 0 512 -842150451:0 1:-1.49463 2:0 
0 0 512 -842150451:0 1:-1.49463 2:0 
0 0 512 -842150451:0 1:-1.49463 2:0 
0 0 512 -842150451:0 1:-1.49463 2:0 
0 0 512 -842150451:0 1:-1.49463 2:0 
0 0 512 -842150451:0 1:-1.49463 2:0 
0 0 512 -842150451:0 1:-1.49463 2:0 
0 0 512 -842150451:0 1:-1.49463 2:0 
0 0 512 -842150451:0 1:-1.49463 2:0 
0 0 512 -842150451:0 1:-1.49463 2:0 
0 0 512 -842150451:0 1:-1.49463 2:0 
0 0 512 -842150451:0 1:-1.49463 2:0 
0 0 512 -842150451:0 1:-1.49463 2:0 
0 0 512 -842150451:0 1:-1.49463 2:0 
0 0 512 -842150451:0 1:-1.49463 2:0 
0 0 512 -842150451:0 1:-1.49463 2:0 
0 0 512 -842150451:0 1:-1.49463 2:0 
0 0 512 -842150451:0 1:-1.49463 2:0 
0 0 512 -842150451:0 1:-1.49463 2:0 
0 0 512 -842150451:0 1:-1.49463 2:0 
0 0 512 -842150451:0 1:-1.49463 2:0 
0 0 512 -842150451:0 1:-1.49463 2:0 
0 0 512 -842150451:0 1:-1.49463 2:0 
0 0 512 -842150451:0 1:-1.49463 2:0 
0 0 512 -842150451:0 1:-1.49463 2:0 
0 0 512 -842150451:0 1:-1.49463 2:0 
0 0 512 -842150451:0 1:-1.49463 2:0 
0 0 512 -842150451:0 1:-1.49463 2:0 
0 0 512 -842150451:0 1:-1.49463 2:0 
0 0 512 -842150451:0 1:-1.49463 2:0 
0 0 512 -842150451:0 1:-1.49463 2:0 
0 0 512 -842150451:0 1:-1.49463 2:0 
0 0 512 -842150451:0 1:-1.49463 2:0 
0 0 512 -842150451:0 1:-1.49463 2:0 
0 0 512 -842150451:0 1:-1.49463 2:0 
0 0 512 -842150451:0 1:-1.49463 2:0 
0 0 512 -842150451:0 1:-1.49463 2:0 
0 0 512 -842150451:0 1:-1.49463 2:0 
0 0 512 -842150451:0 1:-1.49463 2:0 
0 0 512 -842150451:0 1:-1.49463 2:0 
0 0 512 -842150451:0 1:-1.49463 2:0 
0 0 512 -842150451:0 1:-1.49463 2:0 
0 0 512 -842150451:0 1:-1.49463 2:0 
0 0 512 -842150451:0 1:-1.49463 2:0 
0 0 512 -842150451:0 1:-1.49463 2:0 
0 0 512 -842150451:0 1:-1.49463 2:0 
0 0 512 -842150451:0 1:-1.49463 2:0 
0 0 512 -842150451:0 1:-1.49463 2:0 
0 0 512 -842150451:0 1:-1.49463 2:0 
0 0 512 -842150451:0 1:-1.49463 2:0 
0 0 512 -842150451:0 1:-1.49463 2:0 
0 0 512 -842150451:0 1:-1.49463 2:0 
0 0 512 -842150451:0 1:-1.49463 2:0 
0 0 512 -842150451:0 1:-1.49463 2:0 
0 0 512 -842150451:0 1:-1.49463 2:0 
0 0 512 -842150451:0 1:-1.49463 2:0 
0 0 512 -842150451:0 1:-1.49463 2:0 
0 0 512 -842150451:0 1:-1.49463 2:0 
0 0 512 -842150451:0 1:-1.49463 2:0 
0 0 512 -842150451:0 1:-1.49463 2:0 
0 0 512 -842150451:0 1:-1.49463 2:0 
0 0 512 -842150451:0 1:-1.49463 2:0 
0 0 512 -842150451:0 1:-1.49463 2:0 
0 0 512 -842150451:0 1:-1.49463 2:0 
0 0 512 -842150451:0 1:-1.49463 2:0 
0 0 512 -842150451:0 1:-1.49463 2:0 
0 0 512 -842150451:0 1:-1.49463 2:0 
0 0 512 -842150451:0 1:-1.49463 2:0 
0 0 512 -842150451:0 1:-1.49463 2:0 
0 0 512 -842150451:0 1:-1.49463 2:0 
0 0 512 -842150451:0 1:-1.49463 2:0 
1.696884587651643 2.575319626200898 512 -842150451:0 1:-1.49463 2:0 
-0 512 0 -842150451:1 1:-0.00947571 2:0 
-0.2870451156736257 512 0.138255850940128 -842150451:2 1:-0.00711823 2:0 
-0 512 0.1262816179383927 -842150451:1 1:-0.00289917 2:0 
-0 489.109886184246 0 -842150451:2 1:-0.00959015 2:0 
-0 512 0 -842150451:1 1:-0.00309753 2:0 
-0 0 0.1255346364677023 -842150451:3 1:-0.00258891 2:0 
-0 512 0 -842150451:2 1:-0.0147095 2:0 
-0 512 0 -842150451:2 1:-0.00978851 2:0 
-0 512 0 -842150451:1 1:-0.00733948 2:0 
-0 512 0 -842150451:2 1:-0.00862122 2:0 
-0 512 0 -842150451:1 1:-0.00534058 2:0 
-0.1583794278597078 5.997903726082887 0.0995992865759775 -842150451:4 1:-0.0109482 2:0 
-0 512 0 -842150451:2 1:-0.00733185 2:0 
-0 363.4222006025248 0 -842150451:1 1:-0.0106201 2:0 
-0 512 0 -842150451:2 1:-0.0115433 2:0 
-0 512 0 -842150451:1 1:-0.008255 2:0 
-0 512 0 -842150451:2 1:-0.0145264 2:0 
-0 512 0 -842150451:2 1:-0.0119019 2:0 
-0 512 0 -842150451:2 1:-0.0160904 2:0 
-0 512 0 -842150451:2 1:-0.0196381 2:0 
-0 512 0 -842150451:2 1:-0.015625 2:0 
-0 512 0 -842150451:2 1:-0.0217209 2:0 
-0 512 0 -842150451:2 1:-0.0193558 2:0 
-0 512 0 -842150451:2 1:-0.0185013 2:0 
-0 512 0 -842150451:2 1:-0.011322 2:0 
-0 512 0 -842150451:2 1:-0.0221786 2:0 
-0 512 0 -842150451:2 1:-0.0179367 2:0 
-0 512 0 -842150451:3 1:-0.0233307 2:0 
-0 512 0 -842150451:3 1:-0.024882 2:0 
-0 512 0 -842150451:2 1:-0.0183716 2:0 
-0 512 0 -842150451:2 1:-0.0235825 2:0 
-0 512 0 -842150451:2 1:-0.0237885 2:0 
-0 512 0 -842150451:2 1:-0.024559 2:0 
-0 120.2138787832434 0 -842150451:1 1:-0.0240631 2:0 
-0 512 0 -842150451:2 1:-0.0226974 2:0 
-0 512 0 -842150451:1 1:-0.0274048 2:0 
-0 512 0 -842150451:2 1:-0.0235443 2:0 
-0 512 0 -842150451:1 1:-0.0242157 2:0 
-0.1449959509822237 4.229601935964861 0.08779414985373668 -842150451:4 1:-0.026432 2:0 
-0 512 0 -842150451:2 1:-0.0255356 2:0 
-0 512 0.04748453789643996 -842150451:2 1:-0.0307083 2:0 
-1.707973147214758 512 0.05981217278515314 -842150451:1 1:-0.0278778 2:0 
-0 512 0 -842150451:2 1:-0.0246658 2:0 
-0.6944299120373898 512 0.06092256521758638 -842150451:3 1:-0.0276438 2:0 
-0 70.64791021448623 0 -842150451:3 1:-0.0227407 2:0 
-512 512 0.1403606999633627 -842150451:3 1:-0.786479 2:0 
-0 512 0.1423307805107507 -842150451:2 1:-0.779564 2:0 
-0 512 0 -842150451:2 1:-0.78817 2:0 
-512 0 0 -842150451:1 1:-0.799377 2:0 
-0 94.49220790035646 0 -842150451:2 1:-0.799217 2:0 
-512 185.9047812418597 0.1374023716294388 -842150451:1 1:-0.795746 2:0 
-512 0 0 -842150451:1 1:-0.823013 2:0 
-512 0 0 -842150451:1 1:-0.835602 2:0 
-512 0 0 -842150451:1 1:-0.831055 2:0 
-512 0 0 -842150451:1 1:-0.842133 2:0 
-512 0 0 -842150451:1 1:-0.862625 2:0 
-512 0 0 -842150451:1 1:-0.863419 2:0 
-512 0 0 -842150451:1 1:-0.875793 2:0 
-512 0 0 -842150451:2 1:-0.887192 2:0 
-512 0 0 -842150451:1 1:-0.887466 2:0 
-134.1034519047142 0 0 -842150451:2 1:-0.884041 2:0 
-0 512 0 -842150451:3 1:-0.913366 2:0 
-235.2818081055155 512 0 -842150451:3 1:-0.907476 2:0 
-0 512 0 -842150451:3 1:-0.9086 2:0 
-435.1139408548748 0 0 -842150451:1 1:-0.923416 2:0 
-512 0 0 -842150451:2 1:-0.924187 2:0 
-512 0 0 -842150451:1 1:-0.923065 2:0 
-141.3331141809188 0 0 -842150451:1 1:-0.939529 2:0 
-78.86609606865125 0 0 -842150451:2 1:-0.938454 2:0 
-0 512 0 -842150451:2 1:-0.950333 2:0 
-512 0 0 -842150451:1 1:-0.949707 2:0 
-0 139.4265906783634 0 -842150451:2 1:-0.947929 2:0 
-512 0 0 -842150451:1 1:-0.957581 2:0 
-0 512 0 -842150451:2 1:-0.955383 2:0 
-512 0 0 -842150451:1 1:-0.954041 2:0 
-0 512 0 -842150451:2 1:-0.972435 2:0 
-316.047408713994 0 0 -842150451:1 1:-0.966476 2:0 
-0 512 0 -842150451:2 1:-0.968651 2:0 
-0 512 0 -842150451:1 1:-0.980606 2:0 
-0 512 0 -842150451:2 1:-0.980255 2:0 
-0 421.2112273340546 0 -842150451:1 1:-0.976639 2:0 
-0 512 0 -842150451:3 1:-0.989894 2:0 
-0 512 0 -842150451:3 1:-0.990331 2:0 
-0 77.55448917813938 0 -842150451:3 1:-0.983897 2:0 
-37.07268008187925 0 0 -842150451:2 1:-1.0061 2:0 
-0 512 0 -842150451:1 1:-1.00522 2:0 
-512 0 0 -842150451:2 1:-1.00025 2:0 
-0 512 0 -842150451:1 1:-1.0083 2:0 
-0 512 0 -842150451:1 1:-1.00383 2:0 
-0 512 0 -842150451:1 1:-1.02017 2:0 
-0.1750470717948861 109.8585317484666 0.1103645428996351 -842150451:4 1:-1.17012 2:0 
-0 512 0.1431884034448955 -842150451:3 1:-1.16686 2:0 
-0 512 0 -842150451:3 1:-1.16461 2:0 
-0 512 0.1437194642726097 -842150451:2 1:-1.16737 2:0 
-0 512 0 -842150451:2 1:-1.16647 2:0 
-0 512 0.1392632186282816 -842150451:1 1:-1.15933 2:0 
-0 512 0 -842150451:2 1:-1.15618 2:0 
-0 512 0 -842150451:2 1:-1.15218 2:0 
-0 512 0 -842150451:1 1:-1.15115 2:0 
-0 512 0 -842150451:2 1:-1.14816 2:0 
-0 512 0 -842150451:3 1:-1.14242 2:0 
-0 252.7484072237785 0 -842150451:4 1:-1.13926 2:0 
-0 512 0 -842150451:3 1:-1.13574 2:0 
-0 512 0 -842150451:2 1:-1.13204 2:0 
-0 512 0 -842150451:4 1:-1.13025 2:0 
-0 512 0 -842150451:3 1:-1.12877 2:0 
-0 512 0 -842150451:3 1:-1.12431 2:0 
-0 512 0 -842150451:1 1:-1.12299 2:0 
-0 512 0 -842150451:2 1:-1.1195 2:0 
-0 59.250675004317 0 -842150451:3 1:-1.11475 2:0 
-0 512 0 -842150451:2 1:-1.10448 2:0 
-0 512 0 -842150451:1 1:-1.10376 2:0 
-0 512 0 -842150451:2 1:-1.10186 2:0 
-0 147.8651959609651 0 -842150451:4 1:-1.0937 2:0 
-33.18719730382454 512 0 -842150451:2 1:-1.06622 2:0 
-0 512 0 -842150451:2 1:-1.06507 2:0 
-0 512 0 -842150451:1 1:-1.06316 2:0 
-2.099273806368682 153.6451624485101 0 -842150451:2 1:-1.03675 2:0 
-0 512 0 -842150451:1 1:-1.03809 2:0 
-0 492.0081436866232 0 -842150451:3 1:-1.02502 2:0 
-0 60.09450212200213 0 -842150451:3 1:-1.02831 2:0 
-0 512 0 -842150451:3 1:-1.00186 2:0 
-0 512 0 -842150451:3 1:-1.00356 2:0 
-37.74652945894535 442.5163736161291 0 -842150451:2 1:-0.992912 2:0 
-0 512 0 -842150451:1 1:-0.9897 2:0 
-235.7363137503039 512 0 -842150451:2 1:-0.988243 2:0 
-0 402.73725843724 0 -842150451:3 1:-0.952774 2:0 
-0.1813308243774219 17.40936258989714 0.110596891799332 -842150451:4 1:-0.95509 2:0 
-465.8966346657246 0 0 -842150451:2 1:-0.941093 2:0 
-512 0 0 -842150451:2 1:-0.93689 2:0 
-512 -512 0.08837903274324072 -842150451:1 1:-0.918472 2:0 
-0 -512 0 -842150451:1 1:-1.02881 2:0 
-0 -67.11250289725061 0 -842150451:1 1:-1.13483 2:0 
-512 -512 0 -842150451:2 1:-0.948402 2:0 
-0 -512 0 -842150451:2 1:-1.02867 2:0 
-0 -512 0 -842150451:2 1:-1.1242 2:0 
-512 -512 0 -842150451:1 1:-0.93985 2:0 
-0 -512 0 -842150451:2 1:-1.03688 2:0 
-0 -512 0 -842150451:1 1:-1.12932 2:0 
-0 -512 0 -842150451:3 1:-0.976161 2:0 
-0 -512 0 -842150451:2 1:-1.08252 2:0 
-512 -512 0 -842150451:1 1:-0.969482 2:0 
-0 -512 0 -842150451:1 1:-1.05345 2:0 
-0 -512 0 -842150451:3 1:-1.15808 2:0 
-32.35837483904588 -512 0 -842150451:2 1:-1.01214 2:0 
-0 -512 0 -842150451:1 1:-1.10353 2:0 
-130.8838931292406 -512 0 -842150451:1 1:-0.995895 2:0 
-0 -512 0 -842150451:3 1:-1.08664 2:0 
-512 -512 0 -842150451:2 1:-1.00555 2:0 
-0 -512 0 -842150451:1 1:-1.12215 2:0 
-0 -512 0 -842150451:3 1:-1.02912 2:0 
-0 -512 0 -842150451:2 1:-1.10361 2:0 
-0 -512 0 -842150451:2 1:-1.18115 2:0 
-0 -512 0 -842150451:1 1:-1.01663 2:0 
-0 -512 0 -842150451:1 1:-1.10753 2:0 
-0 -512 0 -842150451:2 1:-1.1766 2:0 
-0 -512 0 -842150451:1 1:-1.02835 2:0 
-0 -512 0 -842150451:2 1:-1.09953 2:0 
-0 -0 0.1241918405628412 -842150451:8 1:-0.619215 2:0 
-0 -512 0.06213664386511014 -842150451:4 1:-1.11676 2:0 
-0 -0 0.08608945223835576 -842150451:7 1:-0.375318 2:0 
-0 -0 0.08593040677153746 -842150451:7 1:-0.693403 2:0 
-0 -0 0.124047332013743 -842150451:11 1:-0.400135 2:0 
-0 -0 0.1244516077182322 -842150451:6 1:-0.930364 2:0 
-0 -512 0 -842150451:1 1:0.00619507 2:0 
-0 -0 0.1241769627754364 -842150451:9 1:-0.540012 2:0 
-0 -0 0.08812527844469206 -842150451:2 1:0.101738 2:0 
-0 -512 0 -842150451:2 1:-0.0152588 2:0 
-0 -512 0 -842150451:1 1:0.0388336 2:0 
-0 -412.6853621154922 0 -842150451:2 1:-0.054245 2:0 
-0 -512 0 -842150451:2 1:-0.021698 2:0 
-0 -512 0 -842150451:1 1:-0.0362091 2:0 
-0 -512 0 -842150451:2 1:-0.0451965 2:0 
-0 -512 0 -842150451:2 1:-0.0262375 2:0 
-0 -512 0 -842150451:2 1:-0.0440903 2:0 
-0 -512 0 -842150451:2 1:-0.0226059 2:0 
-0 -512 0 -842150451:2 1:-0.031517 2:0 
-0 -0 0.08413378095464627 -842150451:1 1:0.107803 2:0 
-0 -512 0 -842150451:2 1:-0.00749207 2:0 
-0 -512 0 -842150451:2 1:-0.0299683 2:0 
-0 -512 0 -842150451:3 1:-0.0548096 2:0 
-0 -512 0 -842150451:1 1:-0.0158539 2:0 
-0 -512 0 -842150451:2 1:-0.0364761 2:0 
-0 -512 0 -842150451:1 1:-0.0512848 2:0 
-0 -512 0 -842150451:2 1:-0.0472641 2:0 
-0 -512 0 -842150451:2 1:-0.0394363 2:0 
-0 -512 0 -842150451:1 1:-0.0321655 2:0 
-0 -512 0 -842150451:3 1:-0.0370941 2:0 
-0 -129.7664816109431 0 -842150451:2 1:0.0345764 2:0 
-0 -512 0 -842150451:1 1:0.0201721 2:0 
-0 -512 0 -842150451:2 1:-0.0241394 2:0 
-0 -512 0 -842150451:2 1:0.0296631 2:0 
-0 -512 0 -842150451:1 1:-0.0664673 2:0 
-0 -512 0 -842150451:2 1:-0.0336304 2:0 
-0 -512 0 -842150451:1 1:0.0160522 2:0 
-0 -512 0 -842150451:2 1:-0.0432816 2:0 
-0 -512 0 -842150451:2 1:0.00899506 2:0 
-0.2345661897320306 -0 0.08137772853512151 -842150451:1 1:-0.188919 2:0 
-0 -512 0 -842150451:2 1:0.0258942 2:0 
-0 -512 0 -842150451:2 1:0.00414276 2:0 
-0 -512 0 -842150451:2 1:-0.0509872 2:0 
-0 -512 0 -842150451:2 1:-0.00601959 2:0 
-0 -512 0 -842150451:1 1:-0.00947571 2:0 
-0 -76.1980021867641 0 -842150451:3 1:-0.0817108 2:0 
-0 -512 0 -842150451:2 1:-0.00177002 2:0 
-0 -512 0 -842150451:2 1:0.00576782 2:0 
-0 -512 0 -842150451:2 1:0.0282822 2:0 
-0 -512 0 -842150451:2 1:-0.0227814 2:0 
-0 -512 0 -842150451:2 1:0.00402832 2:0 
-0 -0 0.06417367017469468 -842150451:3 1:-0.186203 2:0 
-0 -512 0.07880185075659782 -842150451:3 1:0.0222117 2:0 
-0 -0 0.07403133725237003 -842150451:2 1:-0.196968 2:0 
-0 -0 0.1088936433644991 -842150451:3 1:-1.31147 2:0 
-0 -0 0.1113009283608932 -842150451:2 1:-1.29551 2:0 
-5.519619076612477 -0.3015530326384258 0.09200342339733905 -842150451:1 1:-1.26874 2:0 
-0 -54.72456788244543 0 -842150451:3 1:-1.26281 2:0 
-0 -512 0 -842150451:3 1:-1.20433 2:0 
-0 -512 0 -842150451:2 1:-1.16891 2:0 
-0 -297.5558208917173 0 -842150451:2 1:-1.19199 2:0 
-0 -512 0 -842150451:3 1:-1.14404 2:0 
-0 -512 0.0621357369592471 -842150451:4 1:-1.14151 2:0 
-0 -512 0 -842150451:1 1:-1.12576 2:0 
-0 -512 0 -842150451:3 1:-1.12194 2:0 
-0 -512 0 -842150451:2 1:-1.0957 2:0 
-0 -512 0 -842150451:2 1:-1.12324 2:0 
-0 -512 0 -842150451:3 1:-1.07446 2:0 
-0 -512 0 -842150451:3 1:-1.04809 2:0 
-0 -512 0 -842150451:2 1:-1.05206 2:0 
-0 -512 0 -842150451:3 1:-1.00493 2:0 
-0 -512 0 -842150451:3 1:-1.02412 2:0 
-0 -512 0 -842150451:3 1:-0.990178 2:0 
-512 -512 0 -842150451:2 1:-0.95224 2:0 
-512 -512 0 -842150451:2 1:-0.965477 2:0 
-0 -512 0 -842150451:3 1:-0.927958 2:0 
-0 -512 0 -842150451:3 1:-0.88618 2:0 
-512 -512 0 -842150451:2 1:-0.87838 2:0 
-512 -512 0 -842150451:3 1:-0.853099 2:0 
-98.93323498189162 -512 0 -842150451:2 1:-0.807419 2:0 
-512 -512 0.1056103889771307 -842150451:3 1:-0.817251 2:0 
-0 -512 0.1060474761753801 -842150451:2 1:-0.780296 2:0 
-1.551869223433875 -0 -0 -842150451:0 1:-1.49463 2:0 
-512 -0 -0 -842150451:0 1:-1.49463 2:0 
-512 -0 -0 -842150451:0 1:-1.49463 2:0 
-512 -0 -0 -842150451:0 1:-1.49463 2:0 
-512 -0 -0 -842150451:0 1:-1.49463 2:0 
-512 -0 -0 -842150451:0 1:-1.49463 2:0 
-512 -0 -0 -842150451:0 1:-1.49463 2:0 
-512 -0 -0 -842150451:0 1:-1.49463 2:0 
-512 -0 -0 -842150451:0 1:-1.49463 2:0 
-512 -0 -0 -842150451:0 1:-1.49463 2:0 
-512 -0 -0 -842150451:0 1:-1.49463 2:0 
-512 -0 -0 -842150451:0 1:-1.49463 2:0 
-512 -0 -0 -842150451:0 1:-1.49463 2:0 
-512 -0 -0 -842150451:0 1:-1.49463 2:0 
-512 -0 -0 -842150451:0 1:-1.49463 2:0 
-512 -0 -0 -842150451:0 1:-1.49463 2:0 
-512 -0 -0 -842150451:0 1:-1.49463 2:0 
-512 -0 -0 -842150451:0 1:-1.49463 2:0 
-512 -0 -0 -842150451:0 1:-1.49463 2:0 
-512 -0 -0 -842150451:0 1:-1.49463 2:0 
-512 -0 -0 -842150451:0 1:-1.49463 2:0 
-512 -0 -0 -842150451:0 1:-1.49463 2:0 
-512 -0 -0 -842150451:0 1:-1.49463 2:0 
-512 -0 -0 -842150451:0 1:-1.49463 2:0 
-512 -0 -0 -842150451:0 1:-1.49463 2:0 
-512 -0 -0 -842150451:0 1:-1.49463 2:0 
-512 -0 -0 -842150451:0 1:-1.49463 2:0 
-512 -0 -0 -842150451:0 1:-1.49463 2:0 
-512 -0 -0 -842150451:0 1:-1.49463 2:0 
-512 -0 -0 -842150451:0 1:-1.49463 2:0 
-512 -0 -0 -842150451:0 1:-1.49463 2:0 
-512 -0 -0 -842150451:0 1:-1.49463 2:0 
-512 -0 -0 -842150451:0 1:-1.49463 2:0 
-512 -0 -0 -842150451:0 1:-1.49463 2:0 
-512 -0 -0 -842150451:0 1:-1.49463 2:0 
-512 -0 -0 -842150451:0 1:-1.49463 2:0 
-512 -0 -0 -842150451:0 1:-1.49463 2:0 
-512 -0 -0 -842150451:0 1:-1.49463 2:0 
-512 -0 -0 -842150451:0 1:-1.49463 2:0 
-512 -0 -0 -842150451:0 1:-1.49463 2:0 
-512 -0 -0 -842150451:0 1:-1.49463 2:0 
-512 -0 -0 -842150451:0 1:-1.49463 2:0 
-512 -0 -0 -842150451:0 1:-1.49463 2:0 
-512 -0 -0 -842150451:0 1:-1.49463 2:0 
-512 -0 -0 -842150451:0 1:-1.49463 2:0 
-512 -0 -0 -842150451:0 1:-1.49463 2:0 
-512 -0 -0 -842150451:0 1:-1.49463 2:0 
-512 -0 -0 -842150451:0 1:-1.49463 2:0 
-512 -0 -0 -842150451:0 1:-1.49463 2:0 
-512 -0 -0 -842150451:0 1:-1.49463 2:0 
-512 -0 -0 -842150451:0 1:-1.49463 2:0 
-512 -0 -0 -842150451:0 1:-1.49463 2:0 
-512 -0 -0 -842150451:0 1:-1.49463 2:0 
-512 -0 -0 -842150451:0 1:-1.49463 2:0 
-512 -0 -0 -842150451:0 1:-1.49463 2:0 
-512 -0 -0 -842150451:0 1:-1.49463 2:0 
-512 -0 -0 -842150451:0 1:-1.49463 2:0 
-512 -0 -0 -842150451:0 1:-1.49463 2:0 
-512 -0 -0 -842150451:0 1:-1.49463 2:0 
-512 -0 -0 -842150451:0 1:-1.49463 2:0 
-512 -0 -0 -842150451:0 1:-1.49463 2:0 
-512 -0 -0 -842150451:0 1:-1.49463 2:0 
-512 -0 -0 -842150451:0 1:-1.49463 2:0 
-512 -0 -0 -842150451:0 1:-1.49463 2:0 
-512 -0 -0 -842150451:0 1:-1.49463 2:0 
-512 -0 -0 -842150451:0 1:-1.49463 2:0 
-512 -0 -0 -842150451:0 1:-1.49463 2:0 
-512 -0 -0 -842150451:0 1:-1.49463 2:0 
-512 -0 -0 -842150451:0 1:-1.49463 2:0 
-512 -0 -0 -842150451:0 1:-1.49463 2:0 
-512 -0 -0 -842150451:0 1:-1.49463 2:0 
-512 -0 -0 -842150451:0 1:-1.49463 2:0 
-512 -0 -0 -842150451:0 1:-1.49463 2:0 
-512 -0 -0 -842150451:0 1:-1.49463 2:0 
-512 -0 -0 -842150451:0 1:-1.49463 2:0 
-512 -0 -0 -842150451:0 1:-1.49463 2:0 
-512 -0 -0 -842150451:0 1:-1.49463 2:0 
-512 -0 -0 -842150451:0 1:-1.49463 2:0 
-512 -0 -0 -842150451:0 1:-1.49463 2:0 
-512 -0 -0 -842150451:0 1:-1.49463 2:0 
-512 -0 -0 -842150451:0 1:-1.49463 2:0 
-512 -0 -0 -842150451:0 1:-1.49463 2:0 
-512 -0 -0 -842150451:0 1:-1.49463 2:0 
-512 -0 -0 -842150451:0 1:-1.49463 2:0 
-512 -0 -0 -842150451:0 1:-1.49463 2:0 
-512 -0 -0 -842150451:0 1:-1.49463 2:0 
-512 -0 -0 -842150451:0 1:-1.49463 2:0 
-512 -0 -0 -842150451:0 1:-1.49463 2:0 
-512 -0 -0 -842150451:0 1:-1.49463 2:0 
-512 -0 -0 -842150451:0 1:-1.49463 2:0 
-512 -0 -0 -842150451:0 1:-1.49463 2:0 
-512 -0 -0 -842150451:0 1:-1.49463 2:0 
-512 -0 -0 -842150451:0 1:-1.49463 2:0 
-512 -0 -0 -842150451:0 1:-1.49463 2:0 
-512 -0 -0 -842150451:0 1:-1.49463 2:0 
-512 -0 -0 -842150451:0 1:-1.49463 2:0 
-512 -0 -0 -842150451:0 1:-1.49463 2:0 
-512 -0 -0 -842150451:0 1:-1.49463 2:0 
-512 -0 -0 -842150451:0 1:-1.49463 2:0 
-512 -0 -0 -842150451:0 1:-1.49463 2:0 
-512 -0 -0 -842150451:0 1:-1.49463 2:0 
-512 -0 -0 -842150451:0 1:-1.49463 2:0 
-512 -0 -0 -842150451:0 1:-1.49463 2:0 
-512 -0 -0 -842150451:0 1:-1.49463 2:0 
-512 -0 -0 -842150451:0 1:-1.49463 2:0 
-512 -0 -0 -842150451:0 1:-1.49463 2:0 
-512 -0 -0 -842150451:0 1:-1.49463 2:0 
-512 -0 -0 -842150451:0 1:-1.49463 2:0 
-512 -0 -0 -842150451:0 1:-1.49463 2:0 
-512 -0 -0 -842150451:0 1:-1.49463 2:0 
-512 -0 -0 -842150451:0 1:-1.49463 2:0 
-512 -0 -0 -842150451:0 1:-1.49463 2:0 
-512 -0 -0 -842150451:0 1:-1.49463 2:0 
-512 -0 -0 -842150451:0 1:-1.49463 2:0 
-512 -0 -0 -842150451:0 1:-1.49463 2:0 
-512 -0 -0 -842150451:0 1:-1.49463 2:0 
-512 -0 -0 -842150451:0 1:-1.49463 2:0 
-512 -0 -0 -842150451:0 1:-1.49463 2:0 
-512 -0 -0 -842150451:0 1:-1.49463 2:0 
-512 -0 -0 -842150451:0 1:-1.49463 2:0 
-512 -0 -0 -842150451:0 1:-1.49463 2:0 
-512 -0 -0 -842150451:0 1:-1.49463 2:0 
-512 -0 -0 -842150451:0 1:-1.49463 2:0 
-512 -0 -0 -842150451:0 1:-1.49463 2:0 
-512 -0 -0 -842150451:0 1:-1.49463 2:0 
-512 -0 -0 -842150451:0 1:-1.49463 2:0 
-512 -0 -0 -842150451:0 1:-1.49463 2:0 
-512 -0 -0 -842150451:0 1:-1.49463 2:0 
-512 -0 -0 -842150451:0 1:-1.49463 2:0 
-512 -0 -0 -842150451:0 1:-1.49463 2:0 
-512 -0 -0 -842150451:0 1:-1.49463 2:0 
-512 -0 -0 -842150451:0 1:-1.49463 2:0 
-512 -0 -0 -842150451:0 1:-1.49463 2:0 
-512 -0 -0 -842150451:0 1:-1.49463 2:0 
-512 -0 -0 -842150451:0 1:-1.49463 2:0 
-512 -0 -0 -842150451:0 1:-1.49463 2:0 
-512 -0 -0 -842150451:0 1:-1.49463 2:0 
-512 -0 -0 -842150451:0 1:-1.49463 2:0 
-512 -0 -0 -842150451:0 1:-1.49463 2:0 
-512 -0 -0 -842150451:0 1:-1.49463 2:0 
-512 -0 -0 -842150451:0 1:-1.49463 2:0 
-512 -0 -0 -842150451:0 1:-1.49463 2:0 
-512 -0 -0 -842150451:0 1:-1.49463 2:0 
-512 -0 -0 -842150451:0 1:-1.49463 2:0 
-512 -0 -0 -842150451:0 1:-1.49463 2:0 
-512 -0 -0 -842150451:0 1:-1.49463 2:0 
-512 -0 -0 -842150451:0 1:-1.49463 2:0 
-512 -0 -0 -842150451:0 1:-1.49463 2:0 
-512 -0 -0 -842150451:0 1:-1.49463 2:0 
-512 -0 -0 -842150451:0 1:-1.49463 2:0 
-512 -0 -0 -842150451:0 1:-1.49463 2:0 
-512 -0 -0 -842150451:0 1:-1.49463 2:0 
-512 -0 -0 -842150451:0 1:-1.49463 2:0 
-512 -0 -0 -842150451:0 1:-1.49463 2:0 
-512 -0 -0 -842150451:0 1:-1.49463 2:0 
-512 -0 -0 -842150451:0 1:-1.49463 2:0 
-512 -0 -0 -842150451:0 1:-1.49463 2:0 
-512 -0 -0 -842150451:0 1:-1.49463 2:0 
-512 -0 -0 -842150451:0 1:-1.49463 2:0 
-512 -0 -0 -842150451:0 1:-1.49463 2:0 
-512 -0 -0 -842150451:0 1:-1.49463 2:0 
-512 -0 -0 -842150451:0 1:-1.49463 2:0 
-512 -1.812911190823423 -1.876038522041108 -842150451:0 1:-1.49463 2:0 
